<?xml version="1.0"?>
<opencv_storage>
<opencv_ml_svm>
  <format>3</format>
  <svmType>C_SVC</svmType>
  <kernel>
    <type>LINEAR</type></kernel>
  <C>1.0000000000000001e-01</C>
  <term_criteria><iterations>100</iterations></term_criteria>
  <var_count>216</var_count>
  <class_count>10</class_count>
  <class_labels type_id="opencv-matrix">
    <rows>10</rows>
    <cols>1</cols>
    <dt>i</dt>
    <data>
      0 1 2 3 4 5 6 7 8 9</data></class_labels>
  <sv_total>45</sv_total>
  <support_vectors>
    <_>
      0. 0. -8.26649848e-05 3.78384684e-05 3.78384684e-05
      -2.11947863e-05 1.20503450e-04 1.20503450e-04 -1.60871659e-05
      -1.60871659e-05 0. 0. -8.26649848e-05 -8.26649848e-05
      3.78384684e-05 1.42420497e-04 2.30093701e-05 -3.07240111e-06
      1.62286960e-04 9.12368196e-05 -1.26122191e-04 -1.00984340e-04
      -7.79367765e-05 -5.39256325e-05 0. -5.16092514e-05 1.37458977e-04
      6.44435349e-05 -1.31241439e-04 -1.78915390e-04 -2.71289991e-05
      -3.41964151e-05 -4.60494193e-05 -3.09065363e-05 4.43004246e-05
      -1.01529964e-04 -5.90332529e-05 8.96666388e-05 1.21482255e-04
      4.83358344e-05 -8.56308106e-05 -1.97607165e-04 -1.28485772e-04
      -6.04941597e-05 -8.44328097e-05 1.60453390e-04 1.10423374e-04
      -1.01529964e-04 -6.91214009e-05 5.87985160e-05 2.76372652e-04
      -2.41661928e-05 -9.71143381e-05 -3.13556055e-04 -1.07355780e-04
      1.47130180e-04 1.00472746e-04 8.43856396e-05 1.10423374e-04
      1.89734892e-05 -1.00881471e-05 2.30141683e-04 3.71341448e-04
      2.27195225e-04 -3.04424029e-05 -1.42251753e-04 -1.13369919e-04
      1.50897031e-04 1.00472746e-04 2.38708002e-04 1.69389546e-04
      6.28109774e-05 1.64340934e-04 4.55011905e-04 5.15650259e-04
      3.52669478e-04 -1.38785792e-04 2.04155822e-05 -5.72740901e-05
      -4.69915949e-06 1.00472746e-04 2.38708002e-04 2.25128533e-04
      6.28109774e-05 1.64340934e-04 4.85148921e-04 6.66131556e-04
      5.08938858e-04 -4.41199845e-05 1.22162630e-04 -7.77997484e-05
      -3.70224821e-04 -1.54568042e-04 2.38708002e-04 2.25128533e-04
      -6.95376116e-07 1.64340934e-04 4.85148921e-04 6.66131556e-04
      4.30914428e-04 7.17029616e-05 7.43702985e-05 -7.77997484e-05
      -4.64003359e-04 -9.76871015e-05 1.94870518e-04 1.42463556e-04
      -1.98540092e-05 1.64340934e-04 2.20436763e-04 3.45323584e-04
      2.67299125e-04 -2.72798388e-05 -4.14526548e-05 -2.01926188e-04
      -1.03192004e-04 -1.16795789e-04 1.04989296e-04 1.58195803e-06
      2.77503204e-05 1.64340934e-04 1.85381767e-04 2.31436701e-04
      2.58085522e-04 5.33706698e-05 6.60668084e-05 9.27711153e-06
      -3.23775574e-04 -1.53426095e-04 8.17910623e-05 3.62415267e-05
      -2.11455263e-04 5.12614861e-05 1.85381767e-04 2.75274186e-04
      1.78251314e-04 9.08318452e-06 -3.13715973e-05 9.27711153e-06
      -2.62638205e-04 -2.09598438e-04 -5.48345633e-05 8.97484369e-06
      -3.16943275e-04 1.64340934e-04 2.20079935e-04 2.47960794e-04
      1.13763992e-04 -3.29703107e-05 -7.42132252e-05 -1.51799686e-05
      -3.84533691e-04 -3.85872612e-04 -1.63609380e-04 1.17927353e-04
      -7.35944996e-05 -2.06498644e-05 7.44077624e-05 5.13071900e-05
      1.82555959e-04 1.79685623e-04 -7.42132252e-05 -5.94190351e-05
      9.71127793e-06 -2.28955658e-04 -7.67493475e-05 -5.30172365e-05
      -1.32627756e-04 -2.06498644e-05 7.44077624e-05 -4.21499935e-05
      1.07403015e-04 1.79685623e-04 1.79685623e-04 1.47063372e-04
      9.71127793e-06 -2.03799864e-04 -1.32845176e-04 -9.82986021e-05
      -1.76465241e-04 -5.90332529e-05 6.14702003e-05 8.37556654e-05
      6.11801806e-05 3.29226459e-05 3.29226459e-05 -1.78032515e-05
      2.35726184e-05 -6.03490807e-05 -1.78093251e-04 -2.62639544e-04
      -1.17431984e-04 0. 1.20503450e-04 1.20503450e-04 6.14702003e-05
      8.66260016e-05 2.51558031e-05 -1.90832652e-05 2.32892435e-05
      -5.57921921e-05 1.89734892e-05 -5.39256325e-05 -5.39256325e-05 0.
      0. 3.83833867e-05 1.20503450e-04 1.20503450e-04 1.20503450e-04
      1.20503450e-04 1.20503450e-04 -1.55422440e-05 -5.39256325e-05
      -5.39256325e-05 -5.39256325e-05</_>
    <_>
      -1.80418312e-04 -1.80418312e-04 -2.28536868e-04 -4.16727635e-05
      -3.45307562e-05 9.76813681e-05 9.05393608e-05 -4.16727635e-05
      -4.16727635e-05 -2.60669349e-05 -1.80418312e-04 0. 0.
      -4.81185525e-05 2.42629358e-05 -2.26609300e-05 2.14476182e-04
      3.69211957e-05 1.37477633e-04 1.83673808e-04 -8.21474077e-06
      -1.68578583e-04 -3.14598910e-05 -4.81185525e-05 -4.81185525e-05
      4.52617169e-05 1.00179444e-04 2.13887368e-04 1.64918947e-05
      -1.86719262e-05 -2.16997023e-06 -1.86719262e-05 -1.49845946e-04
      -1.48778301e-04 -8.32532096e-05 -2.28536868e-04 -1.64350218e-04
      5.58378160e-05 2.88294628e-04 9.46468572e-05 2.32013190e-05
      -1.15851471e-04 -1.11248482e-04 -2.49515695e-04 -1.73087028e-04
      -2.01326270e-06 -1.70075538e-04 -2.33929823e-04 -1.57193699e-05
      7.47705417e-05 2.70275719e-04 2.38628927e-04 1.61292381e-04
      -1.94583754e-05 3.01510263e-05 3.17787431e-04 1.98569876e-04
      -1.86864112e-04 -3.23299057e-04 1.98897851e-05 3.23991844e-05
      3.99751647e-04 7.78740156e-04 6.01909123e-04 1.76190897e-05
      5.76162165e-05 1.63064193e-04 2.87137314e-04 -2.93090106e-05
      -1.33165842e-04 1.54785201e-04 3.80874408e-05 2.34869120e-04
      4.16474039e-04 7.53482978e-04 5.10310929e-04 -1.56841688e-05
      5.42855487e-05 5.43813576e-06 -1.97348025e-04 2.59465542e-05
      -2.20516195e-05 2.39267349e-04 5.16760083e-05 2.34869120e-04
      2.90480879e-04 5.73064666e-04 3.73150484e-04 -7.65577352e-05
      5.66615927e-05 -1.08383256e-05 -1.76270900e-04 -1.77391470e-04
      6.96778152e-05 3.88380111e-04 9.97945608e-05 1.63923323e-04
      2.83338857e-04 3.96179472e-04 3.12457232e-05 -5.99529412e-05
      1.15277042e-04 8.28041011e-05 -2.87501083e-04 2.18861514e-05
      3.01671127e-04 6.18048070e-04 9.46698128e-05 -2.63851907e-05
      1.81237381e-04 -9.96518247e-06 -1.51266548e-04 2.91517699e-05
      -4.11995279e-05 -7.02230100e-05 -5.30225443e-05 3.92129114e-05
      1.42844336e-04 1.62683529e-04 2.27727112e-04 -1.09899418e-04
      5.39422144e-05 -6.39286955e-05 -7.58419337e-05 -1.66026279e-04
      -1.39158685e-04 -1.25790742e-04 -2.53817590e-04 1.89778657e-04
      5.84987458e-04 5.35748957e-04 2.51591497e-04 -1.09899418e-04
      5.39422144e-05 -1.08985652e-04 -3.07866896e-04 -3.40366940e-04
      -1.17069088e-04 -2.49064848e-04 4.07914486e-05 2.97419629e-05
      9.26302164e-05 2.42163995e-04 3.23991844e-05 7.05188941e-05
      -9.01856911e-05 -8.08429468e-06 -2.70106975e-04 -3.72801325e-04
      -2.81488436e-04 4.31830595e-05 -4.42687742e-05 -2.66496845e-05
      1.25024409e-04 -1.60849595e-04 -7.92480278e-05 -5.81272616e-06
      -8.29550117e-06 -2.04339827e-04 -6.31656731e-05 -1.01984988e-04
      -2.69659849e-05 1.68065482e-04 1.40627613e-04 1.40627613e-04
      1.02631355e-04 4.60917036e-05 -7.92480278e-05 -2.14185529e-05
      1.01840647e-04 -1.61346790e-04 -4.23234087e-05 -5.44038521e-05
      7.35466601e-05 1.15370436e-04 7.35466601e-05 -2.18108162e-05
      5.82464199e-05 -7.86475794e-05 -4.81185525e-05 1.95579942e-05
      6.09488161e-05 -8.54670216e-05 -2.53426952e-05 -1.75029723e-04
      -1.92718853e-05 -2.55778978e-05 1.51085653e-04 1.85352779e-04
      1.20503013e-04 -1.11290683e-04 0. -1.56058268e-05 1.94006119e-04
      -7.95800952e-05 -8.98956350e-05 3.26825029e-05 -1.26383005e-04
      -1.56631472e-06 9.64357096e-05 2.61136884e-05 3.13028686e-05
      -5.61110282e-05 0. 0. -1.56058268e-05 1.95579942e-05
      -9.26595840e-06 7.45643365e-06 5.30175785e-05 1.32670524e-04
      4.77688518e-05 -1.48831648e-04 -1.51796950e-04 -1.56058268e-05 0.</_>
    <_>
      -7.86939418e-05 -1.08493579e-04 -1.08493579e-04 7.59780141e-06
      7.59780141e-06 7.59780141e-06 8.62917441e-05 7.59780141e-06
      7.59780141e-06 7.59780141e-06 -1.08493579e-04 -2.97996376e-05 0.
      -8.34200473e-05 -6.70755326e-05 2.08823967e-05 -3.51128328e-05
      1.46065122e-05 1.21545847e-04 5.50625628e-05 -9.01834501e-05
      -7.21625620e-05 -4.27661580e-05 0. 0. 2.59171411e-05
      -2.21537539e-06 1.08096290e-04 -7.99509689e-06 -7.99509689e-06
      4.57340102e-05 -1.59271382e-04 -2.09635342e-04 -1.87967074e-04
      -6.10128554e-05 -9.98593350e-06 0. 8.06057433e-05 1.53513232e-04
      1.52317618e-04 1.01262442e-04 3.40730949e-05 -5.37463602e-05
      -2.02529351e-04 -2.09635342e-04 -1.01716651e-05 4.96687971e-05
      -1.25189126e-05 0. 2.38537075e-04 2.67597177e-04 2.32269187e-04
      9.47675071e-05 -3.07078735e-05 -5.09330821e-05 -1.93095257e-04
      -4.18189738e-05 4.82242613e-05 1.87255326e-04 1.13558403e-04 0.
      3.51892173e-04 3.85960448e-04 2.73628597e-04 -1.49496282e-05
      -1.86074773e-04 -4.21349832e-05 -1.69223233e-04 2.85274782e-05
      2.97243940e-04 2.58856569e-04 1.16091382e-04 1.16091382e-04
      3.32981494e-04 3.85960448e-04 2.73628597e-04 -8.34940147e-05
      -1.28156113e-04 -1.33490670e-04 -1.77925685e-04 1.17519821e-05
      2.74933904e-04 2.85161746e-04 1.16091382e-04 1.16091382e-04
      3.45270906e-04 3.85960448e-04 2.31965474e-04 -5.48789503e-05
      -1.82603588e-04 -1.40151737e-04 -2.87552510e-04 -1.17320698e-04
      1.15620809e-04 1.76668153e-04 1.16091382e-04 1.16091382e-04
      3.45270906e-04 3.85960448e-04 1.59856514e-04 -1.41631126e-05
      -8.81960586e-05 -1.45489001e-04 -2.94448313e-04 -1.59829244e-04
      -3.29116629e-05 4.09774948e-05 7.59780141e-06 1.16091382e-04
      1.22054655e-04 1.68568440e-04 9.64594947e-05 7.07359504e-05
      -2.50622293e-06 -2.57235406e-05 -4.62170683e-05 -4.28813510e-05
      2.47080770e-05 -1.27409105e-04 7.59780141e-06 1.16091382e-04
      1.94163600e-04 2.95464240e-04 2.27702039e-04 1.96501947e-04
      1.90538689e-04 5.97980506e-05 -8.39466156e-06 1.75739606e-05
      -7.59780141e-06 -2.01935691e-05 -7.73566062e-05 1.16091382e-04
      1.94163600e-04 2.95464240e-04 2.30749763e-04 1.96501947e-04
      9.04962217e-05 5.97980506e-05 1.88033577e-04 -1.20321747e-05
      -1.47173356e-04 -5.06432116e-05 -1.93447995e-04 1.16091382e-04
      4.47919265e-05 1.70358529e-04 1.84338016e-04 1.92155203e-04
      1.06005733e-04 5.95939782e-05 -2.16050776e-05 -1.09510809e-04
      -1.76972986e-04 -1.26547384e-04 -8.49544085e-05 0. 3.73974399e-05
      6.18476915e-05 1.03138962e-04 9.08495495e-05 -1.90999672e-05
      5.95939782e-05 -7.68629106e-05 -1.84664299e-04 -1.44126927e-04
      -4.78534348e-05 -4.53538596e-05 -6.13650627e-06 1.48247609e-05
      -1.75077014e-06 -8.51132500e-05 -2.86732484e-05 -2.59602421e-05
      3.68311812e-05 -1.70146031e-05 -3.86992033e-05 2.17504057e-05
      -4.75000934e-06 0. -6.13650627e-06 6.51887167e-05 2.42395236e-05
      -6.60130390e-05 -8.85604677e-05 -3.62346946e-05 1.50571686e-05
      5.15500433e-05 4.41555567e-05 -4.15852119e-05 0. 0. 0.
      9.53155031e-05 -5.21211223e-06 -9.45736829e-05 -5.83994733e-05
      -1.13154136e-04 -2.12662035e-05 1.84019846e-05 1.65849342e-05
      1.05301435e-04 0. 0. 0. 0. -1.07899486e-05 7.74636064e-05
      6.37426228e-06 1.01778969e-05 9.41966282e-05 1.05301435e-04 0. 0.
      0. 0.</_>
    <_>
      0. 0. 0. 7.22559125e-05 -5.73845537e-05 -4.68598591e-05
      -4.68598591e-05 7.22559125e-05 7.22559125e-05 7.22559125e-05 0. 0.
      0. 0. 7.22559125e-05 7.74604705e-05 1.32995789e-04 -5.88028161e-06
      9.79592296e-05 2.48511700e-04 1.80286836e-04 9.39557067e-05
      7.22559125e-05 0. 0. 7.22559125e-05 2.07100937e-04 1.40606790e-04
      1.73072920e-06 2.36054475e-05 1.28372209e-04 2.46560725e-04
      2.72361678e-04 1.98519818e-04 9.39557067e-05 0. 0. 1.42502424e-04
      3.15131852e-04 2.61624518e-04 1.30405839e-04 1.20446093e-04
      1.95381930e-04 3.78168945e-04 9.68083987e-05 2.93153484e-04
      1.33921305e-04 0. 0. 2.07100937e-04 3.83653969e-04 1.24757833e-04
      -5.60723447e-06 -2.56516851e-05 1.09762615e-04 2.42762544e-04
      1.94690278e-04 1.34530885e-04 1.33921305e-04 7.22559125e-05 0.
      3.08034912e-04 2.83499219e-04 1.24757833e-04 -8.14584928e-05
      -8.37703283e-06 -5.60293483e-05 1.94690278e-04 1.94690278e-04
      2.35464860e-04 2.09772566e-04 7.22559125e-05 7.22559125e-05
      2.55539286e-04 1.95004352e-04 9.89568725e-05 -4.81385505e-05
      -1.18783442e-04 -2.37792210e-05 3.77521210e-05 1.94690278e-04
      2.24175994e-04 3.02112225e-04 7.22559125e-05 7.22559125e-05
      1.89080776e-04 1.43540252e-04 -1.25117615e-04 -1.61250980e-04
      -2.43843042e-05 -8.10238707e-05 -1.47857136e-04 4.33948298e-05
      2.24175994e-04 3.02112225e-04 7.22559125e-05 -3.17038102e-05
      1.31450899e-04 -1.97351947e-05 -6.91011373e-05 -1.28205966e-05
      4.37083872e-05 9.45294232e-05 -2.18103654e-04 -5.42716043e-05
      1.84275603e-04 3.76120792e-04 7.22559125e-05 2.30460319e-05
      1.48215668e-05 1.57279410e-05 -1.49325031e-04 -1.06487096e-04
      5.99586529e-05 -2.57898919e-05 -1.42426899e-04 -1.10722409e-04
      1.09975452e-04 1.89054263e-04 7.22559125e-05 -1.61344273e-04
      -4.40599542e-05 -1.69034087e-04 -9.13662152e-05 -1.43500074e-04
      -7.53618660e-05 -1.85887882e-04 -2.89597840e-04 -2.31833314e-04
      1.05060230e-04 -2.44709936e-05 2.95807104e-06 -1.09880173e-04
      -7.79634720e-05 -1.20961806e-04 -1.98519818e-04 -1.43500074e-04
      -1.97176734e-04 -1.61941745e-04 -2.41226051e-04 -2.13155494e-04
      -1.69034087e-04 -2.44709936e-05 -1.03959719e-04 -1.24004713e-04
      -1.31836365e-04 7.24252168e-05 4.29394859e-05 -4.94001579e-05
      -2.06936693e-05 -1.00124147e-04 -3.91793437e-04 -1.98519818e-04
      -1.69034087e-04 -1.48905165e-04 -6.66201522e-05 -1.29640466e-04
      -1.24004713e-04 -2.11769457e-05 9.54350980e-05 9.54350980e-05
      -9.78385215e-05 -4.76285350e-05 -7.44306308e-05 -1.98519818e-04
      -1.18952412e-04 -4.88716905e-05 -1.96260618e-04 0. 7.22559125e-05
      1.01660167e-04 2.06189492e-04 2.46950280e-04 2.46950280e-04
      1.72941713e-04 -3.47221794e-05 -1.69034087e-04 -6.41696170e-05
      -1.24004713e-04 0. 0. 7.22559125e-05 3.51214840e-05 3.51214840e-05
      1.56139198e-04 9.29572489e-05 5.63296599e-05 7.60899566e-05
      -8.20384521e-05 -1.71680382e-04 -6.66201522e-05 0. 0.
      7.22559125e-05 7.22559125e-05 7.22559125e-05 1.01741636e-04
      2.94857291e-05 3.68477208e-06 9.32052717e-06 -1.49805666e-04
      -1.45879429e-04 0. 0. 0. 0. 0. 7.22559125e-05 7.22559125e-05
      7.22559125e-05 7.22559125e-05 -2.01652019e-05 -9.24211126e-05
      -1.96260618e-04 0. 0.</_>
    <_>
      -1.41895594e-04 -1.54367590e-04 -1.28211366e-04 2.51063975e-05
      2.51063975e-05 3.75783893e-05 7.30674146e-05 2.51063975e-05
      2.51063975e-05 -1.04981757e-06 -1.54367590e-04 -1.24719918e-05
      -1.41895594e-04 -2.64076254e-04 -2.87545874e-04 -7.55157089e-05
      9.66210355e-05 1.31289780e-04 1.37144802e-04 9.66210355e-05
      -9.81831108e-05 -2.33874744e-04 -2.68121803e-04 0. -1.15739378e-04
      -8.46022813e-05 -2.72096542e-04 -1.73554836e-05 -3.75043965e-05
      -1.17290867e-04 -4.36588016e-05 -1.17290867e-04 -1.69302293e-05
      -1.31996450e-04 -1.55248286e-04 0. -1.15739378e-04 -1.90414474e-04
      -2.95644160e-04 -6.31756484e-05 -6.11800133e-05 -5.24934512e-05
      -8.32954320e-05 7.81812487e-05 -1.66693746e-04 1.71052161e-04
      9.11373063e-05 -1.21321427e-04 -2.49532779e-04 -2.67900090e-04
      -7.35313006e-05 -3.30129144e-04 -2.13856008e-04 -4.32522473e-04
      -7.25718783e-05 1.28975502e-04 3.77499411e-04 3.82478873e-04
      -6.58299323e-05 5.81525564e-05 -2.37060798e-04 4.91911997e-05
      -1.53317771e-04 -3.30129144e-04 -3.41567560e-04 -2.74490129e-04
      1.84018536e-05 3.10391566e-04 3.54123273e-04 6.03396620e-04
      2.99907726e-04 2.05459321e-04 -8.37430343e-05 1.08045206e-04
      -1.53317771e-04 -4.00263467e-04 -7.44655845e-04 -2.00087408e-04
      2.66494699e-05 3.44076011e-06 1.16503514e-04 4.36098839e-04
      3.83259641e-04 6.35637334e-05 5.81525564e-05 2.49940815e-04
      2.68121803e-04 -5.73793513e-05 -4.13761241e-04 -2.18957081e-04
      -2.82771100e-04 -4.11486806e-04 -1.55154761e-04 3.19800514e-04
      1.16187672e-04 5.10917416e-05 1.79473980e-04 6.90849090e-04
      5.91990771e-04 1.89553975e-04 -1.64095472e-05 1.10248162e-04
      2.30935657e-05 -3.47184716e-04 -2.02906755e-04 -4.09657441e-05
      -2.78399326e-04 -7.02296820e-05 1.53317771e-04 3.41631589e-04
      3.60001839e-04 1.90014267e-04 1.90014267e-04 1.84737888e-04
      1.52371955e-04 1.12280693e-04 -1.91034662e-04 6.15558311e-05
      -1.56102178e-04 4.46679696e-05 1.79473980e-04 2.90694414e-04
      4.46328486e-04 4.04134684e-04 5.63346606e-04 3.74861876e-04
      1.80057745e-04 1.80057745e-04 -4.51207816e-05 -3.19963401e-05
      -3.08656672e-05 -7.02296820e-05 1.79473980e-04 1.48798819e-04
      2.58852611e-04 3.43504769e-04 2.70118384e-04 2.29483107e-04
      1.80057745e-04 3.35989287e-04 1.78927570e-04 -2.12054088e-04
      -3.08656672e-05 -2.49532779e-04 1.79473980e-04 -2.14404881e-05
      2.12328523e-05 7.02391917e-05 -1.17730406e-05 -8.63306777e-05
      -4.07503831e-05 -9.88026732e-05 -7.82547504e-05 -2.87795207e-04
      -2.26419259e-04 -9.51652110e-05 7.97864705e-05 -2.38999401e-05
      1.31316134e-04 -6.35542237e-05 -6.35542237e-05 -4.65846038e-04
      -2.68478383e-04 -6.35542237e-05 -4.05690604e-04 6.71405724e-05
      1.54258043e-04 0. 7.97864705e-05 1.72250468e-04 -6.01391230e-06
      3.67038563e-04 9.34130148e-05 1.05885010e-04 9.22654435e-05
      -1.40898323e-04 1.69624225e-04 2.03095071e-04 3.86066786e-05 0. 0.
      1.79303112e-04 2.25632859e-04 -4.74827102e-05 2.18613393e-04
      -2.20155630e-06 1.01064514e-04 7.13297413e-05 2.26744000e-04
      4.40260301e-05 0. 0. 0. 1.53317771e-04 1.84722463e-04
      -1.16503514e-04 -1.16503514e-04 -1.62083816e-04 -1.18352102e-04
      1.52713474e-04 2.94320017e-07 1.53317771e-04 0. 0. 0. 0.
      -1.04641673e-04 -5.12502857e-06 2.94320017e-07 -2.56910225e-05
      1.58737108e-04 1.84722463e-04 7.97864705e-05 0. 0. 0.</_>
    <_>
      0. 0. 1.63244240e-05 8.17022010e-05 8.17022010e-05 8.17022010e-05
      -7.14262296e-06 -8.77529019e-05 -2.97452898e-05 6.53777752e-05 0.
      0. 0. 0. 8.17022010e-05 1.29106891e-04 1.97379108e-04
      -1.34687043e-05 6.91249516e-05 -6.24752065e-05 -2.18355744e-05
      8.17022010e-05 6.53777752e-05 0. 1.63244240e-05 8.17022010e-05
      1.29106891e-04 1.97379108e-04 3.64832922e-05 -3.01380296e-05
      8.56033730e-05 -1.78468748e-04 6.96987408e-05 1.55324393e-04
      8.17022010e-05 0. 1.63244240e-05 8.17022010e-05 2.28532648e-04
      2.43540257e-04 1.07266169e-04 -3.42320454e-05 9.06265632e-05
      7.28495143e-05 1.12209433e-04 2.92224257e-04 1.45393817e-04 0.
      1.63244240e-05 1.29106891e-04 2.59864697e-04 1.87141428e-04
      -3.42320454e-05 -2.92224257e-04 7.07639992e-05 2.71899218e-04
      3.86536267e-04 2.90365919e-04 1.45393817e-04 8.17022010e-05
      1.63244240e-05 1.91443381e-04 2.22390561e-04 1.31726511e-05
      -2.92224257e-04 -4.68200975e-04 -6.28760317e-05 2.54977465e-04
      2.89010757e-04 4.50227875e-04 2.44819559e-04 8.17022010e-05
      8.17022010e-05 1.06013955e-04 1.14023635e-04 -8.17022010e-05
      -4.68200975e-04 -4.51876549e-04 -5.39341745e-05 -1.60335967e-05
      1.36960021e-04 3.18669074e-04 3.08338989e-04 8.17022010e-05
      -1.58232924e-05 7.97120010e-05 -5.02862858e-05 -2.41564179e-04
      -3.52450792e-04 -3.52450792e-04 -1.57990886e-04 -3.30541458e-04
      -5.97553626e-05 1.48936742e-04 1.73059510e-04 8.17022010e-05
      -1.01252714e-04 9.35033459e-05 5.51947687e-06 -2.28951656e-04
      -3.52450792e-04 -1.54463269e-04 -1.44774231e-05 -3.06099420e-04
      -1.54647656e-04 -2.00380509e-05 8.71272568e-05 -6.72194074e-05
      -8.84438414e-05 1.04928818e-04 -2.87846960e-05 -1.30283734e-04
      6.88268358e-07 1.15750176e-04 8.34655020e-06 -2.72268935e-05
      -1.13431604e-04 -4.20601573e-05 3.82121179e-05 -3.33159878e-05
      -1.46135120e-04 -9.81852554e-06 -1.12782473e-04 -3.81872778e-05
      1.54199457e-04 8.09582489e-05 9.88173997e-06 1.65096189e-05
      2.43733230e-05 -1.49941961e-05 -4.87500292e-05 -1.01252714e-04
      -1.46135120e-04 -8.19821507e-05 8.71732755e-06 9.28404552e-05
      1.37875031e-04 4.74046938e-05 9.88173997e-06 4.74046938e-05
      3.52988027e-05 2.22171420e-05 -4.87500292e-05 -1.87538593e-04
      -8.77529019e-05 -1.25253064e-04 -4.34684407e-05 3.83207407e-05
      5.66986782e-05 3.98538068e-05 1.15750176e-04 3.98538068e-05
      1.93642722e-06 -8.88081631e-05 -1.72249158e-04 -1.90604798e-04
      -1.55533111e-04 -1.27324063e-04 2.95897462e-05 -1.07160056e-04
      -7.23299599e-05 -4.73586879e-05 -4.21562072e-05 -4.69018096e-06
      -1.38577787e-04 -2.34303880e-05 -7.67068996e-05 -1.35421797e-04
      -2.39743058e-05 -8.70891163e-05 -6.38046404e-05 8.88805298e-05
      -1.32333362e-05 -8.62519591e-05 -9.95379014e-06 -8.62519591e-05
      -3.23555614e-05 2.84175494e-05 -1.31061082e-04 -2.39743058e-05 0.
      4.14034694e-05 -2.33974988e-05 -8.60970104e-05 2.79942196e-06
      -3.47689747e-05 6.38625861e-05 6.81771999e-05 6.59326906e-05
      -1.36291841e-04 -4.48824030e-05 -2.39743058e-05 0. 4.14034694e-05
      6.53777752e-05 1.08161301e-04 -4.02799451e-05 -8.94803015e-05
      -1.19362321e-05 -6.58574645e-05 -2.48443521e-05 2.04953740e-05
      -2.39743058e-05 -2.39743058e-05 0. 0. -2.39743058e-05
      4.14034694e-05 4.14034694e-05 2.04953740e-05 4.44696816e-05
      2.04953740e-05 -2.39743058e-05 -2.39743058e-05 -2.39743058e-05 0.</_>
    <_>
      -1.11232956e-04 -1.11232956e-04 -1.11232956e-04 -1.19956976e-05
      -1.19956976e-05 5.34281435e-06 8.03594594e-06 -1.19956976e-05
      -1.19956976e-05 -1.19956976e-05 -1.11232956e-04 -7.82766656e-05
      -1.11232956e-04 -1.41033059e-04 -1.49547079e-04 -7.93231666e-05
      2.46669460e-05 -3.43260872e-05 2.86767390e-05 5.35405525e-05
      -7.33234265e-05 -3.17175145e-05 -6.59151701e-05 -8.09697958e-05
      -3.24932334e-05 -7.63168791e-05 -8.54699319e-05 5.76959137e-05
      -4.15413415e-05 -4.15413415e-05 -1.48344088e-05 -9.58042074e-05
      -1.19818003e-04 -1.23918639e-04 1.18899598e-05 -1.34889269e-04 0.
      3.47494606e-05 1.96993613e-04 9.85484658e-05 7.07689687e-05
      -7.86703022e-05 -1.26730927e-04 -1.69694860e-04 -1.19818003e-04
      -2.05807501e-05 -1.25140568e-05 -1.24326412e-04 0. 2.30354635e-04
      3.00012878e-04 2.37506232e-04 1.36599760e-04 -4.03574013e-05
      -3.38984864e-05 3.83477673e-05 -8.50405631e-05 -3.62733226e-05
      6.43807871e-05 -9.78080698e-06 0. 2.50935380e-04 3.60473816e-04
      2.81900691e-04 2.05807501e-05 -2.33962510e-06 1.26539613e-04
      3.83477673e-05 -3.17590384e-05 2.28506906e-05 1.54361449e-04
      6.89740991e-05 9.92372516e-05 2.50935380e-04 3.60473816e-04
      2.57135922e-04 1.21238569e-04 1.40005548e-04 4.47710263e-05
      -1.43083205e-04 8.50821962e-05 1.99849950e-04 2.38081018e-04
      9.92372516e-05 9.92372516e-05 2.50935380e-04 3.60473816e-04
      2.61616398e-04 4.40939330e-05 6.90788584e-05 -5.00440874e-05
      -2.34179694e-04 1.63269760e-05 2.38840526e-04 3.08012939e-04
      9.92372516e-05 9.92372516e-05 2.50935380e-04 3.60473816e-04
      2.42856797e-04 1.40459451e-04 -9.37355144e-05 -9.44420171e-05
      -1.46280203e-04 1.70175103e-04 3.06554342e-04 3.08012939e-04
      9.92372516e-05 9.92372516e-05 1.17517593e-04 2.33862040e-04
      6.05643872e-05 -6.20819046e-05 -8.00458438e-05 -6.19238854e-05
      -2.83580921e-05 6.97235810e-05 1.51698128e-04 9.92372516e-05
      9.92372516e-05 9.92372516e-05 1.33584064e-04 1.55572314e-04
      1.63902267e-04 2.83511872e-05 -7.58881506e-05 3.06152579e-05
      1.18025731e-04 3.23826593e-04 3.32694326e-04 2.39222354e-04
      9.92372516e-05 9.92372516e-05 1.33584064e-04 1.48599938e-04
      -5.51759913e-05 -2.55682880e-05 -7.75948574e-05 5.46290576e-05
      2.09092876e-04 1.21618221e-04 1.58265437e-04 2.39222354e-04 0.
      9.92372516e-05 9.92372516e-05 9.69862522e-05 -3.08188028e-05
      -1.05476422e-04 -9.93123685e-05 2.94311831e-05 6.15549652e-05
      1.42198973e-04 1.58265437e-04 1.19818003e-04 0. 0. 9.65441213e-05
      -2.61903165e-06 -3.08188028e-05 -1.05476422e-04 -6.09410818e-05
      5.93368568e-05 8.21357171e-05 1.42198973e-04 1.35884475e-04
      1.19818003e-04 0. 0. 9.65441213e-05 -3.57500503e-05
      -9.33254414e-05 -9.85040533e-05 -3.87647924e-05 8.21357171e-05
      1.11935813e-04 1.39985103e-04 1.35884475e-04 9.92372516e-05 0. 0.
      9.65441213e-05 6.81875754e-05 -5.77140527e-05 -6.82594909e-05
      -3.80104029e-05 6.38405845e-06 1.35884475e-04 1.35884475e-04
      9.92372516e-05 0. 0. 0. 9.65441213e-05 9.65441213e-05
      9.49485839e-05 5.05994976e-05 1.60664658e-05 1.60664658e-05
      1.15303723e-04 9.92372516e-05 9.92372516e-05 0. 0. 0. 0.
      -2.69313205e-06 9.65441213e-05 9.92372516e-05 9.92372516e-05
      9.92372516e-05 9.92372516e-05 0. 0. 0. 0.</_>
    <_>
      0. -3.99887882e-04 -1.75214373e-04 1.18827356e-05 -7.29775493e-05
      -7.29775493e-05 6.42435698e-05 -7.29775493e-05 1.18827356e-05
      -2.12790765e-04 0. 0. 0. -3.99887882e-04 -1.63196222e-04
      3.04613768e-05 1.36335482e-04 1.28140864e-05 3.09866242e-04
      2.03264193e-04 7.90102695e-06 1.70485539e-04 -2.12790765e-04 0.
      2.24673495e-04 -7.29775493e-05 -1.55169531e-04 9.12782198e-05
      3.89680325e-04 3.89680325e-04 1.93231070e-04 -9.50678295e-05
      1.26128420e-04 3.31574593e-05 1.70485539e-04 4.56602356e-05
      2.70333723e-04 -7.29775493e-05 1.53246336e-04 3.18689505e-04
      4.94836539e-04 6.14512188e-04 4.91808460e-04 2.58165877e-04
      -4.94075939e-05 2.95248901e-04 1.15414432e-05 4.56602356e-05
      2.70333723e-04 1.52900044e-04 4.07084823e-04 -2.53471226e-04
      -1.82218864e-04 -5.56570711e-04 1.87992264e-05 2.47489428e-04
      -2.27259938e-04 1.62015815e-04 3.50564398e-04 3.93251277e-04
      2.71782483e-05 8.93585384e-04 1.61103584e-04 -1.20872734e-04
      -8.72425793e-04 -7.83344032e-04 -5.05527365e-04 -4.41829834e-05
      -1.99576316e-04 4.71870153e-04 6.00229192e-04 3.93251277e-04
      1.68615123e-04 3.33111879e-04 4.41873068e-04 -2.51508518e-05
      -6.20675972e-04 -1.38715259e-04 -6.23967644e-05 -2.45993375e-04
      -2.97646839e-05 4.71870153e-04 5.27353957e-04 1.68615123e-04
      -2.31272745e-04 4.35361610e-04 3.66112508e-04 -3.50066344e-04
      5.61972001e-06 9.10657545e-05 -4.23375226e-04 -6.15515979e-04
      -1.14928378e-04 3.78667581e-04 2.12326355e-04 1.68615123e-04
      -2.31272745e-04 3.94929491e-04 3.00129963e-04 -3.79979843e-04
      -2.99328181e-04 -3.21043539e-04 -2.98922649e-04 -7.16730661e-04
      3.11343902e-05 2.39045403e-04 1.59810283e-04 -2.31272745e-04
      -1.94490465e-04 1.85504483e-04 5.73044468e-04 -3.08257702e-04
      -2.32533512e-05 -2.35097777e-05 -3.83012928e-04 -1.46770006e-04
      -5.20149595e-04 1.40128686e-04 5.55893021e-05 -1.94490465e-04
      -2.76932988e-04 -2.07994002e-04 -7.41493481e-04 -2.53020815e-04
      2.93451507e-04 1.08450804e-04 6.40603903e-05 -5.58992208e-04
      -6.46676519e-04 -1.41436874e-04 -9.71627960e-05 3.66110384e-04
      1.22954894e-04 -1.59250456e-04 -5.43998263e-04 -4.01857367e-04
      1.66899074e-04 6.92906688e-05 2.83621321e-05 -1.19812641e-04
      2.88231367e-05 -6.68190769e-04 -2.62450369e-04 -2.87244504e-04
      1.95752655e-05 -1.88956488e-04 1.54602531e-04 -4.07528918e-04
      -5.51812718e-06 -2.30869991e-04 7.72976273e-05 -9.82176134e-05
      7.01093813e-04 -8.85529444e-05 -4.80061426e-04 -2.47356773e-04
      -3.46535118e-04 -2.82000692e-04 -6.38736237e-05 1.44322810e-04
      2.34968553e-04 -2.41867136e-04 5.92634569e-06 4.94712207e-04
      2.33024010e-04 -3.25621040e-05 -5.83617308e-04 -3.46535118e-04
      -1.03379622e-04 -2.16747663e-04 -8.98381404e-05 -7.00336095e-05
      -1.55886635e-04 -7.51156331e-05 1.37623079e-04 -1.01314654e-05
      1.48266781e-05 7.73411957e-05 -1.57056173e-04 -1.03379622e-04 0.
      3.80572492e-05 -7.31776599e-05 -2.17154811e-04 5.75318190e-05
      -2.01542716e-04 -1.49999178e-04 2.17164561e-04 2.32531034e-04
      -2.23630967e-04 -1.64244542e-04 -1.03379622e-04 0. 5.65765913e-05
      1.22947502e-04 1.03041421e-04 -1.37807918e-04 -2.65494891e-04
      -1.79046256e-04 -1.86702790e-04 -2.71191348e-05 3.80572492e-05
      -1.03379622e-04 0. 0. 0. 0. 5.65765913e-05 1.22947502e-04
      1.22947502e-04 1.36561197e-04 2.11648716e-04 -1.03379622e-04
      -8.48602867e-05 0. 0.</_>
    <_>
      0. -3.90400919e-06 -3.90400919e-06 -3.31973315e-05 -3.31973315e-05
      8.42513400e-05 8.81553497e-05 -3.31973315e-05 1.09537083e-04
      1.41826036e-04 -3.90400919e-06 0. 0. -3.61929597e-05
      -1.15004761e-04 -1.21079291e-04 3.12961893e-05 2.03464791e-04
      1.91881627e-04 2.00628609e-04 -1.96959863e-05 7.39773750e-05
      1.41826036e-04 -3.90400919e-06 -3.90400919e-06 1.09537083e-04
      -3.05954454e-04 1.76576985e-04 -9.86834712e-05 2.02239054e-04
      4.02967649e-04 2.53093895e-05 -9.86834712e-05 4.30511427e-05
      9.92631249e-05 -3.90400919e-06 -3.61929597e-05 -2.58836284e-04
      1.18718199e-05 -1.13441092e-04 -1.29703942e-04 -9.53728158e-05
      4.57709848e-06 5.66980234e-05 -7.72071508e-06 -5.68526957e-05
      3.10632691e-04 -7.72040366e-05 -1.45352329e-04 -7.54597713e-05
      -2.04307784e-04 -2.00313865e-04 -3.81791288e-05 -1.76576985e-04
      3.53942625e-04 8.38894048e-04 5.29218523e-05 -1.45730039e-04
      2.26100310e-05 2.68890926e-05 -1.41448312e-04 -1.45504659e-04
      -1.45730039e-04 6.19124985e-05 -2.77475483e-04 8.47606803e-04
      6.03210065e-04 7.70095445e-04 2.43979201e-04 -8.54325572e-06
      -1.29129403e-04 -7.29223175e-05 4.28172507e-06 -1.57930463e-05
      4.53712419e-05 -7.87111712e-05 1.82748045e-04 4.42827761e-04
      2.16042725e-04 2.74149672e-04 1.90904830e-04 -8.18432891e-05
      -2.81635090e-04 -1.72829226e-04 4.28172507e-06 5.89810552e-05
      3.34972516e-04 3.25234869e-04 1.36885123e-04 4.64288460e-04
      -2.46391457e-04 -3.82383267e-04 -4.86444595e-04 -8.18432891e-05
      -7.21958440e-06 -2.00523020e-04 3.65706765e-05 4.09560627e-04
      5.28964854e-04 1.05743107e-04 4.35415597e-04 1.92125182e-04
      -1.67086531e-04 -7.43812183e-04 -2.00291222e-04 3.31068499e-04
      2.88572075e-04 -6.33362361e-05 1.88653052e-04 2.23406343e-04
      1.87799465e-04 -1.32893227e-04 -1.80350820e-04 1.87986116e-05
      -2.00446098e-04 -3.50103015e-04 -2.44506722e-04 1.58739931e-04
      1.81777359e-05 -3.80504862e-05 1.88653052e-04 4.81824507e-04
      3.56531877e-04 4.40929784e-04 5.63632020e-05 -1.51022556e-04
      -1.43665864e-04 -3.24712892e-04 9.63951461e-05 3.74692085e-04
      4.22756093e-05 1.79305091e-04 1.88653052e-04 4.91172483e-04
      5.83826215e-04 3.10836185e-04 -1.41717255e-05 -8.12482831e-05
      -3.34019533e-05 -1.19057928e-04 -8.33142622e-05 -1.41257304e-04
      2.06229946e-04 4.29230095e-05 1.88653052e-04 2.51637917e-04
      5.83826215e-04 4.19121061e-04 2.77040090e-04 -3.31023854e-04
      -2.09893900e-04 -7.83185416e-04 -3.57241021e-04 3.43598258e-05
      5.68059804e-05 4.29230095e-05 1.06127431e-04 1.88653052e-04
      4.22124052e-04 4.19121061e-04 2.06977595e-04 -3.79072626e-05
      -2.09893900e-04 -4.83285170e-04 -2.18654124e-04 3.49977432e-04
      1.99540402e-04 4.29230095e-05 1.06127431e-04 1.88653052e-04
      3.10215662e-04 3.27986287e-04 1.66586382e-04 4.35123075e-05
      -6.77638745e-05 -2.73926795e-04 9.21144165e-05 4.27230436e-04
      1.88653052e-04 0. 0. 1.45730039e-04 3.10435222e-04 5.68620198e-05
      7.52135838e-06 -3.86370113e-04 -1.54777634e-04 -3.05784837e-04
      8.79883737e-05 1.99540402e-04 0. 0. 0. 1.45730039e-04
      1.45730039e-04 -3.25850851e-05 2.28700696e-06 -5.75921767e-05
      -5.67502648e-05 7.85205630e-05 1.20444296e-04 1.45730039e-04 0. 0.
      0. 0. 1.06127431e-04 1.36382077e-04 -6.35233482e-06
      -2.40796962e-05 1.20444296e-04 2.99562817e-06 1.06127431e-04 0. 0.
      0.</_>
    <_>
      -1.31010500e-04 -1.31010500e-04 -1.46090533e-05 -7.45528887e-05
      -7.45528887e-05 7.20621247e-05 -5.90750788e-05 -1.22318859e-04
      -4.14531823e-05 1.84906494e-05 -6.23750238e-05 6.86354833e-05
      1.16401454e-04 3.62807077e-05 -4.79538576e-05 -1.88350197e-04
      1.91420750e-05 -2.39626570e-05 -9.15636047e-05 1.20769066e-04
      1.90459425e-04 4.88893929e-05 -6.23750238e-05 6.86354833e-05 0.
      1.34732138e-04 -1.71077176e-04 -2.02257579e-04 2.31407583e-04
      1.94262931e-04 -6.75078772e-05 -2.20548081e-05 -2.55233026e-05
      1.91821382e-05 -1.10912515e-04 -6.23750238e-05 8.66711780e-05
      5.43350434e-05 -1.61679738e-04 7.02180550e-05 1.05924591e-04
      1.57982227e-04 1.73398133e-04 -2.20548081e-05 -2.48833152e-04
      -2.78227730e-04 -1.17283656e-04 -6.23750238e-05 1.19770877e-04
      -1.85707875e-04 -2.25331794e-04 1.69005187e-04 6.03364781e-04
      4.84848715e-04 3.96257063e-04 3.27940943e-04 -1.43674872e-04
      -4.12721391e-04 -3.52489355e-04 8.69164978e-06 0. 8.98118597e-05
      2.03794101e-04 3.08776973e-04 4.36958682e-04 4.79628303e-04
      2.64766772e-04 2.49929086e-04 -1.43674872e-04 -3.65465647e-04
      -6.57677447e-05 8.69164978e-06 0. 0. 3.14068802e-06 2.99159983e-05
      2.60548783e-04 4.35803704e-05 -1.50573484e-04 -8.86961207e-05
      -1.06230736e-05 -2.65500625e-04 -1.25513528e-04 8.69164978e-06 0.
      -1.31010500e-04 -1.31010500e-04 -1.55301241e-04 -1.58969357e-04
      -7.37486480e-05 -9.18054939e-05 3.13590805e-04 -4.62761709e-05
      -2.29637211e-04 2.84365087e-05 8.69164978e-06 -3.12857469e-06
      -3.12857469e-06 -1.31010500e-04 -4.84398770e-04 -2.92828161e-04
      -3.27249982e-05 1.03248181e-04 2.63210124e-04 2.06899000e-04
      6.41007355e-05 5.40215442e-05 1.13965376e-04 -1.31010500e-04
      -1.31010500e-04 -1.55301241e-04 -2.35031781e-04 -7.67248184e-06
      2.64567236e-04 2.31712038e-04 2.55345629e-04 1.90102524e-04
      2.43621798e-05 8.08656696e-05 8.08656696e-05 -1.31010500e-04
      -9.19994272e-06 -2.54343933e-04 -3.44330765e-04 -2.57728680e-04
      -1.69709281e-04 -3.51722338e-05 1.63710472e-04 2.75385275e-04
      5.37886051e-04 5.43838134e-04 2.77682877e-04 -2.82879773e-06
      -9.19994272e-06 -3.44330765e-04 -2.97937426e-04 -3.29740491e-04
      -1.97989692e-04 -1.81708398e-04 3.89799767e-04 1.65029152e-04
      1.61888471e-04 2.08443395e-04 2.44583149e-04 0. -1.46435719e-04
      -1.64774639e-04 -4.28579981e-04 -5.00591821e-04 -3.98722099e-04
      -2.17013308e-04 2.36868058e-04 4.00642573e-04 1.77407288e-04
      -2.73130398e-04 3.55357806e-05 8.33712256e-05 8.70258591e-05
      -8.15956300e-05 -2.75385275e-04 -2.15441425e-04 -4.88059231e-06
      1.67420410e-04 2.67676282e-04 2.93205725e-04 2.93205725e-04
      3.85794046e-05 1.18907010e-04 2.67273426e-05 1.60210009e-04
      -1.70226980e-04 -2.15441425e-04 -2.15441425e-04 -7.62010532e-05
      -2.68718281e-06 1.72673768e-04 1.98203241e-04 1.88222853e-04
      -5.45481344e-05 1.22206955e-04 2.67273426e-05 2.67273426e-05
      -2.78836000e-04 -1.70888889e-04 -9.55734940e-05 2.37509012e-05
      9.62882586e-06 1.40019416e-04 1.35632872e-04 2.94315887e-05
      6.53198076e-05 3.55357806e-05 -5.99438317e-05 -5.99438317e-05
      -2.44933181e-04 -3.00802320e-04 -2.40858499e-04 -3.24229739e-04
      -2.15776920e-04 -1.92342894e-04 -7.62400305e-05 -2.01143164e-04
      -2.63670154e-05 3.55357806e-05 0. -5.99438317e-05 -5.99438317e-05
      -1.54946334e-04 -2.53733451e-04 -1.93789630e-04 -9.50024987e-05
      -1.21846628e-04 -2.68441290e-05 -2.68441290e-05 -2.68441290e-05 0.</_>
    <_>
      -9.94906877e-05 -2.19486872e-04 3.61329585e-05 3.61329585e-05
      3.61329585e-05 1.63944758e-04 -9.55938958e-05 -2.25509197e-04
      3.61329585e-05 3.61329585e-05 -2.02590934e-04 -1.03100239e-04
      2.43971663e-04 1.56129143e-04 -2.43067072e-04 -1.85725672e-04
      -9.23181506e-06 8.83544126e-05 4.38651659e-05 4.69968836e-05
      -8.13504230e-05 -3.44869659e-05 -2.31648795e-04 -6.02232922e-06 0.
      -9.22219915e-05 -2.16175147e-04 -2.37050510e-04 2.01659102e-04
      2.02533120e-04 2.17263423e-05 -2.55502557e-04 -3.34179844e-04
      -2.78632797e-04 -2.04620213e-04 -6.02232922e-06 1.10141300e-04
      -3.90669884e-05 1.93715096e-04 2.82697234e-04 2.96321028e-04
      2.19554480e-04 8.02334471e-05 -2.55502557e-04 -3.14466917e-04
      -1.58636627e-04 -1.20300159e-04 1.68959432e-05 1.10141300e-04
      1.54645444e-04 2.03364019e-04 2.04094278e-04 1.95774293e-04
      2.08521087e-04 8.02334471e-05 -2.61642155e-04 1.47890591e-04
      -1.45602762e-05 1.15832969e-04 1.68959432e-05 0. 1.34952003e-04
      2.27288197e-04 4.06116509e-04 1.39720214e-04 -1.54833062e-04
      -1.15886956e-04 -1.08075357e-04 2.75975006e-04 3.83575854e-04
      2.87636125e-04 1.68959432e-05 0. 0. 0. 1.44699356e-04
      -2.28846504e-04 -3.50674614e-04 -3.11622454e-04 -2.61642155e-04
      -8.50695651e-05 4.38449410e-04 2.72802572e-04 1.68959432e-05 0. 0.
      0. -3.45664448e-05 -2.03579068e-04 -6.78946555e-04 -5.34247549e-04
      -7.10974055e-05 -1.71967360e-04 6.37482735e-05 6.49638532e-05
      1.04953666e-04 0. 0. 0. -1.16481706e-05 -1.02627047e-04
      -3.00077605e-04 -8.78488572e-05 1.78452156e-05 -1.03728366e-04
      -3.34422948e-04 4.14240858e-05 1.84505698e-04 0. 0. 0. 0.
      1.42872217e-04 1.05288389e-04 2.21571609e-04 1.64421333e-04
      1.23958933e-04 -1.36251881e-04 -1.62398734e-04 1.84505698e-04 0.
      0. 3.74397787e-05 3.74397787e-05 3.31712887e-04 3.31712887e-04
      4.08282300e-04 4.91854211e-04 4.55711328e-04 -8.64344183e-05
      -2.09410195e-04 8.02430441e-05 0. 0. 3.74397787e-05 5.71332166e-05
      3.31712887e-04 4.59474802e-04 4.08282300e-04 7.45475874e-04
      3.09405092e-04 -9.57839366e-05 -4.21782781e-04 8.02430441e-05 0.
      -8.78425199e-05 -1.08734948e-05 1.27048450e-04 2.94273108e-04
      4.22035024e-04 2.03617848e-04 2.89260410e-04 4.29802662e-04
      -3.36958386e-04 -4.22766549e-04 1.47914134e-05 6.84450570e-05
      5.72387180e-05 -1.39016105e-04 -2.39968125e-04 -2.39968125e-04
      3.82867293e-05 6.01031534e-05 9.55782980e-06 -1.99776514e-05
      -7.31470209e-05 -1.97572532e-04 1.90671592e-04 1.10141300e-04
      1.64210374e-04 -5.20359899e-05 -4.17910866e-04 -4.17910866e-04
      -3.77075223e-04 -2.01691990e-04 -4.72333959e-05 3.27090354e-04
      9.25833883e-05 1.10829387e-04 3.05982976e-04 9.84931248e-05
      7.55748551e-05 -3.95696610e-04 -6.36109849e-04 -5.29480632e-04
      -3.97757627e-04 -5.67056195e-05 -1.10239103e-04 3.61778402e-05
      2.69544573e-04 3.91344598e-04 2.18759946e-04 -1.16481706e-05
      -3.45664448e-05 -1.56872207e-04 -2.73155427e-04 -4.44958569e-04
      -4.52318374e-04 -1.69966472e-04 -3.51645780e-04 -1.31392721e-04
      1.16485964e-04 1.13905749e-04 1.68959432e-05 0. -1.16481706e-05
      -1.16481706e-05 -3.45664448e-05 -1.13059439e-04 -2.02022216e-04 0.
      4.23944366e-05 4.23944366e-05 5.40426081e-05 0. 0.</_>
    <_>
      0. 0. 7.15451388e-05 7.15451388e-05 -4.75563393e-05
      -7.84381846e-05 -5.14813910e-05 0. 7.15451388e-05 7.15451388e-05
      0. 0. 7.15451388e-05 7.15451388e-05 7.15451388e-05 -4.75563393e-05
      2.75359198e-04 -1.31290444e-05 -1.01078876e-04 1.45864193e-04
      2.77339568e-04 1.04626211e-04 0. 0. 0. 1.47659273e-04
      1.47659273e-04 2.03814081e-04 4.07270680e-04 1.55858754e-04
      1.77859911e-04 3.79853649e-04 5.14965388e-04 2.18322006e-04
      1.46776874e-04 1.90688461e-05 0. 1.47659273e-04 3.22915555e-04
      3.60436854e-04 2.70077959e-04 1.96928755e-04 3.56001896e-04
      4.27710969e-04 3.73309333e-04 2.18322006e-04 1.46776874e-04
      1.90688461e-05 0. 1.75256282e-04 2.34335457e-04 2.59800086e-04
      1.90218809e-04 1.47531973e-04 1.23308084e-04 1.73299370e-04
      1.92878841e-04 1.11330439e-04 1.46776874e-04 1.90688461e-05 0.
      1.11571229e-04 1.47003724e-04 -8.91554228e-05 1.30492277e-04
      9.42755651e-05 6.16327816e-05 7.79232141e-05 1.92878841e-04
      1.11330439e-04 1.46776874e-04 1.90688461e-05 0. 0. 3.18372731e-05
      -1.91267260e-04 1.20443612e-04 -8.32794249e-05 5.42267344e-07
      1.55853602e-04 1.92878841e-04 -1.29155951e-05 1.46776874e-04
      1.90688461e-05 0. -1.19101474e-04 -3.29656003e-04 -6.00619824e-04
      -3.19773069e-04 -7.93168874e-05 2.13363228e-06 1.43557336e-04
      7.98679321e-05 -1.29155951e-05 1.46776874e-04 1.90688461e-05 0.
      -1.19101474e-04 -5.63064124e-04 -6.10467454e-04 -1.35193695e-04
      9.75097937e-05 3.04959918e-04 1.82597287e-04 -3.56094533e-05
      -1.29155951e-05 9.06139830e-05 9.06139830e-05 0. -1.11307992e-04
      -2.11748367e-04 -2.75675702e-04 1.03010807e-05 1.97094472e-04
      1.05124753e-04 1.74462722e-04 -4.41124685e-05 -1.71988722e-04
      5.14222811e-05 9.06139830e-05 -1.19101474e-04 -1.18299758e-04
      -5.72616991e-04 -4.24404891e-04 -2.53754493e-04 -6.80774247e-05
      -8.96023703e-05 -5.09455931e-05 -2.34335457e-04 -8.96787969e-05
      -1.17164062e-04 2.38273249e-04 2.85577935e-05 -4.68874132e-05
      -5.45673829e-04 -3.85925261e-04 -1.90069448e-04 -2.62283516e-04
      -1.79360271e-04 -1.41794502e-04 -1.22764235e-04 -2.34335457e-04
      -9.81460253e-05 2.19204405e-04 -1.70582862e-04 -1.94546679e-04
      -1.28757907e-04 -8.45721370e-05 -2.08870824e-05 -1.47946805e-04
      -1.49480111e-04 -3.18072824e-04 -9.75436124e-05 -2.14757951e-04
      -2.14152460e-04 -5.14813910e-05 -1.19101474e-04 -1.11503694e-04
      -1.61065691e-05 -1.61065691e-05 -2.86442482e-05 -2.86442482e-05
      -6.75601841e-05 -1.65002944e-04 -3.03338049e-04 -1.60104595e-04
      -4.14907154e-05 -1.70582862e-04 0. 5.90791751e-05 1.02994905e-04
      1.02994905e-04 1.02994905e-04 1.02994905e-04 1.02994905e-04
      -6.74109324e-05 -3.03338049e-04 4.39450559e-05 -6.06651047e-05 0.
      0. 0. -5.14813910e-05 -4.82975556e-05 1.26958723e-04
      6.78795477e-05 1.02994905e-04 1.41243931e-04 -2.79167998e-05
      -1.20952383e-04 5.84363697e-05 0. 0. 0. 0. 0. 0. 0.
      -2.39638175e-05 -1.12271700e-04 -1.03665152e-04 -1.08907429e-04
      1.90688461e-05 0. 0. 0. 0. 0. 0. 0. 0. -5.63763606e-05
      -1.54878289e-04 -5.30120851e-05 0. 0.</_>
    <_>
      -3.87941436e-05 -1.25984065e-04 4.69209117e-05 4.69209117e-05
      4.69209117e-05 1.77046662e-04 -1.74572215e-05 -1.25984065e-04
      9.60913894e-05 9.60913894e-05 -1.13096408e-04 -1.13096408e-04
      1.21223173e-04 -9.97580573e-05 -1.48831867e-04 -1.98190377e-04
      -2.39892070e-05 8.24531162e-05 -1.35500173e-04 -1.37906682e-04
      -1.03816172e-04 -2.05906807e-04 -4.50259031e-05 -5.06036013e-05
      -5.16818072e-05 -1.18344316e-04 -2.93927384e-04 -1.40711505e-04
      1.14990638e-04 1.27532025e-04 -1.16142342e-04 -1.66266691e-04
      -8.44003807e-05 -3.47353896e-04 -1.71723281e-04 -1.18094558e-05
      -8.74598118e-06 -1.38245159e-04 -9.43961131e-05 -8.36652325e-05
      -8.57150590e-05 -1.96136112e-04 1.82518444e-04 2.27538476e-05
      2.43347575e-04 -9.63079001e-05 1.19590019e-04 2.23900988e-05
      -6.06581452e-05 -2.12067880e-06 -2.54632731e-04 -2.59568304e-04
      1.18840268e-04 1.58205090e-04 2.17257373e-04 1.40660530e-04
      3.60311940e-04 2.05167744e-04 -3.30613475e-05 2.23900988e-05
      -2.92917102e-05 -1.30354703e-04 -3.00486223e-04 -4.65222605e-04
      -4.27202322e-05 1.45563507e-04 2.14924614e-04 1.81915981e-04
      2.87016563e-04 1.92852312e-04 1.83574666e-04 4.91704814e-05
      -3.96680443e-05 -2.98297004e-04 -4.86925332e-04 -5.63508482e-04
      -3.31248622e-04 -2.91940843e-04 5.34707760e-06 -2.23085608e-05
      4.12261033e-05 1.13062204e-04 7.04782578e-05 1.03763359e-05
      -2.67803825e-05 -9.08288057e-05 -3.87585751e-04 -6.32195733e-04
      -1.72425993e-04 -2.47976452e-04 -1.80287228e-04 -1.89917264e-04
      -2.50201934e-04 -1.05947875e-04 9.49832429e-06 -2.37931617e-05 0.
      0. -1.06990454e-04 -1.58062074e-04 2.39720815e-04 2.61532434e-04
      7.69339476e-06 1.00930702e-04 -2.14689615e-04 -3.69260844e-04
      -2.34888619e-04 2.12187351e-05 0. 0. 0. 0. 1.54318725e-04
      3.54566408e-04 3.11630574e-04 2.80906010e-04 1.90984982e-04
      -1.75425594e-04 -1.43081590e-04 5.25686773e-05 0. -4.32662928e-05
      -4.32662928e-05 1.11382898e-04 3.10636562e-04 3.54566408e-04
      3.28395778e-04 8.55479215e-04 1.02069702e-04 -3.27786023e-04
      -3.50152732e-06 1.59846735e-04 1.11382898e-04 -8.20604400e-05
      -2.28739402e-04 -7.40902178e-05 3.19270330e-04 3.54566408e-04
      3.28395778e-04 6.77147531e-04 1.93579603e-04 -4.22057434e-04
      -5.26898257e-05 1.59846735e-04 0. -2.20223723e-04 -2.41610833e-04
      -6.46921908e-05 1.25826991e-04 1.44441010e-05 -5.75950253e-05
      1.70626459e-04 1.39902608e-04 -1.17790514e-04 -2.66349816e-04
      1.08410559e-05 4.29358261e-05 -5.81468194e-05 3.79084086e-05
      -3.53740907e-04 -3.53740907e-04 -2.79438624e-04 -1.50706619e-04
      -9.28447989e-05 -1.11382898e-04 2.62145244e-04 3.46891989e-04
      1.19351411e-04 4.29358261e-05 -3.13664350e-05 1.31998400e-04
      -7.77117239e-05 -2.59597145e-04 -1.85294877e-04 -1.35840644e-04
      -9.26271023e-05 3.45918350e-04 3.91247857e-04 3.08419927e-04
      1.19351411e-04 4.29358261e-05 4.29358261e-05 -2.03671952e-04
      -2.30452337e-04 1.24608796e-05 -3.78259829e-05 2.53792791e-06
      4.48511455e-05 1.86510006e-04 4.40262578e-04 2.06704470e-04
      8.93032484e-05 0. -7.07151776e-05 -2.54819723e-04 -3.12118442e-04
      -3.12118442e-04 -2.21634604e-04 -7.96096447e-06 1.36896697e-05
      1.69761464e-04 5.87248505e-05 7.16125141e-05 4.91704814e-05 0.
      -1.28876627e-05 -1.28876627e-05 -6.19614657e-05 -1.17791162e-04
      -4.90738057e-05 -4.90738057e-05 -1.28876627e-05 4.91704814e-05
      4.91704814e-05 4.91704814e-05 4.91704814e-05</_>
    <_>
      0. 0. 3.27622656e-05 3.27622656e-05 3.27622656e-05 4.50305633e-05
      -9.30967508e-05 -1.10570189e-04 -1.84277360e-05 3.27622656e-05 0.
      0. 3.27622656e-05 3.27622656e-05 3.27622656e-05 4.50305633e-05
      1.92359046e-04 9.12603355e-05 -3.05824142e-05 2.45316314e-05
      8.42877489e-05 8.18463595e-05 0. 0. 0. 7.49993269e-05
      7.49993269e-05 1.59596777e-04 2.07262114e-04 5.74528058e-05
      3.35991281e-05 -1.00995356e-04 1.67458566e-04 1.09138527e-04
      3.70875314e-05 1.03628668e-06 1.22682968e-05 7.49993269e-05
      2.04595286e-04 1.74499844e-04 1.80938281e-04 -9.49786627e-05
      -7.11109096e-05 4.06207255e-05 1.76592250e-04 1.09138527e-04
      6.33434101e-05 1.03628668e-06 1.22682968e-05 9.68657478e-05
      7.47137747e-05 2.95614649e-04 3.99357559e-05 -9.54932984e-05
      5.33786551e-05 2.49042030e-04 2.49290257e-04 1.81321913e-04
      6.33434101e-05 1.03628668e-06 0. -2.90706630e-05 1.71021908e-04
      -5.02904077e-05 -3.27622656e-05 -9.54932984e-05 9.01936946e-05
      2.70550052e-04 1.98100257e-04 1.81321913e-04 6.33434101e-05
      3.70875314e-05 0. -5.11900034e-05 -2.32984330e-05 -2.29033816e-04
      -1.09035973e-04 -1.73950291e-04 -1.28430147e-05 9.60366378e-05
      1.68419647e-04 1.30131913e-04 6.33434101e-05 3.70875314e-05
      -5.11900034e-05 -1.10570189e-04 -3.27710703e-04 -4.66391939e-04
      -2.61796667e-04 -2.49290257e-04 -9.34203053e-05 -3.96311134e-06
      -7.26985309e-06 2.41181842e-05 1.21534076e-05 3.70875314e-05
      -5.11900034e-05 -1.10570189e-04 -3.39601509e-04 -4.66391939e-04
      -2.23614275e-04 -1.14032788e-04 -2.10457874e-05 -9.48079760e-05
      -1.25954219e-04 -1.15770315e-04 5.95909887e-06 -1.73914486e-05
      -1.74734323e-05 -7.67776146e-05 -3.02540750e-04 -2.70683435e-04
      1.51562780e-08 1.80046642e-04 2.04833384e-04 1.85353943e-04
      6.04044799e-05 -7.33393535e-05 -2.38204138e-05 1.63251207e-05
      -1.10570189e-04 -2.33933781e-04 -3.44280736e-04 -1.42639081e-04
      1.46871476e-04 2.17101682e-04 2.04833384e-04 3.00091866e-04
      1.18334930e-04 -1.25954219e-04 -1.40834090e-04 4.53395805e-05
      -4.78391557e-05 -2.33933781e-04 -2.93090736e-04 -9.76405718e-05
      2.36176187e-04 2.17101682e-04 2.04833384e-04 3.61446291e-04
      5.54879553e-05 -1.28856642e-04 -1.65089310e-04 8.03545408e-05
      -1.10570189e-04 -2.23966796e-04 -1.35434937e-04 -7.43938945e-05
      9.91242086e-06 1.07348620e-04 1.67778344e-04 2.51693215e-04
      7.71162013e-05 -6.08557530e-05 -6.68311550e-05 -7.45189391e-05
      -9.83018908e-05 -1.07319800e-04 5.38888053e-05 -1.13568516e-04
      -1.13568516e-04 -4.23216297e-05 -7.33234720e-06 -1.18980552e-05
      -4.04058883e-05 -4.04058883e-05 -1.72669788e-05 -6.22506413e-05
      -4.71118874e-05 6.07680749e-06 1.54600330e-05 -3.72694412e-05
      -4.08704982e-05 -1.13568516e-04 -1.04415405e-04 -3.19549399e-05
      3.22921333e-05 9.65224244e-05 2.92391996e-05 -1.10606406e-05
      1.22682968e-05 -4.71118874e-05 -3.89217057e-05 -1.07319800e-04
      -5.56413288e-05 -8.22622169e-05 -7.31091059e-05 -7.34032074e-05
      -2.94724832e-05 -5.13951381e-05 7.51918851e-05 -2.33289375e-05 0.
      -5.93801815e-05 -5.93801815e-05 1.22682968e-05 -3.89217057e-05
      -1.05282423e-04 -1.27517545e-04 -1.51908986e-04 -9.64005303e-05
      -9.25980385e-06 -9.25980385e-06 -2.33289375e-05 0. 0.
      -5.93801815e-05 -5.93801815e-05 -5.93801815e-05 -5.93801815e-05
      -5.93801815e-05 -5.83438959e-05 -2.22926501e-05 -2.22926501e-05
      -5.93801815e-05 0.</_>
    <_>
      -1.35931536e-04 -1.35931536e-04 -1.33996673e-05 -1.33996673e-05
      -1.33996673e-05 7.56126610e-05 -5.50918849e-05 -8.98593571e-05
      -1.33996673e-05 -1.33996673e-05 -8.98593571e-05 -5.52263446e-05
      2.13678031e-05 -1.03757426e-04 -1.20148259e-04 -1.87806727e-04
      -9.39622405e-05 -1.22282159e-04 -1.82711985e-04 -8.21651120e-05
      -1.26205734e-04 -3.30135343e-04 -1.06250191e-04 -5.52263446e-05
      -1.25125225e-04 -2.01420306e-04 -4.52722947e-04 -2.60933972e-04
      1.32969464e-04 1.54528592e-04 8.54394602e-06 -1.31013861e-04
      -1.75054491e-04 -2.02224735e-04 -8.47409974e-05 -7.16171780e-05
      5.42448579e-05 -7.62950731e-05 -2.31283964e-04 -5.54902872e-05
      1.20107121e-04 2.39961926e-04 8.44488968e-05 -6.47099223e-05
      -1.96091205e-04 -2.02224735e-04 -2.79751694e-04 -4.95166660e-06
      5.42448579e-05 5.42448579e-05 1.76938644e-04 2.38056236e-04
      4.13653645e-04 2.74018646e-04 2.48323486e-04 6.04153101e-05
      -1.61458185e-04 -3.03051493e-04 -2.13220628e-04 -4.95166660e-06 0.
      5.42448579e-05 7.52815686e-05 1.96091205e-04 2.02224735e-04
      1.86547972e-04 2.11534178e-04 2.56478379e-05 -2.29369161e-05
      -1.49847983e-04 -9.32875992e-05 1.14391696e-05 0. 0. 0. 0.
      1.48840545e-05 1.86547972e-04 8.34631865e-05 -1.65781341e-04
      3.40649822e-05 1.47075098e-05 4.82284631e-05 4.60721822e-05 0. 0.
      0. -6.65310508e-05 -1.58709576e-04 4.69594452e-05 -1.62528158e-04
      9.66945954e-05 1.83622018e-04 1.08297318e-04 8.28614720e-05
      8.28614720e-05 0. 0. 0. -6.65310508e-05 -7.11403118e-05
      -1.12798793e-04 -8.35845349e-05 1.31354042e-04 2.25239506e-04
      9.68581444e-05 1.13248985e-04 7.64596916e-05 0. 0. 0.
      -7.17280273e-05 -9.79097968e-06 -9.21627070e-05 5.98094048e-05
      1.07412481e-04 1.55524045e-04 2.02570634e-04 7.64596916e-05
      7.64596916e-05 0. 6.13354041e-06 2.36715001e-04 5.57389358e-05
      -5.34466562e-05 -2.51861464e-04 1.15811054e-04 3.58469493e-04
      5.83741465e-04 5.83741465e-04 2.20438757e-04 1.65454709e-04
      6.13354041e-06 6.13354041e-06 2.28546472e-04 5.43647911e-05
      -8.51175937e-05 -8.35923638e-05 1.34963615e-04 4.90434584e-04
      5.83741465e-04 5.83741465e-04 2.20438757e-04 1.65454709e-04 0. 0.
      1.32339279e-04 1.42105619e-05 -2.28777877e-04 -1.96652909e-04
      -3.74323172e-05 2.76243954e-04 5.49251155e-04 2.19699563e-04
      8.28614720e-05 8.28614720e-05 5.42448579e-05 7.52815686e-05
      3.09192510e-05 -7.20307662e-06 -2.34911422e-04 -9.00296873e-05
      8.35602696e-05 2.70110409e-04 3.55412369e-04 3.55412369e-04
      1.37106326e-04 1.37106326e-04 5.42448579e-05 4.05140963e-05
      1.45284139e-05 -7.20307662e-06 -1.65025966e-04 -7.47495869e-05
      1.69793377e-04 3.95235635e-04 3.55412369e-04 2.34602732e-04
      1.37106326e-04 1.37106326e-04 5.42448579e-05 1.94773875e-05
      -5.04080745e-05 -1.12732610e-04 -6.39545469e-05 -5.26538570e-05
      1.84560253e-04 2.88022304e-04 1.76776724e-04 2.13566018e-04
      1.37106326e-04 8.28614720e-05 0. 0. 0. 5.42448579e-05
      -5.25973664e-05 -1.91525578e-05 0. 0. 0. 0. 4.60721822e-05
      4.60721822e-05 0. 0. 0. 0. 0. 0. 0. 0. 0. 0. 0. 0.</_>
    <_>
      0. -6.81718520e-05 1.44581445e-05 1.44581445e-05 1.44581445e-05
      3.34034339e-05 -5.58929023e-05 -6.81718520e-05 4.37612980e-05
      4.37612980e-05 0. 0. 8.26299947e-05 1.44581445e-05 1.44581445e-05
      -3.06535134e-04 -9.78984754e-05 -1.15494753e-04 -2.42776572e-04
      -4.07001680e-05 1.06872430e-04 1.67975610e-04 -3.22419874e-05
      2.93031517e-05 0. 1.55014262e-04 1.57657596e-05 -3.83438346e-05
      8.28165867e-05 -1.33594964e-04 -1.16935145e-04 -3.38023019e-05
      -1.65819984e-05 1.42502859e-06 8.03357943e-06 5.25393007e-05
      1.89452894e-05 1.55014262e-04 1.94988039e-04 -6.13585507e-05
      3.38802522e-04 3.35306046e-04 2.92052864e-04 7.14936759e-05
      -4.46161539e-05 -2.51629041e-04 3.25215551e-05 5.25393007e-05
      4.82484393e-05 6.98939548e-05 -7.98174515e-05 -6.22099178e-05
      1.40805001e-04 1.98692855e-04 1.58992276e-04 1.18038653e-04
      -2.58628308e-04 -1.72777392e-04 -1.52360662e-04 5.25393007e-05
      -5.43968599e-05 -2.81272642e-05 4.03176891e-05 -3.57559562e-04
      -2.08984609e-04 1.34835700e-05 -5.39019020e-05 5.63089088e-05
      -1.19379816e-04 -4.06697509e-05 -1.84991368e-04 5.25393007e-05
      -8.37000116e-05 -2.56186526e-04 -2.20994079e-05 -4.54064080e-04
      -6.64768231e-05 -6.33366653e-05 4.08025880e-05 8.58547064e-05
      -1.74928311e-04 -4.06697509e-05 -1.49818894e-04 -3.11607146e-05
      -1.51871864e-04 -2.56186526e-04 -5.66456700e-04 -7.40425719e-04
      -2.70956691e-04 -2.75702885e-04 -7.52418418e-05 8.77578059e-05
      -1.48930805e-04 -1.95623579e-04 -2.54003477e-04 -2.55833056e-05
      -1.51871864e-04 -4.62892524e-04 -6.29625632e-04 -6.94783928e-04
      -1.79964132e-04 -4.54618312e-05 8.78117426e-05 3.19963292e-04
      -9.30379101e-05 -3.51937168e-04 -1.23348582e-04 -3.99387172e-05
      -6.81718520e-05 -1.35629365e-04 -2.59262422e-04 -2.95350474e-04
      -8.39508903e-06 1.25993567e-04 1.81995652e-04 1.80005125e-04
      6.90009110e-05 -2.11389983e-04 -2.36962132e-05 4.37612980e-05
      -1.51871864e-04 -1.81821655e-04 -5.04099764e-04 -4.62164026e-04
      5.54944891e-05 -8.94328787e-06 2.67686846e-04 1.94246808e-04
      -1.96898574e-04 -2.58628308e-04 9.97141615e-05 4.22299549e-04
      1.20540812e-04 -8.92321332e-05 -4.32134955e-04 -4.23049234e-04
      -5.61106972e-05 2.21902257e-04 8.58675558e-05 3.12831078e-04
      1.22726386e-04 4.20422984e-05 -2.36531632e-05 2.49513367e-04
      -8.37000116e-05 -2.25301104e-04 -1.71678737e-04 -3.17743135e-04
      -5.80403103e-05 -4.96507455e-05 -2.36758606e-05 1.90428458e-04
      6.19425089e-04 1.29964479e-04 -3.03184992e-04 -3.73574439e-05
      -6.47547276e-05 -5.10237551e-05 -2.65571114e-04 -2.65571114e-04
      1.55171238e-05 -8.12100188e-05 3.90931964e-05 1.27445892e-04
      3.10869596e-04 5.50582263e-05 -2.02157637e-04 -1.84121545e-05
      1.89452894e-05 3.65456872e-05 -1.06159925e-04 -3.49271111e-04
      -3.49271111e-04 -2.56615294e-05 -4.46068188e-05 -7.18577139e-05
      6.16849429e-05 1.93854765e-04 1.20332870e-05 6.52878589e-05
      1.89452894e-05 1.89452894e-05 -9.08886796e-06 -2.16508386e-04
      -1.32157424e-04 -3.06749746e-04 -2.23964118e-04 -1.49563217e-04
      5.95356978e-05 6.66291307e-05 9.96027302e-05 4.63425713e-05 0. 0.
      0. -1.58580292e-06 -9.66583102e-05 -2.39451765e-04 -1.35959592e-04
      -1.69159452e-04 -1.28394298e-04 7.05099374e-05 7.05099374e-05
      4.07651605e-05 0. 0. 0. 0. 0. 0. 0. 0. 5.90479285e-05
      5.25393007e-05 2.93031517e-05 2.93031517e-05</_>
    <_>
      0. 0. -2.84611087e-05 -2.84611087e-05 -2.84611087e-05
      -2.84611087e-05 -2.49276382e-05 -1.14379334e-04 3.21500556e-05
      3.21500556e-05 3.62672217e-05 0. 1.22185447e-04 -2.84611087e-05
      -9.50872200e-05 -2.98129482e-04 4.51834276e-05 -2.08059821e-04
      -8.98035942e-05 -1.67873091e-04 8.97408027e-05 1.36409508e-04
      1.70847503e-04 2.43439445e-05 -1.50646549e-04 -7.66365265e-05
      -3.38582526e-04 -1.36379109e-04 -1.05807536e-04 9.89515756e-05
      1.86282923e-04 -1.57584349e-04 -2.81004286e-05 4.06584149e-05
      1.48445586e-04 6.06111680e-05 -1.14379334e-04 -1.36914445e-04
      -1.14913222e-04 -1.86573146e-04 -2.35203097e-05 3.05941445e-04
      4.18792159e-04 9.50128524e-05 1.27954365e-04 1.08885986e-04
      -1.32394678e-04 6.06111680e-05 -9.00353843e-05 -2.49543053e-04
      -2.15824984e-04 -1.48610285e-04 2.16979199e-04 4.10018896e-04
      1.45441387e-04 2.27962490e-04 1.02585080e-04 -1.46067759e-04
      -1.35081136e-04 6.06111680e-05 -9.00353843e-05 -3.58164580e-05
      -5.80639404e-04 -3.40139901e-04 -5.42042690e-05 4.07427462e-04
      3.42434156e-04 2.04758428e-04 1.23257079e-04 -2.49372621e-04
      -1.79846480e-04 -9.00353843e-05 -1.50646549e-04 -1.19525372e-04
      -4.21197008e-04 -4.00751072e-04 -4.99249800e-05 1.02684811e-04
      1.68493731e-04 2.39277302e-04 9.47122462e-05 -3.83977545e-04
      -5.14033949e-04 -9.00353843e-05 0. -4.07366577e-04 -3.81639256e-04
      -4.71183448e-04 -1.92761436e-04 -8.59727515e-05 7.27657753e-05
      3.87803855e-04 6.15397585e-05 -5.34624094e-04 -3.07020877e-04
      -9.00353843e-05 0. -1.41939439e-04 -4.31089866e-04 -3.81639256e-04
      -9.50355170e-05 1.67734208e-04 1.67037826e-04 2.41491522e-04
      -1.16951778e-04 -2.40028079e-04 -2.54463812e-05 4.08571796e-05 0.
      0. -2.52583210e-04 -2.69444601e-04 -7.96516833e-05 7.67453748e-05
      1.55705930e-05 -3.73834737e-05 -9.78968819e-05 3.90553723e-05
      5.38889435e-05 5.70776938e-05 0. 7.40100295e-05 9.04350527e-05
      -2.01167597e-04 -4.46988299e-04 -5.34280029e-04 -1.71014544e-04
      4.57436981e-05 6.67620989e-05 2.22265211e-04 2.10819548e-04
      2.73231679e-04 7.40100295e-05 7.40100295e-05 9.04350527e-05
      2.13537904e-04 -1.28471511e-04 -3.97085387e-04 -2.09287085e-04
      8.24896561e-05 1.86404985e-04 7.00941155e-06 2.06088516e-04
      2.56806641e-04 0. 0. 7.40100295e-05 1.93652915e-04 3.50558606e-04
      6.92763933e-05 -1.44962818e-04 -5.70382181e-05 2.88879033e-04
      3.34690820e-04 1.01260506e-04 6.06111680e-05 0. 0. 2.02906289e-04
      2.02906289e-04 2.02906289e-04 7.00261153e-05 5.03796182e-05
      2.76902865e-05 8.02640716e-05 3.18172126e-04 2.20903399e-04
      6.06111680e-05 0. 0. 2.02906289e-04 2.02906289e-04 2.00219816e-04
      8.30243425e-06 6.14954261e-05 2.76902865e-05 2.61416018e-04
      4.68818675e-04 1.01260506e-04 6.06111680e-05 0. 0. 0.
      -2.68646818e-06 2.00219816e-04 -1.11222937e-04 -8.66435657e-05
      1.56095673e-04 4.68183105e-04 2.23445953e-04 1.01260506e-04
      6.06111680e-05 0. 0. 0. 0. -2.68646818e-06 -2.53951410e-04
      -1.62685566e-04 2.54758430e-04 3.21568834e-04 6.06111680e-05
      6.06111680e-05 6.06111680e-05 0. 0. 0. 0. 0. -1.50646549e-04 0.
      3.62672217e-05 6.06111680e-05 6.06111680e-05 6.06111680e-05
      2.43439445e-05</_>
    <_>
      7.66977428e-06 -1.75297391e-05 8.66669234e-06 3.19380088e-05
      3.19380088e-05 -2.47103526e-05 3.60753111e-05 3.19380088e-05
      3.19380088e-05 8.66669234e-06 -1.75297391e-05 -2.51995134e-05 0.
      -2.33572973e-05 -1.02957623e-04 -4.58617615e-05 -1.08531291e-04
      -8.52316498e-06 1.32813468e-04 1.11796042e-04 -9.28721420e-06
      -1.10971356e-04 -4.92763866e-06 2.61964306e-05 2.61964306e-05
      3.46278321e-05 -7.45803277e-07 -2.49653604e-05 1.54366592e-06
      -4.41799821e-05 4.76331224e-05 -7.81324270e-05 -3.80327947e-05
      -1.11638488e-04 -6.36492332e-05 9.46518703e-05 2.61964306e-05
      1.15585630e-04 8.81789019e-05 5.45744297e-05 5.99124760e-05
      8.06215758e-05 -8.61299632e-05 -1.09024229e-04 -4.94677479e-05
      -4.84932862e-05 -1.64625508e-05 4.62745265e-05 2.61964306e-05
      1.27597377e-04 2.25449054e-04 1.90661798e-04 1.26651821e-05
      -9.00842278e-05 -1.79777795e-04 -2.38803666e-04 -4.67221653e-05
      1.89119732e-04 1.50252454e-04 1.09040354e-06 0. 0. 0. 0.
      -8.59851789e-05 -2.01709612e-04 -1.72898872e-04 -2.38803666e-04
      5.86887982e-05 4.14063717e-04 1.73620705e-04 4.94677479e-05 0. 0.
      0. 0. -1.46844774e-04 -1.76836780e-04 -6.35663964e-05
      -1.06510917e-04 5.64054935e-05 2.99153908e-04 1.86889258e-04
      4.94677479e-05 0. 6.84554398e-05 6.84554398e-05 4.38752613e-05
      -2.71105764e-05 -2.03641175e-04 -9.80275654e-05 -1.41013908e-04
      -1.54938643e-05 1.65346180e-04 4.67221653e-05 2.32713155e-05
      1.91428298e-05 5.25198739e-05 9.46518703e-05 1.36865914e-04
      1.67628270e-04 -4.68326580e-05 -5.08588073e-06 -6.84882616e-05
      -1.19217591e-04 -2.65941198e-04 -5.20809081e-05 -8.59851789e-05
      6.84554398e-05 6.84554398e-05 7.94599036e-05 7.94599036e-05
      1.29009015e-04 -8.02544855e-06 5.43329006e-05 8.94750337e-06
      -1.33912734e-04 -1.09393215e-04 -2.17650333e-04 -8.59851789e-05
      9.46518703e-05 9.46518703e-05 3.49642010e-04 4.01038153e-04
      4.70764993e-04 4.51702945e-04 1.64041645e-04 1.80696821e-04
      -7.44309364e-05 -4.53257933e-04 -2.79232103e-04 -1.80096526e-04
      9.46518703e-05 9.93472422e-05 4.01038153e-04 4.24309488e-04
      5.23112772e-04 2.82963883e-04 1.52294087e-04 1.14527349e-04
      -2.91365523e-05 -2.21395458e-04 -2.63733382e-04 -1.80096526e-04
      2.61964306e-05 9.02385364e-05 1.16629766e-04 3.08721821e-04
      4.80853778e-04 3.09325231e-04 7.93727158e-05 -3.45928165e-05
      -2.79384636e-04 -3.40886705e-04 -1.62620578e-04 -6.79149089e-05
      2.61964306e-05 7.51855305e-06 -4.30359876e-07 1.29264765e-04
      1.05993444e-04 2.25213698e-05 -9.51463153e-05 -1.10349712e-04
      -1.79679220e-04 -1.66505604e-04 -1.03829523e-04 1.76056037e-05
      3.20789986e-05 -5.83767724e-06 7.32777335e-05 -2.59779681e-05
      -4.14509341e-05 -9.53544168e-06 -4.48686696e-05 2.07985158e-05
      -5.45690382e-05 -5.85388852e-06 2.17433681e-05 2.61964306e-05
      5.88256762e-06 -4.01854122e-05 9.94675720e-05 5.05679709e-05
      5.05679709e-05 -1.18450596e-04 -1.64906116e-04 -1.22394762e-04
      -1.17699397e-04 -3.08019116e-05 7.75925946e-05 0. 2.32713155e-05
      2.03621530e-05 -1.66894279e-05 -1.19058013e-05 -4.46292943e-05
      -7.74474101e-05 -8.10187998e-07 -4.70129635e-05 2.75474958e-05
      9.68770037e-05 0. 0. 0. 2.32713155e-05 2.32713155e-05
      6.29690767e-05 1.96829405e-05 7.74019863e-05 2.95483951e-05
      8.56378247e-05 5.60894296e-05 2.32713155e-05 2.32713155e-05 0.</_>
    <_>
      9.11498646e-05 9.11498646e-05 9.13042313e-05 1.18276075e-04
      6.28496782e-05 6.11081268e-05 9.13042313e-05 1.18276075e-04
      1.18276075e-04 9.13042313e-05 9.11498646e-05 0. 0. 1.54365594e-07
      1.18344498e-04 1.77290480e-04 1.55549846e-04 1.41190627e-04
      5.20839021e-05 1.77594251e-04 3.23866756e-04 2.67148542e-04
      9.13042313e-05 1.54365594e-07 1.54365594e-07 1.54365594e-07
      6.65520420e-05 2.43364877e-04 2.22506991e-04 1.60328258e-04
      1.01042424e-04 2.77932093e-04 3.56049743e-04 3.33546224e-04
      1.82287971e-04 9.13042313e-05 1.54365594e-07 1.54365594e-07
      2.17904817e-04 2.04472482e-04 1.88414444e-04 1.08574306e-04
      8.16640822e-05 2.95601756e-04 3.64400272e-04 5.01947128e-04
      2.67148542e-04 9.13042313e-05 1.54365594e-07 1.68036553e-04
      2.45395408e-04 1.47492698e-04 -1.14196562e-04 -1.37668772e-04
      -4.65189005e-05 -1.65826259e-05 1.85808865e-04 3.03901295e-04
      4.47260973e-04 2.71262106e-05 0. 0. -5.54264006e-05
      -1.18532174e-04 -2.40142908e-04 -6.95192284e-05 -1.38934891e-04
      -6.12501171e-05 1.46507227e-04 2.33631436e-04 1.71047708e-04
      2.71262106e-05 0. 0. -1.02474150e-04 -1.41687138e-04
      -6.82595346e-05 -5.18514935e-05 7.52706364e-06 1.46975231e-04
      1.15509720e-04 1.15275179e-04 1.42230550e-04 2.71262106e-05 0.
      3.57234676e-05 -2.73823080e-05 -2.12201063e-04 -4.51139749e-05
      -7.31531463e-06 -4.03826780e-05 -1.80740353e-05 6.59150237e-06
      -1.61290678e-04 1.29020598e-04 2.69718439e-05 5.50348486e-05
      -3.91550742e-07 -2.22967486e-04 -3.09650932e-05 -2.33733408e-05
      9.34784039e-05 6.11585483e-06 -1.61290678e-04 -2.86322756e-04
      -1.70970161e-04 2.69718439e-05 0. 9.11498646e-05 -1.01580001e-04
      -1.50871401e-05 5.59340006e-05 8.44391907e-05 2.39273868e-05
      -1.07667554e-04 -1.23265112e-04 -1.38421790e-04 -1.50924752e-04 0.
      0. 3.58778307e-05 -7.07858544e-06 -1.25847495e-04 -2.67707492e-05
      1.06546446e-04 1.17094714e-05 -6.07654401e-05 -5.55044753e-05
      -2.10862432e-04 -1.98657508e-04 -2.59751454e-04 0. 3.58778307e-05
      -2.31278427e-05 -5.55146435e-05 -1.92792595e-05 8.05791497e-05
      3.65734668e-05 1.64250796e-05 -1.40960357e-04 -1.66190657e-04
      -1.57314760e-04 -1.75657173e-04 0. -5.52720339e-05 -5.83141009e-05
      7.42121338e-05 9.05124616e-05 1.39987824e-04 1.16336574e-04
      -5.45605690e-06 -2.28344827e-04 -2.46509153e-04 -3.18387320e-04
      -1.55263551e-05 1.54365594e-07 -5.52720339e-05 2.37820018e-06
      -8.91382388e-06 4.05615428e-05 -5.21881921e-05 -8.93582474e-05
      -2.02524549e-04 -3.41503852e-04 -5.40601905e-04 -4.63890523e-04
      -3.82381986e-05 -5.52720339e-05 2.71262106e-05 3.93564369e-05
      5.33715283e-05 1.16063842e-04 1.16063842e-04 2.68676777e-05
      2.68676777e-05 -2.87922856e-04 -5.40601905e-04 -1.05140054e-04
      -5.40375913e-06 1.54365594e-07 2.69718439e-05 3.92020738e-05
      7.65264922e-05 9.90300105e-05 9.90300105e-05 4.95546446e-05
      -1.09089149e-06 -1.11512090e-04 -2.49764533e-04 -9.48379457e-05
      9.83384325e-06 0. 2.69718439e-05 2.69718439e-05 4.88815494e-05
      1.25847495e-04 9.88756437e-05 9.13712356e-05 1.30353601e-05
      1.37046618e-05 -1.11258296e-05 2.64285336e-05 0. 0. 0.
      2.69718439e-05 2.69718439e-05 2.69718439e-05 7.64472134e-05
      4.94753658e-05 1.42806175e-05 1.80975003e-05 3.47168225e-07
      1.74155161e-06 2.69718439e-05 0.</_>
    <_>
      5.09095989e-05 2.87241728e-05 2.64072514e-05 5.67853349e-05
      5.67853349e-05 -1.78296705e-05 -2.31692093e-06 5.67853349e-05
      5.67853349e-05 2.64072514e-05 1.65222154e-05 -2.21854261e-05
      -1.55127509e-05 -4.73374530e-05 -1.64499652e-04 -5.98317783e-05
      -9.72115595e-05 9.15550299e-06 1.51355489e-05 4.04107923e-05
      -3.07892151e-05 -1.28903039e-07 -8.81376691e-05 -2.31692093e-06
      -1.78296705e-05 -4.73374530e-05 -5.21394504e-05 5.29383360e-05
      5.78528816e-05 5.78528816e-05 7.80613846e-05 5.78528816e-05
      -2.83290274e-06 -1.51109125e-05 -2.37812092e-05 7.63073840e-05
      -1.78296705e-05 -3.86912070e-05 -4.05175633e-05 -8.94145924e-05
      -5.67853349e-05 -5.67853349e-05 -1.92032567e-05 2.84793896e-05
      9.49017412e-05 6.55235053e-05 1.85114521e-04 2.50548183e-05
      -9.12676624e-05 4.79217260e-06 -1.18792821e-04 -1.66057638e-04
      -2.48627592e-04 -2.54508021e-04 -1.86783916e-04 -9.77441232e-05
      1.35517912e-04 3.22620705e-04 1.95267508e-04 -1.09894472e-05
      -7.89672704e-05 -1.81373733e-04 -4.48086881e-04 -4.85466648e-04
      -2.70838209e-04 -1.67437451e-04 -1.44602353e-04 -6.86769854e-05
      1.17488926e-04 3.59230791e-04 1.74540881e-04 4.02631194e-05
      -7.89672704e-05 -1.51865956e-04 -4.48086881e-04 -4.85466648e-04
      -3.60224512e-04 -1.24930230e-04 1.50795122e-05 8.45604809e-05
      4.64665573e-05 2.15548644e-04 1.89646555e-04 2.47503685e-05
      -6.34545213e-05 -2.96131329e-05 -1.51146174e-04 -2.29421436e-04
      -7.64829820e-05 -6.49088106e-05 -4.92733807e-06 -2.61149344e-05
      7.25675363e-06 7.45985890e-05 4.24026621e-05 -7.32009357e-06 0.
      6.64223480e-05 3.15244688e-05 8.52016747e-05 1.61004122e-04
      1.93719272e-04 3.77340075e-05 6.29758724e-05 -6.15175668e-05
      -2.17922221e-04 -2.71603785e-04 -8.89507428e-05 6.64223480e-05
      6.64223480e-05 6.90489542e-05 1.11191410e-04 4.47690618e-05
      5.06495126e-05 5.32499434e-05 9.56307049e-05 -4.33773166e-05
      -9.32774492e-05 -5.72224890e-05 -4.99001326e-05 7.63073840e-05
      8.27801705e-05 1.01597070e-04 2.37216082e-04 4.26094484e-04
      2.42643815e-04 1.04769490e-04 2.47540913e-04 -1.21149664e-04
      -3.42845771e-04 -1.41056007e-04 -1.01152698e-04 7.63073840e-05
      6.72674214e-05 1.33165653e-04 2.44759052e-04 3.61036713e-04
      2.49099568e-04 1.76028901e-04 1.57790666e-04 -6.28636408e-05
      -1.79308918e-04 -5.09286383e-06 -1.01152698e-04 9.88503689e-06
      -1.27070516e-05 4.58688155e-05 1.68508050e-04 2.07771314e-04
      1.45824655e-04 -2.32878904e-07 -2.43904833e-05 -1.18178490e-04
      -2.42329741e-04 -2.87140228e-05 -3.32808099e-06 9.88503689e-06
      4.63228425e-05 9.97665338e-05 5.58522561e-06 -2.47928565e-05
      -6.97976575e-05 -1.44825943e-04 -1.35442795e-04 -2.86616734e-04
      -6.56786578e-05 5.44660143e-05 4.79244845e-05 4.02631194e-05
      1.80776933e-05 1.54692927e-04 1.70967382e-04 3.63135587e-05
      1.92357165e-05 -4.48380815e-05 -1.47657993e-04 4.62171613e-07
      -2.79804844e-05 1.09114560e-04 -2.31692093e-06 3.03780816e-05
      3.03780816e-05 8.04558513e-05 2.25757249e-05 2.25757249e-05
      -3.03267989e-05 -6.10122188e-05 -7.06445207e-05 -5.51317680e-05
      3.07107075e-05 4.47644015e-05 0. 3.03780816e-05 1.81761243e-05
      1.32462173e-05 2.47334519e-05 -5.64463062e-06 -2.57535357e-05
      1.52306320e-05 4.29067586e-05 5.33253369e-05 7.83390715e-05
      5.12777624e-05 0. -1.22019574e-05 1.81761243e-05 -6.83761209e-06
      4.12243071e-06 4.33856985e-05 1.30076178e-05 7.05177263e-06
      9.78564785e-05 5.04869895e-05 3.03780816e-05 3.03780816e-05 0.</_>
    <_>
      6.77749049e-05 6.77749049e-05 8.50970682e-05 1.06792519e-04
      1.06792519e-04 7.67896272e-05 3.41450414e-06 3.34173965e-05
      7.33470733e-05 8.50970682e-05 6.77749049e-05 0. 0. 1.73221670e-05
      5.14974490e-05 8.51289515e-05 1.29984619e-04 6.56518459e-05
      3.48831018e-05 2.12638497e-05 1.12566566e-04 1.75495006e-04
      8.50970682e-05 1.73221670e-05 1.73221670e-05 2.98020004e-05
      5.48571843e-05 2.08918384e-04 1.37454568e-04 1.24450220e-04
      7.81678900e-05 -1.14385457e-05 1.55388683e-04 1.78100512e-04
      1.15816954e-04 8.50970682e-05 1.73221670e-05 3.88264343e-05
      1.62215190e-04 1.20166325e-04 6.38908241e-05 -8.72487508e-05
      -5.01445975e-05 -5.77438095e-06 1.90462844e-04 2.61906593e-04
      1.75495006e-04 8.50970682e-05 1.73221670e-05 8.32375881e-05
      1.02548314e-04 5.81265849e-05 -2.13220235e-04 -3.02281987e-04
      -7.26663202e-05 9.77570835e-06 1.69436709e-04 2.96846789e-04
      2.37636748e-04 3.90176137e-05 0. -3.34454417e-05 -1.00474688e-04
      -2.12655941e-04 -3.18542239e-04 -2.59074761e-04 -7.93978179e-05
      6.53920288e-05 1.62337863e-04 3.14008299e-04 1.27873587e-04
      3.90176137e-05 0. -6.05450077e-05 -1.00474688e-04 -3.18542239e-04
      -2.50767334e-04 -1.70586427e-04 1.24404496e-05 1.34208749e-04
      1.54307621e-04 2.12787942e-04 1.42785313e-04 3.90176137e-05
      -3.34454417e-05 -3.26997833e-05 -1.84131306e-04 -2.50767334e-04
      -1.37671901e-04 -9.38946032e-05 -4.56245471e-05 -7.63555581e-05
      2.13833991e-05 7.90778722e-05 8.33097583e-05 2.16954486e-05
      -1.07754454e-06 -3.26997833e-05 -1.27222738e-04 -9.80669938e-05
      -8.55871622e-05 -6.76665077e-05 -6.34921671e-05 -8.38975611e-05
      -1.28596119e-04 -1.02318569e-04 -6.14390301e-05 -6.05450077e-05
      4.06753425e-05 2.17168254e-05 -3.50611917e-05 -2.48533834e-05
      6.17627447e-05 7.32364133e-05 2.25804342e-05 2.20884795e-05
      -3.58122998e-05 -1.50044172e-04 -5.39094654e-05 -2.70995624e-05
      -1.53776164e-05 -8.86562993e-05 -4.56574817e-05 3.65775995e-05
      2.60608940e-04 1.49397383e-04 1.11862362e-04 1.76051253e-04
      5.68309333e-05 -2.17391018e-04 -1.62890763e-04 -6.05450077e-05
      -1.53776164e-05 -8.98299550e-05 -7.15222200e-07 7.08076404e-05
      2.91054108e-04 1.90034858e-04 1.21647048e-04 1.34450587e-04
      -9.31584964e-06 -1.14522205e-04 -1.66306010e-04 -6.05450077e-05
      -5.60529588e-05 -1.75675796e-05 -4.86548852e-05 2.56170842e-05
      7.36504298e-05 1.34748756e-04 1.11303852e-04 7.78199246e-05
      -7.81628332e-05 -1.30446148e-04 -2.30078695e-05 -7.41280892e-05
      -5.60529588e-05 3.81554819e-05 3.61951315e-05 -3.95638599e-05
      -6.12593067e-05 -3.56633936e-05 -3.72508584e-05 -8.26243559e-05
      -1.49773376e-04 -1.68611252e-04 -5.84643058e-05 -4.70285231e-05
      -9.12066639e-07 5.57217118e-06 1.07092524e-06 5.92887845e-05
      5.37075321e-05 -1.11102221e-04 -7.91419297e-05 -1.11102221e-04
      -7.26107392e-05 -1.52102375e-05 5.30846273e-06 -2.26075153e-05
      2.16954486e-05 -1.82342337e-05 4.70035375e-05 5.29122508e-06
      1.71762549e-05 -7.83608848e-05 -5.76707171e-05 -4.60968477e-05
      -8.01323185e-05 -8.32529549e-05 -1.11106992e-05 -3.99296805e-05
      2.16954486e-05 -1.82342337e-05 -4.18543414e-06 8.55871622e-05
      1.16083947e-05 -5.55225870e-06 -1.23103137e-05 -2.42584010e-05
      -2.48484394e-05 1.12707303e-05 -3.73776966e-05 -3.99296805e-05 0.
      2.16954486e-05 -1.82342337e-05 -1.56822498e-05 1.92579319e-05
      -1.24302915e-06 -1.61547596e-05 5.54068947e-06 -2.12801615e-06
      -1.82342337e-05 -1.82342337e-05 0.</_>
    <_>
      -1.28845990e-04 -1.28845990e-04 -1.28845990e-04 -1.10687863e-04
      -1.10687863e-04 -1.05959683e-04 6.68116409e-05 -1.10687863e-04
      -1.10687863e-04 -1.28845990e-04 -1.28845990e-04 -1.45928643e-04
      -3.54356423e-04 -3.08785966e-05 3.73373659e-05 1.44964615e-05
      4.28539497e-05 6.58299832e-05 3.88674001e-04 2.98559171e-04
      -1.15528004e-04 -2.34721098e-04 -2.88711046e-04 -3.18699953e-04
      -2.07848949e-04 1.27220746e-05 -4.03522310e-04 -1.83648255e-04
      -9.37582154e-05 -4.60485840e-04 -2.66469491e-04 -3.51465744e-04
      -1.81581308e-05 -3.82779603e-04 -6.19434402e-04 -2.64206639e-04 0.
      3.12827178e-04 -1.45238097e-04 -1.19278469e-04 5.85846283e-05
      2.89982800e-05 -4.07666608e-04 -3.98760058e-05 -1.81581308e-05
      -2.04773838e-04 -4.61117161e-04 -2.63125636e-04 0. 0.
      2.05450284e-04 2.05450284e-04 1.96163892e-04 -1.09925477e-05
      -2.30398073e-04 -2.54871004e-04 -3.46980494e-04 2.14224376e-04
      -2.18490750e-04 -2.97706603e-04 0. 0. 0. 0. 0. -8.84613692e-05
      3.32771415e-05 8.30086938e-05 -1.50254433e-04 3.81112943e-04
      1.54247726e-04 -1.74983197e-05 0. 0. 0. 0. -9.31895411e-05
      6.09267008e-05 4.83344833e-04 -5.47619013e-04 -1.65110177e-04
      4.66971134e-04 3.37423699e-04 1.81581308e-05 0. 2.25510419e-04
      2.25510419e-04 3.61233018e-04 8.59639767e-05 -1.17807365e-04
      -1.68741011e-04 -4.57656512e-04 2.60991044e-04 5.03496442e-04
      3.82636936e-04 1.81581308e-05 7.51210246e-06 1.37720024e-04
      2.53756676e-04 4.00671997e-04 2.17401379e-04 1.17759118e-04
      -2.45365110e-04 -2.04300843e-04 3.45942855e-04 1.93461703e-04
      1.77863098e-04 0. 2.25510419e-04 2.25510419e-04 3.60016973e-04
      1.20001510e-04 5.50336745e-06 -3.60942475e-04 -1.79163399e-05
      1.92056526e-04 2.04642856e-04 3.64478823e-04 0. 0. 2.25510419e-04
      3.05221591e-04 1.12517178e-03 3.13141645e-04 2.46773823e-04
      1.57207232e-05 2.04024163e-05 3.18011997e-04 5.41837479e-04 0. 0.
      0. 2.25510419e-04 4.01762867e-04 6.87324442e-04 3.35625780e-04
      1.97333808e-04 -1.15716684e-04 9.30910246e-05 4.77620779e-04
      7.19371950e-04 5.17431879e-04 0. 0. 0. 5.96729282e-04
      1.43568714e-05 2.57113832e-04 -1.81461975e-04 -7.40144969e-05
      -8.26147370e-05 3.06908158e-04 2.81651242e-04 5.14648927e-05 0. 0.
      0. 2.15691034e-04 8.14034647e-05 -9.10936506e-05 -3.66754015e-04
      -5.07915567e-04 -1.80793853e-04 7.94709831e-06 4.29787993e-04
      2.84372800e-04 0. 0. 1.81581308e-05 1.74550471e-04 1.23757287e-04
      -1.09251785e-04 -9.74833602e-05 2.60897243e-04 3.14507954e-04
      5.52201120e-04 7.84021453e-04 5.87857561e-04 1.74268484e-04 0.
      1.81581308e-05 -1.54613197e-04 2.06394048e-04 -1.47282000e-04
      1.86157427e-04 1.54070716e-04 1.29325635e-04 3.70432390e-04
      3.70432390e-04 3.70432390e-04 1.74268484e-04 0. 1.81581308e-05
      -1.54613197e-04 2.15819193e-04 5.80298016e-04 2.40669382e-04
      5.57048072e-04 1.64982092e-04 5.39009110e-04 5.47761680e-04
      5.47761680e-04 0. 0. 0. 1.81581308e-05 -1.54613197e-04
      4.15507020e-05 4.00937744e-04 4.00937744e-04 1.81581308e-05
      1.96021239e-04 1.96021239e-04 1.81581308e-05 1.81581308e-05 0.</_>
    <_>
      1.35223643e-04 5.22076625e-05 8.86817361e-05 8.86817361e-05
      4.82315991e-05 2.80430595e-05 2.80430595e-05 4.82315991e-05
      8.86817361e-05 8.86817361e-05 1.35223643e-04 0. 0. -1.48350700e-05
      -3.91294961e-05 -3.18988714e-05 -1.26482759e-04 -9.49142486e-05
      -7.87594399e-05 -5.30103607e-05 -1.60788131e-05 1.64024255e-04
      8.86817361e-05 5.86879214e-05 3.64740699e-05 -4.09187087e-05
      9.22039253e-05 7.84694348e-05 8.58184576e-05 4.35135589e-05
      5.93152708e-06 -7.32567132e-05 6.80725179e-06 6.82604514e-05
      1.27814623e-04 1.93911561e-04 5.08405683e-05 1.42418940e-05
      1.81412252e-04 -1.45919999e-04 -8.69184532e-06 1.89432278e-04
      9.96189119e-05 5.04348827e-05 3.65617307e-05 1.48850217e-04
      6.15503304e-05 1.93911561e-04 3.64740699e-05 1.30948800e-04
      9.94537986e-05 -3.24871478e-04 -4.94699227e-04 -2.39889821e-04
      -1.11967478e-04 -5.24880961e-05 -1.73788940e-04 1.10972942e-04
      2.39610032e-04 7.30544198e-05 -7.30358006e-05 -1.75721929e-04
      -3.97125812e-04 -7.05201819e-04 -6.77366566e-04 -4.44122503e-04
      -1.81124677e-04 -1.31256835e-04 -4.55739137e-05 2.19636408e-04
      1.41681550e-04 7.49165774e-05 -7.30358006e-05 -2.58737913e-04
      -2.46123032e-04 -7.45223952e-04 -4.69107123e-04 -9.88478860e-05
      2.78018815e-05 5.71375531e-05 -6.96763163e-05 7.63451026e-05
      8.99573206e-05 -6.85940358e-06 -1.56051785e-04 -4.30419896e-05
      -2.90985947e-04 -4.98466485e-04 -1.34145230e-04 -1.22626923e-04
      -9.19421509e-05 -3.73750117e-05 -1.09654880e-04 -1.29193968e-05
      -1.17952022e-05 -6.55473268e-05 -4.10166795e-05 -9.17789366e-05
      -1.83910146e-04 -7.65536897e-05 -1.13631331e-05 -9.00024752e-05
      -3.13975979e-05 -2.71408717e-05 -1.96487003e-04 -3.28675291e-04
      -1.48563297e-04 -1.48563297e-04 5.22076625e-05 5.22076625e-05
      7.44765020e-06 1.12842303e-04 9.85885999e-05 2.44323383e-05
      6.96523857e-05 -9.39680758e-05 -2.16531917e-04 -4.15217626e-04
      -7.55275032e-05 -8.30159770e-05 3.00124284e-05 -7.47316153e-05
      -1.11753674e-04 1.33790682e-05 5.17329725e-04 2.48406373e-04
      2.07111341e-04 8.63918322e-05 -4.40117001e-04 -6.22335356e-04
      -2.73629994e-04 0. 1.13028407e-04 -2.80653239e-05 1.45143422e-05
      4.13273738e-05 2.78569030e-04 3.20442225e-04 8.16476531e-05
      1.14902046e-04 -2.15576481e-04 -2.05008007e-04 -1.31363704e-04
      -1.35699782e-04 -6.26453693e-05 -9.95017035e-05 1.00996265e-04
      1.07736108e-04 2.14325424e-04 2.21587325e-04 -2.26210068e-05
      1.29736567e-04 1.06395084e-04 -1.77874259e-04 -3.64661537e-05
      -2.18512632e-05 -7.70118641e-05 -3.67822649e-05 -9.57885204e-05
      2.07977391e-05 1.73704815e-04 -3.23285894e-05 -6.50891161e-05
      8.45173781e-05 -7.31144391e-05 -2.97793129e-04 -2.32252351e-04
      -2.18512632e-05 -3.97606209e-06 -2.96978233e-05 1.98592206e-05
      -1.14902046e-04 -5.22380651e-05 6.08647315e-05 2.69386001e-05
      -3.63461731e-05 -1.47538929e-04 -6.71888265e-05 -4.35953116e-05
      1.82377880e-05 0. -1.31526049e-05 1.51140630e-04 -6.61870217e-05
      -7.32032058e-05 -2.36417894e-04 -1.77004869e-04 -1.49582353e-04
      -7.44966965e-05 -6.75050615e-05 1.35981536e-05 -4.04501334e-05 0.
      -4.04501334e-05 1.05752784e-04 9.80464465e-05 -1.95632292e-05
      -8.35459796e-05 -3.54008043e-05 -4.45748337e-05 -5.87020040e-05
      7.63967764e-05 1.15963430e-05 0. 0. 0. 0. 1.90848205e-05
      2.09606205e-05 1.34721440e-05 1.34721440e-05 2.09606205e-05
      -3.29616560e-05 -3.29616560e-05 0. 0.</_>
    <_>
      9.17484358e-05 9.17484358e-05 -2.86632689e-06 2.71110857e-05
      2.71110857e-05 -3.99313285e-05 -1.45569238e-05 2.71110857e-05
      4.27276027e-05 2.25080767e-05 9.17484358e-05 0. 0. -9.46147629e-05
      -4.03579797e-05 -8.96466154e-05 -7.43763712e-06 -2.87592940e-07
      -2.26200045e-05 -7.01837489e-05 -1.16805539e-04 -2.25441381e-05
      9.17484358e-05 0. -9.46147629e-05 -7.03353944e-05 -3.39415128e-04
      -2.03042408e-04 -1.60602503e-04 -4.31158260e-05 1.19416414e-04
      4.46395143e-06 4.01670986e-05 1.19619253e-05 2.13034873e-05
      9.17484358e-05 -7.03353944e-05 -1.59392497e-04 -3.07559327e-04
      -1.97424422e-04 -6.34923490e-05 1.99449656e-04 4.43364515e-05
      1.66180747e-04 2.13855368e-04 5.17829449e-06 -3.45809667e-06
      1.00707817e-04 -1.46954786e-04 -1.55322195e-04 -4.33986745e-04
      -4.28988889e-04 -1.88565857e-04 -2.03765212e-05 2.65574254e-05
      6.76843410e-05 8.73256649e-05 2.36464311e-05 7.60263065e-05
      6.74835828e-05 -1.46954786e-04 -2.73360463e-04 -7.16352079e-04
      -4.46426711e-04 -2.40567053e-04 2.65574254e-05 2.65574254e-05
      5.84674963e-05 5.96040627e-05 6.92403555e-05 -1.21007477e-04
      -6.70270674e-05 -1.46954786e-04 -1.55873800e-04 -4.96161578e-04
      -4.46426711e-04 -2.45928764e-04 6.83763355e-05 1.50538563e-05
      1.23755977e-04 1.80140472e-04 -2.25080767e-05 -1.29569744e-04
      -5.36258485e-05 -7.77144232e-05 -2.47417309e-04 -2.86926457e-04
      -1.14431750e-04 -6.11195937e-05 5.93045443e-05 5.71979172e-06
      -2.52017016e-05 -2.64298069e-05 -2.81262619e-04 -2.13560870e-05
      -6.25852335e-05 -2.57825959e-05 -6.41253646e-05 -1.74274101e-04
      2.29792040e-05 3.25100875e-04 1.84837103e-04 -8.20056266e-06
      -9.97566531e-05 -2.41299524e-04 -1.34184564e-04 -2.55983796e-05
      -5.23400195e-05 9.17484358e-05 3.86438660e-05 1.01819060e-04
      6.81424353e-05 -2.15119162e-05 4.05903775e-05 -1.99925038e-04
      -1.72535947e-04 -1.22397163e-04 3.11279546e-05 -1.26024781e-04 0.
      1.16027804e-04 1.38692893e-04 3.06298956e-04 1.35243230e-04
      1.78539449e-06 -1.35151888e-04 -8.45402174e-05 -6.44899774e-05
      -2.78005406e-04 -2.30120117e-04 -1.41956902e-04 -3.67235043e-05
      1.16027804e-04 1.75416397e-04 4.64266835e-04 4.88273974e-04
      3.15365964e-04 5.25051109e-05 5.85201415e-05 -1.80263796e-05
      -1.80263796e-05 3.35790646e-05 7.65783407e-05 0. 2.42793703e-05
      7.88326797e-05 2.79860920e-04 4.02696343e-04 5.39976114e-04
      1.86271136e-04 -3.92097645e-05 -1.00815436e-04 1.08820550e-05
      1.10592526e-04 1.91501589e-04 8.95938228e-06 0. 5.45533112e-05
      1.84642777e-04 4.29621257e-04 2.95654347e-04 7.32759145e-05
      -1.47452840e-04 -3.30137060e-04 -1.73087261e-04 -1.32847390e-05
      1.06201551e-04 8.95938228e-06 4.55939262e-05 4.55939262e-05
      2.76725012e-04 3.84027313e-04 2.13081483e-04 -1.52955734e-04
      -1.12551679e-04 -1.99245434e-04 5.93275472e-05 1.39048861e-04
      1.28906730e-04 0. 4.55939262e-05 4.55939262e-05 1.70523446e-04
      2.32074846e-04 3.83015431e-05 -1.70784304e-04 -5.75199083e-05
      -1.60925600e-04 5.90898562e-05 7.47063750e-05 3.28472997e-05 0.
      4.55939262e-05 4.55939262e-05 1.13090427e-04 2.61321780e-04
      1.01575446e-04 3.80580677e-05 -2.47056214e-05 9.59117824e-05
      2.23293231e-04 2.38909750e-04 3.41892446e-05 0. 0. 4.55939262e-05
      4.55939262e-05 4.88984333e-05 1.33393201e-04 1.62629192e-04
      9.16496865e-05 1.08154636e-04 9.58170785e-05 5.89951487e-05
      4.55939262e-05 0.</_>
    <_>
      2.57197917e-05 5.14990315e-05 5.14990315e-05 5.14990315e-05
      -1.71907607e-06 8.81324104e-06 -9.07179583e-06 5.14990315e-05
      5.14990315e-05 5.14990315e-05 5.14990315e-05 2.57792399e-05
      7.83475480e-06 3.15853722e-05 1.51803324e-04 1.53490037e-04
      1.77404188e-04 8.08313271e-05 3.38232276e-05 7.85360971e-05
      2.18892266e-04 1.64597426e-04 8.77273415e-05 0. 0. 8.31880388e-05
      1.87098747e-04 1.86405610e-04 1.51554574e-04 9.25244240e-05
      7.98949841e-05 3.04692890e-04 3.58589401e-04 2.82535766e-04
      7.92635619e-05 0. 0. 4.62075113e-05 9.07379872e-05 4.07991320e-05
      6.42512969e-05 7.39644893e-05 8.14917585e-05 3.14816745e-04
      1.92861917e-04 2.34710256e-04 3.61881393e-05 0. 0. 0. 0.
      -7.66204103e-05 -9.94570437e-05 2.43131417e-05 -3.07884620e-05
      1.62818076e-04 3.09492352e-05 6.19600905e-05 3.27925500e-06 0. 0.
      0. -5.32181075e-05 -1.29140681e-04 -5.83293186e-05 9.00926680e-05
      4.16518124e-05 1.07735788e-04 -8.88868526e-05 -6.43045860e-05 0.
      0. 0. 0. -8.80691441e-05 -1.28850268e-04 7.88932812e-05
      9.05144498e-06 1.00494377e-04 1.33178823e-04 2.00238151e-06
      -1.64257988e-04 0. 0. 0. -5.32181075e-05 -1.04249841e-04
      -2.83242611e-04 -1.15442017e-04 -2.08462552e-05 2.44317125e-05
      1.07002859e-04 1.92113894e-05 -2.21760456e-05 4.36642767e-05 0.
      -1.61807002e-05 -6.93988113e-05 -2.34954787e-04 -1.97026311e-04
      -1.43142359e-04 -2.25791682e-05 1.30825865e-04 3.17014565e-05
      4.36608934e-05 3.82306935e-05 1.26800442e-04 4.36642767e-05 0.
      -3.69191621e-05 -1.03588362e-04 -1.41418132e-04 -7.33515990e-05
      5.72404679e-05 -6.32714364e-05 -4.15743343e-05 -8.37445987e-06
      1.05976214e-04 8.39067652e-05 4.36642767e-05 -6.93988113e-05
      -1.20259043e-04 -3.17517872e-04 -3.05371301e-04 -2.95247446e-04
      -1.81736686e-04 -1.41253069e-04 -1.94612352e-04 -1.73434528e-04
      2.72220368e-05 8.33641934e-06 2.74835766e-05 -5.32181075e-05
      -1.21918049e-04 -3.42580199e-04 -3.58589401e-04 -3.05371301e-04
      -2.62975926e-04 -1.62779528e-04 -2.59692548e-04 -1.53769462e-04
      -2.57792399e-05 2.81412413e-05 2.74835766e-05 -8.80691441e-05
      -7.77284513e-05 -1.17312440e-04 -1.39055730e-04 -1.76852715e-04
      -1.23634614e-04 -1.17556774e-04 -2.20248097e-04 -7.20317548e-05
      -1.35525272e-20 -1.87990845e-05 -2.70162818e-05 -5.32181075e-05
      -7.01841054e-05 -2.31238519e-05 -8.46758121e-06 -8.46758121e-06
      -5.41463305e-05 -6.39280552e-05 1.05788104e-05 -3.48037793e-05
      -5.87683171e-05 8.26167343e-06 -8.80691441e-05 0. 5.18217348e-05
      3.51978597e-05 1.09975379e-04 9.43819541e-05 1.55955029e-04
      6.78449433e-05 7.62981654e-05 -1.31735651e-04 -1.06436950e-04
      -6.29200731e-05 0. 7.83475480e-06 2.34281761e-05 1.20971774e-04
      1.72688815e-04 1.55200498e-04 1.02673657e-04 6.51445953e-05
      7.12554247e-05 -2.43289578e-05 -7.66120284e-05 -2.70162818e-05 0.
      7.83475480e-06 1.37003344e-05 8.69511496e-05 1.15888201e-04
      1.19167453e-04 1.06641695e-04 6.57064738e-05 4.24912323e-05
      -7.93635045e-05 -1.15440344e-04 0. 0. 0. 7.83475480e-06
      1.37003344e-05 2.63247875e-05 4.38131028e-05 3.48026297e-05 0.
      -3.45606277e-05 -3.45606277e-05 -8.80691441e-05 0. 0.</_>
    <_>
      7.42680786e-05 5.56580198e-05 5.56580198e-05 5.56580198e-05
      5.56580198e-05 6.49772628e-05 3.42607223e-06 5.56580198e-05
      5.56580198e-05 5.56580198e-05 8.50928263e-05 1.08247450e-05
      2.34017676e-07 -4.15210961e-05 1.40456788e-04 1.24829181e-04
      5.33687671e-06 3.10877513e-05 -1.50153457e-04 6.35003089e-05
      2.81585293e-04 -1.12543719e-04 9.48893212e-05 0. -3.25929068e-05
      1.45006154e-04 1.44165577e-04 1.40032047e-04 -1.18974072e-04
      -1.51800996e-04 -1.00063771e-04 6.94467744e-05 1.84390665e-04
      2.82060191e-05 -7.17590447e-05 4.53846696e-05 -4.95448403e-05
      -2.09518930e-05 -2.30523568e-04 -2.24774703e-04 -3.51379742e-04
      -9.91235138e-05 2.54270446e-04 4.77362773e-04 5.05001750e-04
      1.99623959e-04 3.77418146e-05 3.18083803e-05 -1.05267296e-04
      -1.85175348e-04 -4.93730651e-04 -6.42124854e-04 -3.48649744e-04
      -3.90451460e-05 4.13083675e-04 7.64785917e-04 4.08131920e-04
      1.20768709e-04 -6.08912887e-05 -8.43894886e-05 -6.31211296e-05
      -2.99333391e-04 -7.01298995e-04 -1.00245129e-03 -2.06455486e-04
      7.78335016e-05 2.15843495e-04 4.65593708e-04 1.68572646e-04
      2.59312146e-05 -2.01100356e-05 0. -5.06382567e-05 -2.25644748e-04
      -7.01298995e-04 -9.69624321e-04 -2.90575612e-04 5.76444290e-05
      1.41240729e-04 1.87120109e-04 -8.03354415e-05 -7.25897771e-05
      -6.22562002e-05 -2.01100356e-05 -1.35762893e-05 -1.16411153e-04
      -2.14755448e-04 -4.94936481e-04 6.96210845e-05 2.80479901e-04
      -8.22235888e-05 1.68673196e-05 4.57226379e-05 2.83310892e-05
      -4.63477481e-05 -6.22562002e-05 0. 0. -8.58829299e-05
      -5.30560028e-05 2.29005396e-04 2.09754755e-04 1.13601811e-04
      2.71037279e-04 -7.14714133e-06 -9.90883054e-05 -1.82444739e-04
      -3.21235857e-05 0. 0. 0. 0. 0. 9.34102573e-05 0. 1.01328340e-04
      4.82878495e-05 -1.20830396e-06 9.57048469e-05 5.56286295e-06 0.
      -2.04943372e-05 -1.03836494e-04 -6.70711815e-05 0. 0. 0.
      5.31779297e-05 -7.65022269e-05 -1.00945814e-04 6.22845109e-05
      3.02135140e-05 0. -5.68753458e-05 -1.36612260e-04 -1.31389417e-04
      -1.11279383e-04 0. 0. -1.26657360e-05 -5.74303749e-06
      3.14185745e-05 1.21632860e-04 1.32615814e-05 0. 2.26420216e-05
      -5.09264610e-05 -1.47436358e-05 -1.36612260e-04 -1.16502226e-04
      -1.95494053e-04 -2.08055371e-05 -3.41923260e-05 -8.13151629e-20
      -1.56688868e-04 -6.17739443e-06 0. -9.39558140e-06 2.22706687e-04
      -1.41968689e-04 -1.41968689e-04 -1.72745931e-04 -1.48707972e-04
      5.98792440e-06 3.10731593e-05 6.17599071e-05 -1.17393602e-05
      8.09273915e-05 0. 2.29512716e-05 8.54395039e-05 2.14207277e-04
      -9.87069652e-05 5.33569328e-05 -1.85550016e-04 1.22898331e-04
      -4.65056974e-06 -3.69645713e-05 6.31423609e-05 0. 3.28269234e-05
      3.28269234e-05 2.71986828e-05 1.58894312e-04 9.49193563e-05
      -7.23493285e-05 -1.17734002e-04 -9.64692299e-05 4.14122894e-07
      1.41782657e-04 1.58749899e-05 0. 3.28269234e-05 4.87767902e-05
      4.13500893e-05 5.33604289e-05 -3.43577653e-06 -1.61933058e-05
      1.62603590e-06 5.45428229e-05 1.77576912e-05 3.28269234e-05 0. 0.
      0. 1.58749899e-05 -1.16776109e-05 -3.02678982e-05 -6.57856290e-05
      1.75546622e-04 9.72061025e-05 3.28269234e-05 3.28269234e-05 0. 0.
      0.</_>
    <_>
      2.87626317e-05 7.88450561e-05 7.88450561e-05 7.88450561e-05
      7.88450561e-05 7.88450561e-05 -4.18533782e-05 -1.30907474e-05
      1.32846890e-05 7.88450561e-05 7.32645494e-05 5.00824208e-05
      5.58050624e-06 2.87626317e-05 7.33664201e-05 2.58191518e-04
      2.41210626e-04 1.66645405e-04 1.17636002e-04 -1.29141899e-05
      2.16885572e-04 1.44105943e-04 7.88450561e-05 0. 5.58050624e-06
      1.86963705e-04 2.72423058e-04 2.97884486e-04 2.05948687e-04
      1.70611034e-04 4.37980634e-06 -1.35525272e-20 2.92348966e-04
      2.23961935e-04 5.19068235e-05 2.31441918e-05 0. 6.18190097e-05
      1.24704282e-04 5.31810765e-05 -4.55473164e-05 -3.59791447e-05
      1.71768279e-05 1.05740612e-04 3.19063314e-04 1.73879511e-04
      4.01250727e-05 2.31441918e-05 0. 0. -7.91573839e-05
      -6.64743857e-05 -2.51319754e-04 -1.22335245e-04 6.24786771e-05
      3.19063314e-04 1.50697379e-04 6.55864860e-05 2.04125954e-05 0. 0.
      -5.27819502e-05 -9.19357990e-05 -2.49935547e-04 -2.10377781e-04
      -7.62978379e-05 2.04080716e-05 3.18367092e-04 4.15671711e-05 0. 0.
      0. 0. -6.55603653e-05 -1.06736123e-04 -4.30829416e-04
      -1.41558732e-04 -2.04125954e-05 1.71768279e-05 1.10437504e-04
      1.26049403e-04 7.70418319e-06 0. 0. -5.27819502e-05
      -9.19357990e-05 -3.19927698e-04 -4.13848553e-04 -1.49236788e-04
      -6.51732989e-05 -4.79964692e-05 1.07975202e-05 -2.21792470e-06
      6.15929239e-05 7.70418319e-06 0. -6.55603653e-05 -9.19357990e-05
      -2.49801553e-04 -3.52029543e-04 -2.85712536e-04 -1.16448377e-04
      1.84938053e-05 -7.93880827e-05 -4.06041618e-05 -6.88410291e-05
      1.38277155e-05 7.70418319e-06 0. 0. -3.17890896e-04
      -2.19028516e-04 -5.15593365e-06 2.73982077e-05 2.73982077e-05
      6.73995164e-05 1.59328902e-05 5.56082196e-05 8.49685821e-05
      7.32645494e-05 -9.19357990e-05 -2.93344492e-04 -4.10034496e-04
      -2.54366139e-04 -2.65832223e-05 0. 0. 7.87998870e-05
      1.79794552e-05 1.07975202e-05 -1.73785224e-06 3.08483759e-05
      -9.19357990e-05 -2.93344492e-04 -3.57252546e-04 -2.54366139e-04 0.
      0. 0. 0. 5.70397497e-05 2.69952852e-06 6.70811860e-05
      3.64288826e-05 -9.19357990e-05 -1.67616061e-04 -3.02790286e-04
      -2.60412053e-04 -1.61683667e-04 -1.02546299e-04 0. 6.78229262e-05
      3.53913856e-06 2.63754373e-05 7.91842376e-06 -6.32111041e-05
      -9.19357990e-05 -1.41240627e-04 -2.71671706e-05 -1.55603193e-04
      -1.42824778e-04 -4.26883707e-05 -3.92872753e-05 2.90535863e-05
      -7.48010370e-06 -6.87219745e-06 2.79062897e-05 -8.63552923e-05
      -3.29159193e-05 -4.23415549e-05 2.91767606e-06 3.74516344e-06
      -3.98189404e-05 -2.67193627e-05 -4.17735537e-05 5.33998391e-05
      -1.06708387e-04 -2.27803121e-05 -5.81622808e-05 -3.91538488e-05
      1.18184353e-05 -1.03545353e-05 9.90466797e-05 7.84737567e-05
      6.77624121e-05 -4.31038970e-05 -5.30639263e-05 -1.37253692e-05
      -4.62795106e-05 -4.92813961e-05 -3.35733457e-05 -2.63754373e-05
      5.58050624e-06 -3.82335259e-07 6.83707403e-05 1.37918963e-04
      7.03366968e-05 -1.37253692e-05 -1.93058750e-05 1.07495134e-06
      -5.58164029e-05 -3.35733457e-05 -2.63754373e-05 -2.63754373e-05 0.
      5.58050624e-06 -2.07949306e-05 2.34926142e-06 -2.01303992e-05
      2.59942090e-06 -1.36924336e-05 -3.35733457e-05 -2.07949306e-05
      -2.63754373e-05 -2.63754373e-05 0.</_>
    <_>
      -7.87475728e-05 -5.53209138e-05 -5.53209138e-05 -5.53209138e-05
      -5.53209138e-05 -2.11052702e-05 -6.14531891e-05 -5.53209138e-05
      -5.53209138e-05 -5.53209138e-05 -5.53209138e-05 -9.56688382e-05
      -6.66954584e-05 -3.50984701e-05 2.97128045e-05 3.52808820e-05
      -1.02126811e-04 2.20192815e-05 -1.28355678e-04 -6.17374390e-05
      -1.01440244e-04 -8.27428375e-05 -5.49756551e-05 -8.88784198e-05
      2.61558029e-07 -2.78834086e-05 -1.21669276e-04 1.92677326e-05
      1.92677326e-05 2.93701396e-05 3.97771364e-05 3.14632744e-05
      2.71050543e-20 -1.88933791e-05 1.15476636e-04 -1.29824926e-04 0.
      -3.73168696e-05 -6.27491318e-05 -6.27491318e-05 -6.27491318e-05
      -3.53043615e-05 2.26735665e-05 3.14632744e-05 2.71050543e-20
      -4.23200363e-05 -7.02963443e-05 -4.09465065e-05 0. 0. 0. 0.
      2.34266590e-05 -2.46087948e-05 8.85088593e-05 9.22737891e-05
      -8.26679607e-05 -1.29493768e-04 -1.65595789e-04 -2.89138243e-05 0.
      0. 0. 0. 6.37745834e-05 1.15958028e-04 1.19863311e-04
      3.91647663e-05 -1.24524100e-04 -2.53809383e-04 -5.43460847e-05 0.
      0. 0. 0. 0. 2.05441131e-04 1.85609912e-04 1.56513386e-04
      2.71050543e-20 -6.40379512e-05 3.36905117e-07 0. 0. 0. 0. 0.
      -3.79814483e-05 -8.10921119e-05 1.47081868e-04 -3.43332576e-05
      9.92646819e-05 1.42430246e-04 8.91323871e-05 6.37745834e-05 0. 0.
      0. 0. -6.81985184e-05 -1.01580372e-04 -1.28563392e-04
      -3.49759393e-05 1.86633610e-04 2.14114567e-04 3.78145953e-04
      1.18046213e-04 6.37745834e-05 0. 0. 0. -8.48798518e-05
      -1.36379691e-04 -2.67608673e-04 -1.33960202e-04 -1.64131954e-04
      1.15667674e-04 1.46793551e-04 1.92033520e-04 9.39916572e-05 0. 0.
      0. -1.58201859e-04 -3.23132233e-04 -4.82814852e-04 -1.86852456e-04
      -1.78954506e-04 1.94850567e-04 5.07918710e-04 3.36064812e-04
      1.73140143e-04 0. 0. -1.74122142e-05 -1.79561757e-04
      -3.55758122e-04 -4.21525532e-04 -1.57938630e-04 -1.10309848e-05
      1.96329333e-04 4.69118124e-04 4.05580999e-04 1.73140143e-04 0.
      4.03479207e-05 1.46673920e-04 1.49447806e-05 -3.00921645e-04
      -2.96975690e-04 2.17093711e-05 1.94563661e-04 3.60465085e-04
      4.92544787e-04 2.98474508e-04 1.09365559e-04 0. 4.03479207e-05
      1.81974465e-04 1.21096833e-04 -1.14095365e-05 1.17965851e-06
      9.12255637e-05 3.41778155e-04 3.83891747e-04 3.92045273e-04
      1.58885567e-04 3.02170738e-05 3.50352457e-06 4.66613437e-06
      1.22944175e-05 2.74722406e-05 8.09980702e-05 1.48602674e-04
      2.82536843e-04 1.63895806e-04 3.63021041e-04 2.58126587e-04
      1.09365559e-04 0. 3.50352457e-06 1.61862863e-05 4.89868762e-05
      6.08443588e-06 3.13769033e-06 7.43457276e-05 1.94850567e-04
      2.34699939e-04 2.34699939e-04 1.26046885e-04 0. 0. 3.02170738e-05
      4.68984035e-05 2.22667251e-04 2.22667251e-04 2.27808079e-04
      2.18396061e-04 1.55551446e-04 1.26046885e-04 1.66813297e-05 0. 0.
      0. 0. 0. 3.02170738e-05 3.02170738e-05 1.09365559e-04 0.
      1.66813297e-05 1.66813297e-05 0. 0. 0. 0.</_>
    <_>
      7.97375978e-05 7.35284193e-05 3.20894032e-05 -8.82384484e-06
      -8.82384484e-06 -2.60109719e-05 -7.63106218e-05 1.56231872e-05
      1.56231872e-05 3.20894032e-05 8.84533583e-05 8.71576322e-06
      1.71871270e-05 2.33736391e-05 2.01394272e-04 1.32331115e-04
      3.54615804e-05 2.00304985e-05 -1.04121573e-04 8.22164511e-05
      1.03580809e-04 1.27935666e-04 3.69898262e-05 0. -4.14390197e-05
      -1.69218856e-05 1.34159229e-04 1.02318147e-04 4.07556545e-05
      4.80155613e-05 7.94004227e-05 9.70969486e-05 9.42015977e-05
      2.56160944e-04 8.17121181e-05 1.67373287e-06 -6.58860517e-05
      2.62157664e-05 -6.55878903e-05 -1.62980796e-04 -9.88385145e-05
      2.06968587e-04 1.44274803e-04 1.22120895e-04 8.55311591e-05
      1.54491529e-04 1.28258383e-04 1.67373287e-06 -6.58860517e-05
      -9.21242245e-05 -2.71064404e-04 -3.65600747e-04 -9.29413727e-05
      2.53077269e-05 1.59975825e-04 3.27043002e-04 -7.12662295e-05
      -9.12308897e-05 -9.51195616e-05 0. -3.34863362e-05 -1.49481843e-04
      -3.88846733e-04 -5.30084595e-04 -2.88120616e-04 5.67224452e-05
      1.11193367e-04 1.16328491e-04 -1.13903800e-04 -1.47603292e-04
      -1.26439976e-04 0. -3.34863362e-05 -1.75012581e-04 -2.19873720e-04
      -5.52401121e-04 -2.68350967e-04 4.54213550e-05 -1.19231772e-05
      4.40921394e-05 -9.16093923e-05 -1.69965395e-04 -4.40921394e-05
      -3.34863362e-05 -4.84112716e-05 -1.00456098e-04 -2.73622078e-04
      -4.52484499e-04 -2.25770593e-04 2.82137607e-05 -2.47729022e-05
      -1.22491556e-05 -6.16225298e-05 -3.60561935e-05 1.22491556e-05
      -3.34863362e-05 -4.84112716e-05 -1.74646702e-04 -2.41222369e-04
      -3.45609966e-04 -1.10492379e-04 -4.32522256e-06 2.37226996e-05
      5.58609099e-05 6.20018400e-05 7.39754396e-05 8.62508023e-05
      2.28549579e-05 -1.49249354e-05 -1.37901676e-04 -1.46351580e-04
      -1.80332587e-04 -6.93182083e-05 -1.35383607e-05 -3.76001553e-05
      6.17170444e-05 1.41568904e-04 -1.86711236e-06 1.27889274e-04
      5.63412941e-05 -1.06316504e-04 -2.62066664e-04 -5.20726782e-04
      -5.33725834e-04 -1.98927039e-04 -1.37045790e-04 -4.40921394e-05
      -9.96883027e-05 1.86856141e-05 -7.12662295e-05 8.64021131e-05
      1.41170502e-04 -1.15838608e-04 -2.03670934e-04 -4.87240439e-04
      -4.97841800e-04 -2.23508207e-04 -4.19715361e-05 -1.18303746e-04
      -1.04927873e-04 5.54184408e-05 9.13884105e-06 1.05345578e-04
      7.50215841e-05 -1.15838608e-04 -1.26195533e-04 -2.79677013e-04
      -2.81924586e-04 -2.59493710e-04 -1.30554559e-04 -3.01017953e-05
      7.72854619e-05 2.41730537e-04 1.14238122e-04 -5.33741586e-05
      -2.87472121e-05 -1.15838608e-04 -7.08526204e-05 -1.98707407e-04
      -1.32821355e-04 9.16771096e-05 2.32931197e-05 1.96720484e-05
      1.87650498e-04 3.04890418e-04 2.31425074e-05 1.24376229e-05
      -4.74582921e-05 -5.71702876e-05 -7.16752256e-05 -5.46834453e-05
      -3.15539182e-05 -3.71440765e-05 4.45377646e-06 -3.67159896e-06
      4.95274689e-05 -3.94079616e-05 3.80643105e-05 1.59504884e-06 0.
      2.59028893e-05 3.71355382e-05 9.37437289e-05 8.21468348e-05
      -4.62154167e-05 -8.65277107e-05 -8.14733430e-05 7.59150134e-05
      3.11779077e-05 1.18300557e-06 -1.00213554e-04 0. 1.71871270e-05
      1.88608592e-05 1.01672376e-04 1.78494098e-04 2.10338665e-04
      4.46483646e-05 -2.95825885e-05 2.92163604e-05 -3.50959745e-05
      -7.25990640e-06 0. 0. 0. 1.71871270e-05 1.71871270e-05
      1.88608592e-05 3.35035620e-05 1.57746588e-04 1.30279528e-04
      1.71871270e-05 1.71871270e-05 0. 0. 0.</_>
    <_>
      4.16986986e-05 5.09322599e-05 -3.70917805e-05 -3.70917805e-05
      -4.46530685e-05 -4.46530685e-05 -9.55826908e-06 -3.70917805e-05
