<?xml version="1.0"?>
<opencv_storage>
<opencv_ml_svm>
  <format>3</format>
  <svmType>C_SVC</svmType>
  <kernel>
    <type>LINEAR</type></kernel>
  <C>5.0000000000000000e-01</C>
  <term_criteria><epsilon>1.1920928955078125e-07</epsilon>
    <iterations>1000</iterations></term_criteria>
  <var_count>216</var_count>
  <class_count>10</class_count>
  <class_labels type_id="opencv-matrix">
    <rows>10</rows>
    <cols>1</cols>
    <dt>i</dt>
    <data>
      0 1 2 3 4 5 6 7 8 9</data></class_labels>
  <sv_total>45</sv_total>
  <support_vectors>
    <_>
      0. 0. -5.12295774e-05 8.42097943e-05 8.42097943e-05 2.36327851e-05
      -1.57150116e-05 1.55959060e-05 1.55959060e-05 -3.19409555e-05
      -1.34101574e-04 -1.04835490e-04 -7.12340334e-05 -7.12340334e-05
      8.42097943e-05 2.36327851e-05 -7.77160094e-05 -7.77160094e-05
      -7.77160094e-05 -7.77160094e-05 -1.71390038e-05 1.55959060e-05
      -2.61946116e-05 -1.04835490e-04 2.00044542e-05 6.21319123e-05
      4.50941407e-05 5.74634396e-06 -7.82935895e-05 -1.07906963e-04
      -1.07906963e-04 -1.07906963e-04 5.63099456e-05 1.55959060e-05
      2.13422500e-05 -6.00750463e-05 3.17202939e-05 7.12340334e-05
      7.12340334e-05 -5.66773851e-05 -5.66773851e-05 -5.66773851e-05
      -6.24237291e-05 -1.27911422e-04 2.66965690e-05 9.33119154e-05
      9.90582557e-05 -6.00750463e-05 7.00885066e-05 1.03968945e-04
      9.97018797e-05 -5.66773851e-05 -4.48619940e-05 -1.22578000e-04
      -1.28324347e-04 -6.14128439e-05 2.66965690e-05 5.94314770e-05
      9.90582557e-05 2.13422500e-05 1.70013314e-04 1.43316734e-04
      1.09436303e-04 -8.98430953e-05 -9.33119154e-05 -1.92853877e-05
      -5.02727789e-06 -1.11596448e-04 2.66965690e-05 5.94314770e-05
      9.90582557e-05 9.90582557e-05 2.33159837e-04 2.33159837e-04
      1.21563389e-04 7.40265241e-05 -1.92853877e-05 7.19065895e-07
      2.25051281e-05 -1.11596448e-04 -4.73299588e-05 5.94314770e-05
      9.90582557e-05 9.90582557e-05 2.33159837e-04 2.33159837e-04
      1.21563389e-04 1.01558937e-04 7.19065895e-07 2.82514720e-05
      -5.15213978e-05 -1.85622979e-04 -1.25045975e-04 5.94314770e-05
      9.90582557e-05 9.90582557e-05 2.33159837e-04 2.33159837e-04
      1.21563389e-04 1.21563389e-04 2.82514720e-05 -4.57750539e-05
      -5.15213978e-05 -2.05627424e-04 -1.25045975e-04 -1.82845306e-05
      9.33119154e-05 9.33119154e-05 2.33159837e-04 2.33159837e-04
      1.21563389e-04 1.21563389e-04 -4.57750539e-05 -4.57750539e-05
      -7.15258502e-05 -2.33159837e-04 -9.85563020e-05 -1.82845306e-05
      9.33119154e-05 9.33119154e-05 1.59133313e-04 1.26398401e-04
      8.88284776e-05 8.88284776e-05 2.82514720e-05 8.24701783e-06
      -2.50317316e-05 -1.59133313e-04 -7.85518496e-05 -5.10194404e-05
      6.05770074e-05 -1.34495212e-05 1.26398401e-04 1.26398401e-04
      9.25179629e-05 8.88284776e-05 8.24701783e-06 -1.92853877e-05
      -2.50317316e-05 -1.59133313e-04 -7.85518496e-05 -5.10194404e-05
      -1.34495212e-05 -7.98216115e-06 1.59133313e-04 1.59133313e-04
      3.19409555e-05 3.19409555e-05 -7.33074630e-05 -7.33074630e-05
      -7.90538033e-05 -2.13155377e-04 -1.85622979e-04 -1.07906963e-04
      2.50317316e-05 3.04990917e-05 2.96133767e-05 9.85563020e-05
      6.46758635e-05 6.46758635e-05 6.46758635e-05 -1.30401459e-05
      -1.87864898e-05 -7.51720509e-05 -7.51720509e-05 -4.12916161e-05
      -5.55497281e-05 -1.70377680e-05 -3.09636307e-05 5.10194404e-05
      6.89429216e-05 6.46758635e-05 6.46758635e-05 6.46758635e-05
      5.89295196e-05 -7.51720509e-05 -7.51720509e-05 -4.12916161e-05
      -8.30821373e-05 -1.55330781e-04 -6.05770074e-05 -2.66965690e-05
      8.35837284e-07 6.89429216e-05 6.46758635e-05 6.46758635e-05
      5.89295196e-05 -7.09049928e-05 -4.12916161e-05 -6.12960721e-05
      -1.94678578e-04 -9.47537774e-05 0. 3.38804384e-05 3.38804384e-05
      3.38804384e-05 3.38804384e-05 3.38804384e-05 3.38804384e-05
      -3.47334499e-05 -3.47334499e-05 -3.47334499e-05 -1.34101574e-04
      -9.47537774e-05 0. 0. 2.96133767e-05 3.38804384e-05 3.38804384e-05
      3.38804384e-05 3.38804384e-05 -3.47334499e-05 -3.90005080e-05
      -6.86138883e-05 -6.86138883e-05 0.</_>
    <_>
      -9.85020306e-05 -9.85020306e-05 -1.23799473e-04 2.88340907e-05
      2.88340907e-05 2.88340907e-05 2.88340907e-05 2.88340907e-05
      2.88340907e-05 -9.43380746e-06 -9.85020306e-05 0. 0.
      -1.06281041e-04 6.97895011e-05 6.97895011e-05 6.97895011e-05
      6.23628075e-05 6.23628075e-05 6.97895011e-05 -2.87125258e-05
      2.88340907e-05 -9.43380746e-06 -1.06281041e-04 -2.52974496e-05
      1.31656154e-04 1.60368683e-04 1.60368683e-04 2.34418603e-05
      -3.49805814e-05 -3.49805814e-05 -3.49805814e-05 4.12239060e-05
      -2.87125258e-05 2.88340907e-05 -8.84989931e-05 5.25909636e-05
      1.60368683e-04 1.60368683e-04 -9.68313270e-06 -9.68313270e-06
      4.78634865e-05 -9.68313270e-06 -9.68313270e-06 8.90825031e-05
      6.18666527e-05 -2.45639555e-20 -8.84989931e-05 1.46276798e-04
      1.67795370e-04 2.04699245e-04 5.52901765e-05 3.61392194e-05 0.
      -9.85020306e-05 1.34904854e-04 1.46629129e-04 -1.71985375e-05
      -2.45639555e-20 6.23628075e-05 2.52557831e-04 3.31623014e-04
      2.52557831e-04 0. 0. 1.77820457e-05 9.87656385e-05 1.17916592e-04
      -1.71985375e-05 -7.90651902e-05 9.85020306e-05 1.56048642e-04
      3.31623014e-04 3.31623014e-04 2.16418615e-04 1.16284071e-04
      1.77820457e-05 -6.50620204e-05 -4.59110634e-05 -4.59110634e-05
      -3.49805814e-05 1.94368404e-05 9.85020306e-05 1.56048642e-04
      3.31623014e-04 2.33120998e-04 1.17916592e-04 -2.06136137e-05
      -6.50620204e-05 -4.59110634e-05 -6.36931072e-05 -7.11198009e-05
      -1.32986446e-04 1.94368404e-05 1.56048642e-04 2.69756390e-04
      2.33120998e-04 2.33120998e-04 -4.59110634e-05 -4.59110634e-05
      -4.59110634e-05 -6.14649070e-06 -7.54398352e-05 -1.56423426e-04
      -7.54398352e-05 4.08442393e-05 2.69756390e-04 3.31623014e-04
      1.75574387e-04 1.75574387e-04 -4.59110634e-05 -4.59110634e-05
      -6.36931072e-05 -7.54398352e-05 -5.01423856e-05 -6.92933390e-05
      4.69907318e-05 1.54551977e-04 3.31623014e-04 3.31623014e-04
      -4.69907318e-05 -4.69907318e-05 -4.59110634e-05 -4.59110634e-05
      -5.76577877e-05 -3.23603381e-05 -5.15112988e-05 -5.15112988e-05
      9.87656385e-05 2.16418615e-04 3.31623014e-04 2.15338951e-04
      -4.69907318e-05 -4.69907318e-05 -1.33482608e-04 -1.15204406e-04
      -8.99069564e-05 -1.09057917e-04 -1.09057917e-04 -3.97645745e-05
      4.12190166e-05 6.03699773e-05 1.57792339e-04 1.36273768e-04
      5.15112988e-05 -1.03553539e-05 -9.68472305e-05 -9.68472305e-05
      -1.52137407e-04 -8.28440679e-05 -8.28440679e-05 -8.28440679e-05
      -6.36931072e-05 -2.75538896e-05 5.15112988e-05 2.99927287e-05
      -5.52852907e-05 3.97645745e-05 -3.93006158e-05 -3.93006158e-05
      2.99927287e-05 -6.14649070e-06 -6.14649070e-06 2.99927287e-05
      2.99927287e-05 1.09057917e-04 2.80743243e-05 -7.01418248e-05
      -1.17151940e-04 -6.03699773e-05 -1.86578691e-05 2.25660369e-05
      2.99927287e-05 2.99927287e-05 2.99927287e-05 2.99927287e-05
      2.99927287e-05 1.09057917e-04 8.92336539e-06 -1.06281041e-04
      -6.92933390e-05 9.77184482e-06 -7.73582360e-05 4.32087800e-05
      2.99927287e-05 2.99927287e-05 2.99927287e-05 5.06354736e-05
      1.09057917e-04 2.80743243e-05 -1.06281041e-04 0. -6.92933390e-05
      9.77184482e-06 9.77184482e-06 9.77184482e-06 7.16384966e-05
      7.16384966e-05 7.16384966e-05 7.16384966e-05 7.16384966e-05
      7.16384966e-05 0. 0. 0. -6.92933390e-05 -1.08709000e-05
      9.77184482e-06 9.77184482e-06 9.77184482e-06 9.77184482e-06
      9.77184482e-06 -1.08709000e-05 -6.92933390e-05 -6.18666527e-05 0.</_>
    <_>
      -5.13835330e-05 -1.09939218e-04 -1.03099701e-04 5.22035771e-06
      5.22035771e-06 5.22035771e-06 5.22035771e-06 5.22035771e-06
      5.22035771e-06 -1.71811771e-05 -9.67656015e-05 -4.53820685e-05
      -8.76509221e-05 -1.39034455e-04 4.86074759e-06 4.86074759e-06
      4.86074759e-06 4.86074759e-06 4.86074759e-06 4.86074759e-06
      -4.05213214e-05 -4.05213214e-05 -6.29228525e-05 -7.44773133e-05
      -2.33401443e-05 5.62442801e-05 9.67656015e-05 9.67656015e-05
      6.81446954e-06 -1.15544553e-05 -6.29379865e-05 -1.08320055e-04
      -4.34003196e-05 -4.05213214e-05 1.80343613e-05 -2.79265005e-05
      8.21259600e-05 1.84416524e-04 1.84416524e-04 4.05213214e-05
      4.05213214e-05 1.17856889e-05 -9.81535268e-05 -1.43895202e-04
      -6.17692422e-05 4.53820685e-05 1.55680886e-04 4.65508092e-05
      1.22647281e-04 1.84416524e-04 1.41016208e-04 4.05213214e-05
      -4.86074759e-06 -1.25501232e-04 -1.84416524e-04 -6.17692422e-05
      3.49963557e-05 8.07380347e-05 1.84416524e-04 1.43895202e-04
      1.22647281e-04 1.84416524e-04 1.22647281e-04 0. -9.67656015e-05
      -1.37865718e-04 -1.02290564e-04 -1.02290564e-04 2.93545017e-05
      1.22647281e-04 1.84416524e-04 1.84416524e-04 1.84416524e-04
      1.84416524e-04 8.21259600e-05 4.65508092e-05 -1.37865718e-04
      -1.02290564e-04 -1.02290564e-04 -1.02290564e-04 -4.94047636e-05
      -2.85395322e-06 1.84416524e-04 1.84416524e-04 1.84416524e-04
      1.84416524e-04 8.21259600e-05 -2.79265005e-05 -5.52496613e-06
      -5.69084987e-05 -1.03459308e-04 -1.03459308e-04 -1.03099701e-04
      -2.85395322e-06 5.89152914e-05 1.84416524e-04 1.84416524e-04
      1.84416524e-04 8.21259600e-05 8.21259600e-05 -5.52496613e-06
      -5.20757785e-05 -5.20757785e-05 -8.76509221e-05 -5.20757785e-05
      -1.02290564e-04 5.89152914e-05 8.76509221e-05 1.84416524e-04
      1.84416524e-04 8.21259600e-05 8.21259600e-05 3.55751472e-05
      6.83951566e-06 -4.19092466e-05 -4.19092466e-05 -4.11001129e-05
      -5.52496613e-06 1.01643954e-20 4.19092466e-05 1.37865718e-04
      1.37865718e-04 8.21259600e-05 8.21259600e-05 8.21259600e-05
      4.65508092e-05 4.65508092e-05 4.65508092e-05 4.02167134e-05
      4.02167134e-05 1.01643954e-20 -3.33771968e-05 1.37865718e-04
      1.37865718e-04 7.60964685e-05 8.21259600e-05 4.65508092e-05
      4.65508092e-05 4.65508092e-05 4.65508092e-05 8.21259600e-05
      -1.11668187e-05 -4.65508092e-05 -1.08320055e-04 1.37865718e-04
      8.64821850e-05 2.47129374e-05 7.60964685e-05 3.55751472e-05
      3.55751472e-05 -1.58083840e-05 -1.58083840e-05 -1.58083840e-05
      -6.25783796e-05 -4.65508092e-05 -1.15544553e-05 1.83689244e-05
      7.33085690e-05 2.47129374e-05 2.47129374e-05 2.47129374e-05
      -1.58083840e-05 -1.58083840e-05 -3.38427453e-05 -3.38427453e-05
      -8.09131564e-07 -3.07424270e-05 -3.39559883e-05 5.19531159e-06
      8.91169548e-05 5.49396427e-05 1.15393241e-05 1.15393241e-05
      -3.38427453e-05 -3.38427453e-05 -1.11948457e-05 -5.69365257e-05
      4.83272106e-06 2.78132557e-05 -2.87356324e-05 0. -2.58816781e-05
      -2.55220693e-05 3.22054766e-05 -1.11948457e-05 -1.15544553e-05
      -1.15544553e-05 3.18458660e-05 5.02147886e-05 2.78132557e-05
      -2.87356324e-05 0. -4.57416791e-05 -1.27080657e-05 -2.58816781e-05
      -2.58816781e-05 -2.58816781e-05 -2.58816781e-05 -2.58816781e-05
      -1.27080657e-05 3.30336152e-05 3.30336152e-05 0. 0. 0. 0.
      -2.73727546e-05 -1.27080657e-05 3.30336152e-05 3.30336152e-05
      3.30336152e-05 6.17692422e-05 1.83689244e-05 0. 0. 0.</_>
    <_>
      0. 0. 3.11984586e-05 1.06150314e-04 5.47229502e-05 6.11797441e-05
      6.61281883e-05 1.06150314e-04 1.06150314e-04 7.49518513e-05 0. 0.
      0. 0. 1.06150314e-04 5.47229502e-05 4.45491387e-05 1.47008250e-05
      6.61281883e-05 7.63019998e-05 1.06150314e-04 1.06150314e-04
      7.49518513e-05 0. 3.11984586e-05 1.06150314e-04 1.71129417e-04
      1.09528235e-04 6.85689974e-06 4.72807051e-06 6.63292449e-05
      9.61775586e-05 1.56645561e-04 1.06150314e-04 1.06150314e-04
      5.83391738e-05 8.95376288e-05 1.71129417e-04 1.71129417e-04
      3.37792653e-06 -2.64703867e-05 2.49569766e-05 3.51307863e-05
      6.49791036e-05 7.48368038e-05 9.14494885e-05 1.71129417e-04
      5.83391738e-05 1.54516732e-04 1.71129417e-04 1.46471750e-04
      -2.64703867e-05 -2.64703867e-05 -4.00221252e-05 -1.09528235e-04
      7.48368038e-05 7.48368038e-05 7.48368038e-05 1.71129417e-04
      1.06150314e-04 1.54516732e-04 1.71129417e-04 9.29155576e-05
      -9.14494885e-05 -9.14494885e-05 -5.11890648e-05 9.85770657e-06
      9.85770657e-06 7.48368038e-05 7.48368038e-05 1.71129417e-04
      1.71129417e-04 1.71129417e-04 1.60955606e-04 -1.91185541e-06
      -3.31103111e-05 1.83170505e-05 -1.99906062e-05 9.85770657e-06
      9.85770657e-06 1.64976318e-05 7.48368038e-05 1.71129417e-04
      1.71129417e-04 1.71129417e-04 1.09528235e-04 -8.15917811e-05
      -1.12790236e-04 -1.99906062e-05 9.85770657e-06 -4.84814664e-05
      -5.86552778e-05 -8.85035915e-05 7.48368038e-05 1.71129417e-04
      1.71129417e-04 8.12756771e-05 1.52465931e-20 -8.15917811e-05
      -3.01644177e-05 5.96893187e-05 3.11984586e-05 3.11984586e-05
      -8.98537328e-05 -1.39930955e-04 -1.99906062e-05 1.71129417e-04
      1.71129417e-04 8.12756771e-05 1.52465931e-20 -8.15917811e-05
      -3.01644177e-05 1.35014386e-06 3.11984586e-05 -8.98537328e-05
      -9.48021770e-05 -1.12790236e-04 -3.01644177e-05 9.14494885e-05
      1.71129417e-04 -2.84908620e-05 -5.83391738e-05 -8.15917811e-05
      -3.01644177e-05 -3.01644177e-05 -3.15145626e-05 -3.15145626e-05
      -6.63113169e-05 -8.15917811e-05 -3.01644177e-05 5.14273634e-05
      3.31103111e-05 5.11890648e-05 -5.83391738e-05 -7.49518513e-05
      -7.66433368e-05 -6.13628727e-05 -3.15145626e-05 -3.15145626e-05
      -6.63113169e-05 -8.15917811e-05 -8.15917811e-05 -6.91181185e-06
      6.32382125e-06 3.15145626e-05 2.13407511e-05 4.72807051e-06
      4.72807051e-06 -6.02510299e-05 -1.37721099e-05 -6.02510299e-05
      -1.39930955e-04 -1.39930955e-04 -7.49518513e-05 -5.83391738e-05
      6.63292449e-05 -4.92985346e-05 3.15145626e-05 1.49018815e-05
      1.49018815e-05 1.49018815e-05 -5.00772185e-05 -5.00772185e-05
      -7.49518513e-05 -7.49518513e-05 -5.83391738e-05 3.16104263e-07
      -1.62965753e-05 2.12882924e-06 8.15917811e-05 8.08130935e-05
      6.63292449e-05 6.63292449e-05 6.63292449e-05 6.63292449e-05
      -7.49518513e-05 -7.49518513e-05 -5.83391738e-05 3.16104263e-07 0.
      0. 1.66126811e-05 -1.32356336e-05 8.08130935e-05 6.63292449e-05
      6.63292449e-05 6.63292449e-05 7.06392821e-05 -5.83391738e-05
      3.16104263e-07 -2.98483137e-05 0. 0. 1.66126811e-05 1.66126811e-05
      1.66126811e-05 1.66126811e-05 1.66126811e-05 1.66126811e-05
      -1.32356336e-05 -6.46629924e-05 -5.97145518e-05 0. 0. 0. 0.
      2.12882924e-06 1.66126811e-05 1.66126811e-05 1.66126811e-05
      1.66126811e-05 -1.32356336e-05 -3.26679256e-05 -7.63272328e-05 0.
      0.</_>
    <_>
      -1.05649211e-04 -1.40362419e-04 -1.20738398e-04 1.04441124e-05
      1.04441124e-05 1.04441124e-05 1.04441124e-05 1.04441124e-05
      1.04441124e-05 -7.98440451e-05 -1.70012412e-04 -4.08032065e-05
      -1.05649211e-04 -1.81470241e-04 1.04441124e-05 1.04441124e-05
      1.04441124e-05 1.04441124e-05 1.04441124e-05 1.04441124e-05
      1.04441124e-05 1.04441124e-05 -6.16336474e-05 -7.21607721e-05
      -1.20957251e-04 -2.44879593e-05 1.00837817e-04 1.00837817e-04
      2.15924738e-05 8.96186975e-06 8.96186975e-06 2.71722638e-05
      9.67510205e-05 -9.26373832e-06 2.56683343e-05 7.64371507e-05
      -3.99267592e-05 1.35525272e-20 1.35525272e-20 -1.57652787e-04
      -1.86933321e-05 5.60705530e-06 5.60705530e-06 5.60705530e-06
      1.56281196e-04 1.88222810e-04 1.88222810e-04 -5.25801697e-05
      -3.19416213e-05 1.35525272e-20 -1.93110172e-05 -1.64405355e-04
      -1.16093324e-04 -2.41419097e-04 -2.41419097e-04 2.78282441e-05
      4.38794123e-05 1.31980807e-04 1.88222810e-04 6.28970374e-05
      -1.54387999e-05 1.35525272e-20 -3.19416213e-05 -3.23992688e-04
      -1.22152036e-04 -4.57148817e-05 2.17695342e-05 3.78207042e-05
      1.63146484e-04 1.69899053e-04 2.42643873e-04 3.23992688e-04
      4.08032065e-05 1.65028214e-05 -1.57267394e-04 -2.47555552e-04
      -1.46717735e-04 -7.92333158e-05 -1.53217625e-05 -1.53217625e-05
      -4.90605598e-05 6.90612287e-05 2.01840667e-04 2.18343499e-04
      1.40362419e-04 1.22152036e-04 -3.51153649e-05 -1.09352353e-04
      -5.79191037e-05 -4.18679374e-05 -1.18305084e-04 -1.34807909e-04
      -1.34807909e-04 2.99045087e-06 2.01840667e-04 2.01840667e-04
      3.23992688e-04 3.23992688e-04 1.18864918e-04 1.12112350e-04
      1.12745292e-05 3.56751989e-05 3.56751989e-05 -5.00196111e-05
      1.74648048e-05 -1.57267394e-04 1.35525272e-20 6.60707810e-05
      3.23992688e-04 3.23992688e-04 1.66725309e-04 1.59972740e-04
      8.35355822e-05 8.35355822e-05 1.60511681e-05 0. 1.03663688e-05
      -1.57267394e-04 1.35525272e-20 1.82103940e-05 2.47555552e-04
      2.47555552e-04 1.66725309e-04 1.59972740e-04 1.59972740e-04
      9.24883207e-05 7.64371507e-05 7.64371507e-05 1.43921570e-04
      -5.64295806e-05 1.35525272e-20 -5.82267567e-05 2.12623476e-04
      1.06974272e-04 1.09964720e-04 5.43235255e-05 9.24883207e-05
      7.64371507e-05 7.64371507e-05 7.64371507e-05 1.27418738e-04
      -8.56919269e-06 -7.64371507e-05 -1.08378772e-04 2.12623476e-04
      6.13645261e-06 -2.58051678e-05 1.03212151e-04 -3.81647915e-05
      4.31840308e-05 2.66812094e-05 2.66812094e-05 -3.86164465e-05
      -6.05183850e-05 -7.64371507e-05 -1.05271256e-05 1.93831747e-05
      4.88660880e-05 -4.23079910e-05 -4.90605598e-05 -4.90605598e-05
      -1.74386339e-04 -1.74386339e-04 -4.90605598e-05 -6.72709502e-05
      -7.64371507e-05 1.14000351e-04 8.42179579e-05 1.93831747e-05
      1.47517145e-04 1.30341368e-06 -4.90605598e-05 -4.90605598e-05
      -4.90605598e-05 -4.90605598e-05 -8.04181254e-05 -9.86285158e-05
      5.63465655e-05 9.79491888e-05 -4.11078181e-05 0. 3.86941902e-05
      5.47453601e-05 5.27383054e-05 2.66747193e-05 3.71413698e-05
      3.71413698e-05 5.64523871e-05 1.57184390e-04 1.14000351e-04
      -5.93182122e-05 0. 0. -2.73765909e-05 -2.73765909e-05
      -2.73765909e-05 -2.73765909e-05 -2.73765909e-05 -2.73765909e-05
      -2.73765909e-05 -2.73765909e-05 -9.16619592e-06 6.75256979e-06 0.
      -4.78603870e-05 -6.60707810e-05 -4.66876081e-05 -2.73765909e-05
      -2.73765909e-05 -2.73765909e-05 2.04837961e-05 3.86941902e-05
      1.93831747e-05 6.75256979e-06 0. 0.</_>
    <_>
      0. 0. 2.35358239e-05 1.06735992e-04 1.06735992e-04 1.06735992e-04
      -3.56671735e-05 -1.95238590e-05 -1.22179117e-05 3.54936565e-05 0.
      0. 0. 0. 1.28292333e-04 1.28292333e-04 1.28292333e-04
      -1.41108285e-05 -1.41108285e-05 -4.71260610e-05 9.33843239e-06
      1.06735992e-04 3.54936565e-05 0. 2.35358239e-05 1.28292333e-04
      1.91561703e-04 1.91561703e-04 1.49110729e-05 1.36648896e-05
      -3.54936565e-05 -1.93503420e-05 1.26958810e-04 7.91337952e-05
      1.06735992e-04 1.97061108e-05 9.09484515e-05 1.91561703e-04
      1.91561703e-04 -9.87093426e-06 -9.87093426e-06 -5.90294803e-05
      -5.72275094e-05 8.24706949e-05 1.75774170e-04 1.91561703e-04
      1.91561703e-04 1.97061108e-05 1.75774170e-04 1.91561703e-04
      3.55201737e-05 -8.05858217e-05 -1.28292333e-04 -1.91561703e-04
      -5.00615351e-05 1.06511310e-04 1.75774170e-04 1.75774170e-04
      1.91561703e-04 1.06735992e-04 1.75774170e-04 1.14385432e-04
      -1.57875438e-05 -1.91561703e-04 -1.91561703e-04 -1.71855601e-04
      -7.75139415e-05 1.19701981e-05 9.85978841e-05 1.75774170e-04
      1.91561703e-04 1.91561703e-04 1.91561703e-04 2.16472909e-05
      -7.90569175e-05 -1.71855601e-04 -1.71855601e-04 -1.48319770e-04
      -1.00613259e-04 -9.51092879e-05 -3.54027106e-05 9.58929231e-05
      1.91561703e-04 1.91561703e-04 1.14385432e-04 0. -7.90569175e-05
      -1.24149083e-04 -1.48319770e-04 -1.00613259e-04 -1.20319375e-04
      -1.20319375e-04 -1.14815397e-04 5.85974612e-06 2.16472909e-05
      1.91561703e-04 7.08058360e-05 0. -7.90569175e-05 -1.00613259e-04
      -1.00613259e-04 -4.66488387e-07 -4.66488387e-07 -1.02980564e-04
      -1.20319375e-04 -7.90569175e-05 2.16472909e-05 2.34492600e-05 0.
      0. -7.90569175e-05 -2.34369800e-05 4.95950480e-05 7.12423353e-05
      4.77065114e-05 -2.16472909e-05 -4.64613913e-06 -7.90569175e-05 0.
      2.34492600e-05 -1.97061108e-05 -1.97061108e-05 -7.90569175e-05
      -1.52280436e-05 9.09484515e-05 6.74126277e-05 1.97061108e-05
      1.97061108e-05 2.15946457e-05 -2.98983723e-05 0. 1.94117865e-06
      -1.97061108e-05 -1.97061108e-05 4.71866006e-05 2.56465901e-05
      6.74126277e-05 1.97061108e-05 1.97061108e-05 1.97061108e-05
      2.70986220e-05 4.72779102e-05 -1.97061108e-05 -2.99896783e-05
      4.55957488e-05 -1.97061108e-05 -2.99896783e-05 6.92098547e-05
      -2.56227213e-05 -2.56227213e-05 2.35358239e-05 -2.56227213e-05
      5.94047879e-06 -2.99896783e-05 -1.97061108e-05 -1.93503420e-05
      -6.25826942e-05 3.49564107e-05 -2.99896783e-05 -5.15460233e-05
      6.37491530e-06 2.02818228e-05 2.02818228e-05 6.37491530e-06
      1.08849545e-05 -1.42021354e-05 -4.32419365e-05 -6.11885116e-05
      -5.16078399e-06 4.58870636e-06 3.37102283e-05 1.91688669e-05
      1.91688669e-05 -1.29433747e-05 -1.29433747e-05 -1.38463656e-05
      -2.99896783e-05 3.49564107e-05 -3.99879355e-05 -6.40696726e-06 0.
      3.09369207e-05 -1.09741541e-05 3.37102283e-05 1.91688669e-05
      1.91688669e-05 1.91688669e-05 3.37102283e-05 3.49564107e-05
      7.71857958e-06 -9.93936851e-07 -5.50397635e-06 0. 1.02835675e-05
      3.64408988e-05 2.02975843e-05 -5.68786963e-05 -5.86806673e-05
      -5.86806673e-05 -5.68786963e-05 1.47936071e-05 1.47936071e-05
      -5.50397635e-06 -5.50397635e-06 0. 0. -4.25779353e-06
      1.02835675e-05 9.38057656e-06 -6.76273658e-06 1.47936071e-05
      1.47936071e-05 -4.25779353e-06 -5.50397635e-06 -5.50397635e-06 0.</_>
    <_>
      -1.25143852e-04 -1.25143852e-04 -1.04030521e-04 2.25864333e-05
      1.96675155e-05 1.96675155e-05 1.96675155e-05 1.96675155e-05
      1.96675155e-05 -8.59121519e-06 -1.25143852e-04 -6.14582605e-05
      -1.57715287e-04 -1.57715287e-04 -9.98501127e-06 -9.98501127e-06
      -9.98501127e-06 -9.98501127e-06 -9.98501127e-06 -9.98501127e-06
      -1.90903829e-05 -1.90903829e-05 -4.73491164e-05 -1.00169251e-04
      -3.64886328e-05 9.01283202e-05 6.43771782e-05 6.43771782e-05
      -3.98045013e-05 -5.50943696e-05 -5.50943696e-05 -1.10366178e-04
      -2.59443277e-05 -1.90903829e-05 -1.90903829e-05 -4.37417875e-05
      1.06496082e-04 1.66820668e-04 1.66820668e-04 2.62357862e-05
      2.62357862e-05 2.62357862e-05 -4.49611616e-05 -8.37190601e-05
      -4.12341979e-05 0. 0. -2.42061342e-05 1.25586463e-04
      1.66820668e-04 1.40876335e-04 2.62357862e-05 1.90903829e-05
      -5.23528906e-05 -7.11969478e-05 2.25153126e-05 2.05553424e-05
      1.11186901e-05 5.23528906e-05 8.59407373e-05 1.25586463e-04
      1.66820668e-04 1.25586463e-04 0. 0. 7.04040167e-06 6.34384605e-06
      1.46495881e-06 1.11186901e-05 1.11186901e-05 1.05031126e-04
      1.21979137e-04 1.66820668e-04 1.66820668e-04 1.06496082e-04
      7.82373536e-05 7.04040167e-06 6.34384605e-06 1.05703311e-05
      -6.03245826e-05 -6.71186644e-05 8.07449396e-05 1.21979137e-04
      1.66820668e-04 1.66820668e-04 1.66820668e-04 1.06496082e-04
      3.30298644e-05 -1.06041689e-05 -6.37768335e-06 -1.38561940e-04
      -8.62090455e-05 -4.55550980e-05 8.07449396e-05 1.66820668e-04
      1.66820668e-04 1.66820668e-04 1.66820668e-04 1.06496082e-04
      3.52991337e-05 -6.37768335e-06 -1.38561940e-04 -8.62090455e-05
      -7.15302958e-05 -2.56881667e-05 1.06496082e-04 1.66820668e-04
      1.66820668e-04 1.66820668e-04 1.66820668e-04 8.76520207e-05
      1.05703311e-05 -1.29456559e-04 -8.62090455e-05 -8.84783149e-05
      -5.39469002e-05 7.82373536e-05 1.06496082e-04 1.66820668e-04
      1.66820668e-04 8.85833142e-05 8.85833142e-05 8.76520207e-05
      1.05703311e-05 -6.03245826e-05 -2.90850221e-05 4.42352075e-06
      2.42904534e-05 9.93506837e-05 1.06496082e-04 1.66820668e-04
      8.85833142e-05 8.85833142e-05 8.85833142e-05 6.69516976e-06
      1.05703311e-05 -8.14379091e-05 -3.62304236e-05 7.34243804e-06
      3.33958269e-05 9.93506837e-05 1.06496082e-04 8.85833142e-05
      4.73491164e-05 8.85833142e-05 8.85833142e-05 6.69516976e-06
      -5.32912009e-06 -9.33544434e-05 -5.27005031e-05 -4.06762119e-05
      -2.37281965e-05 2.82587316e-05 4.73491164e-05 8.85833142e-05
      4.73491164e-05 1.52898720e-05 6.97392534e-05 -2.41020257e-06
      -5.32912009e-06 -5.01706454e-05 -1.65827951e-05 -1.65827951e-05
      2.50758853e-06 4.73491164e-05 8.85833142e-05 6.74699841e-05
      1.90903829e-05 1.52898720e-05 3.23751483e-05 2.35341249e-05
      -5.32912009e-06 -5.01706454e-05 2.50758853e-06 2.50758853e-06
      2.50758853e-06 4.73491164e-05 8.85833142e-05 6.03245826e-05 0. 0.
      1.32847663e-05 -1.37971597e-06 2.06152072e-05 2.55861378e-05
      2.50758853e-06 2.50758853e-06 7.32934423e-05 8.85833142e-05
      6.74699841e-05 0. 0. 0. 2.23901388e-05 5.80253698e-07
      -2.33866376e-06 1.94712211e-05 4.12341979e-05 4.12341979e-05
      4.12341979e-05 4.12341979e-05 4.12341979e-05 0. 0. 0. 0.
      -3.55418911e-06 1.94712211e-05 4.12341979e-05 4.12341979e-05
      4.12341979e-05 4.12341979e-05 1.52898720e-05 0. 0. 0.</_>
    <_>
      0. -1.61016898e-04 -1.09801527e-04 3.28601491e-05 3.26082409e-05
      3.26082409e-05 -5.63901222e-06 4.36429655e-05 8.21421272e-05
      1.76887443e-05 0. 0. 0. -1.80774994e-04 6.09958515e-05
      6.09958515e-05 6.81241072e-05 6.81241072e-05 6.81241072e-05
      6.81241072e-05 6.09958515e-05 8.18902190e-05 1.76887443e-05 0.
      5.12153674e-05 6.09958515e-05 1.34673610e-04 1.41801866e-04
      1.69787803e-04 2.07434437e-04 1.58152456e-04 -4.13636008e-05
      9.92627683e-05 4.83659969e-05 8.18902190e-05 1.64047393e-04
      1.74758970e-04 1.34673610e-04 1.22043763e-04 -7.83533760e-05
      9.82136989e-05 9.82136989e-05 1.10843554e-04 -5.01733375e-05
      1.07385524e-04 1.22043763e-04 1.71325737e-04 1.64047393e-04
      3.15071607e-04 1.34673610e-04 -2.27809942e-05 -2.67032010e-04
      -2.22012735e-04 -2.83060654e-04 -2.83060654e-04 2.56379881e-05
      -7.26635990e-05 -3.44163454e-05 3.32342635e-04 3.03832814e-04
      2.62067915e-04 1.88945021e-04 -3.44163454e-05 -2.96484272e-04
      -3.30746901e-04 -1.34311529e-04 -6.33380550e-05 -1.23599952e-04
      -7.26635990e-05 -3.44163454e-05 2.45355244e-04 4.05898172e-04
      2.96484272e-04 2.79281303e-05 1.39496497e-05 -1.32436864e-04
      -9.39377060e-05 -1.03343791e-05 -1.55619705e-06 -4.00553581e-05
      -1.43054844e-04 -1.91180716e-05 2.45355244e-04 2.96484272e-04
      1.35467373e-04 1.15709270e-04 2.65795043e-05 -1.23658683e-04
      9.95534938e-05 1.08331682e-04 -5.57157218e-05 -5.57157218e-05
      -2.16732617e-04 3.01639066e-05 1.22837519e-04 2.96484272e-04
      1.35467373e-04 6.64272884e-05 -9.54642601e-05 -1.37120824e-05
      -1.37120824e-05 -1.77759488e-04 -5.57157218e-05 -1.26689192e-04
      -2.16732617e-04 -1.08094115e-04 1.35467373e-04 1.35467373e-04
      2.57511128e-04 1.73172783e-04 5.29227800e-05 -1.37120824e-05
      -1.77759488e-04 -1.42703095e-04 -2.13676569e-04 -2.57511128e-04
      -2.54480634e-04 -1.08094115e-04 6.19118291e-05 2.57511128e-04
      -6.36364057e-05 -1.64047393e-04 -1.08094115e-04 2.13443018e-05
      1.09125438e-04 5.07818186e-05 4.20036376e-05 -7.27834004e-06
      -1.83507160e-04 -1.08094115e-04 1.22043763e-04 2.54480634e-04
      4.80985072e-05 -1.64047393e-04 -7.64199867e-05 3.16531514e-05
      1.18086891e-05 3.03050751e-06 3.03050751e-06 3.03050751e-06
      2.47220050e-05 -1.08094115e-04 -3.03050751e-06 2.71333993e-05
      -3.03050751e-06 -3.03050751e-06 8.45969043e-05 -7.58746819e-06
      -9.00434170e-05 -9.00434170e-05 -9.00434170e-05 -9.00434170e-05
      6.44533793e-05 -3.74468545e-05 -3.03050751e-06 -3.74468545e-05
      -1.79240931e-04 -3.03050751e-06 8.45969043e-05 1.38131145e-04
      1.53429428e-04 7.97516550e-05 7.97516550e-05 1.53429428e-04
      1.66518759e-04 -3.03050751e-06 -7.40039832e-05 -1.30287837e-04
      -7.02864927e-05 -8.27821641e-05 -1.46658604e-05 -6.30642535e-05
      4.44749967e-05 4.44749967e-05 4.44749967e-05 4.44749967e-05
      1.36821618e-05 -3.03050751e-06 5.45598705e-05 -5.11290164e-05 0.
      -1.91178951e-05 -2.56379881e-05 -1.46658604e-05 -2.48169981e-05
      1.36821618e-05 1.36821618e-05 3.64631560e-05 -3.03050751e-06
      6.33380550e-05 -3.37761303e-05 -5.11290164e-05 0. 3.41644409e-05
      -1.91178951e-05 -1.91178951e-05 -1.91178951e-05 -3.44161708e-05
      -3.44161708e-05 -1.91178951e-05 -1.91178951e-05 6.40215148e-07
      -5.11290164e-05 0. 0. 0. 1.16353522e-05 3.41644409e-05
      2.15345844e-05 -2.77473937e-05 4.99221933e-05 4.99221933e-05
      -1.24640883e-06 -3.84991617e-05 0. 0.</_>
    <_>
      0. -9.93249778e-05 -1.43184836e-04 3.18469356e-05 1.20086934e-05
      1.20086934e-05 1.20086934e-05 3.18469356e-05 1.18640091e-04
      9.42739207e-05 -9.93249778e-05 0. 0. -2.17466732e-04
      1.20086934e-05 1.20086934e-05 1.20086934e-05 1.11333669e-04
      1.11333669e-04 1.11333669e-04 1.20086934e-05 1.20086934e-05
      7.08791413e-05 -9.93249778e-05 -7.55693472e-05 9.88018510e-05
      6.36868499e-05 6.76154959e-05 -4.85982782e-05 -6.53932657e-05
      -6.53932657e-05 -8.52315061e-05 1.47196697e-04 1.11333669e-04
      1.18640091e-04 3.78969125e-05 6.22630832e-05 6.36868499e-05
      -1.35525272e-20 -1.61342396e-04 -3.86226384e-05 -3.86226384e-05
      -3.86226384e-05 -3.86226384e-05 1.39444121e-04 -1.35525272e-20
      -1.35525272e-20 1.45021322e-05 -3.65387677e-05 -1.35525272e-20
      9.44589544e-08 -1.37947616e-04 5.16781547e-05 0. 0. 2.80271168e-04
      1.54332258e-04 3.10767318e-05 -1.35525272e-20 5.49532451e-05
      6.27862100e-05 -1.35525272e-20 -3.65387677e-05 -9.93249778e-05
      -9.93249778e-05 2.04837386e-04 2.28593024e-04 1.89447252e-04
      2.41125410e-04 3.10767318e-05 -1.35525272e-20 1.98382404e-05
      1.66940474e-04 9.93249778e-05 1.11080553e-05 3.78969125e-05
      1.05512408e-04 1.29268039e-04 1.89447252e-04 1.89447252e-04
      -6.75013653e-05 -3.65387677e-05 -1.35525272e-20 -1.35525272e-20
      1.86778721e-04 9.93249778e-05 -8.73018598e-06 7.44340505e-05
      6.16525431e-05 1.21831756e-04 -1.53901292e-05 -9.20480379e-05
      -2.05972683e-04 -5.63770081e-05 9.93249778e-05 1.55337111e-04
      2.46347394e-04 1.66940474e-04 5.88853109e-05 5.49566612e-05
      1.84982840e-04 -1.98545440e-05 -1.19179524e-04 -1.42935154e-04
      -3.12892545e-04 -1.08055159e-04 9.93249778e-05 2.22952614e-04
      3.96827381e-04 1.95821121e-04 5.88853109e-05 5.88853109e-05
      -8.22652219e-05 -1.81590207e-04 -2.72961333e-04 -3.96827381e-04
      -1.91990010e-04 -8.73018598e-06 1.75982888e-04 2.46347394e-04
      1.91990010e-04 1.28303160e-04 8.77659695e-05 6.79277218e-05
      -3.13972523e-05 -6.41952938e-05 -1.24374506e-04 -1.91990010e-04
      -6.89094013e-05 -8.73018598e-06 2.03114367e-04 1.28303160e-04
      1.91990010e-04 1.91990010e-04 1.35613009e-04 1.38292220e-04
      1.52116163e-05 -6.83623803e-05 -7.28267914e-05 -9.26650318e-05
      -6.89094013e-05 6.79277218e-05 4.15100003e-05 1.35613009e-04
      1.91990010e-04 1.91990010e-04 1.35613009e-04 1.35613009e-04
      2.37556324e-05 -2.30513760e-04 -2.53908540e-04 -2.73746788e-04
      -1.45952072e-04 -5.81000240e-05 1.05196850e-04 1.35613009e-04
      3.66332242e-05 1.91990010e-04 1.35613009e-04 1.35613009e-04
      3.18236125e-05 -1.30042477e-04 -1.93729327e-04 -9.42739207e-05
      -5.81000240e-05 4.15100003e-05 1.68234372e-04 5.16781547e-05
      3.66332242e-05 1.08055159e-04 1.55356785e-04 1.26570594e-04
      7.60443290e-05 -7.44356803e-05 -9.42739207e-05 -8.52315061e-05
      -5.81000240e-05 1.91990010e-04 1.08055159e-04 0. 0. 5.63770081e-05
      1.16556221e-04 1.28225307e-04 1.23574828e-05 -9.42739207e-05
      -8.52315061e-05 -3.83562437e-05 1.05196850e-04 1.68234372e-04 0.
      0. 0. 5.63770081e-05 5.63770081e-05 -3.07046212e-05
      -1.44629259e-04 -1.37336014e-04 -1.37336014e-04 -3.04161531e-05
      5.63770081e-05 5.63770081e-05 0. 0. 0. 0. 3.66332242e-05
      -3.07046212e-05 -1.17497781e-04 -1.37336014e-04 -3.04161531e-05
      -3.04161531e-05 3.66332242e-05 0. 0. 0.</_>
    <_>
      -6.49040521e-05 -6.49040521e-05 -5.28706114e-05 -7.21925608e-05
      -7.21925608e-05 -1.02078715e-07 3.63888612e-05 -3.57016215e-05
      -3.57016215e-05 -1.63796722e-05 6.09480157e-05 1.25852064e-04
      8.93611286e-05 1.20334389e-05 -8.59023567e-05 -1.38118767e-05
      1.36680712e-04 6.49040521e-05 6.49040521e-05 1.36680712e-04
      -3.13826092e-07 -3.57016215e-05 -1.63796722e-05 4.85243800e-05
      -7.73276843e-05 3.01505879e-05 4.77350586e-05 8.42259979e-05
      8.42259979e-05 8.42259979e-05 8.42259979e-05 8.42259979e-05
      -5.27685334e-05 -1.14315473e-04 -3.57016215e-05 -1.63796722e-05
      -8.38510532e-05 -5.13512714e-06 -5.13512714e-06 7.21925608e-05
      7.21925608e-05 1.50806416e-04 7.21925608e-05 1.61553689e-04
      2.45591546e-05 -1.66770173e-04 -1.86092118e-04 -1.63796722e-05
      3.12537341e-05 -4.73601140e-05 3.12537341e-05 2.22583069e-04
      1.86092118e-04 1.86092118e-04 1.21188074e-04 2.47040152e-04
      1.03173006e-04 -1.66770173e-04 -1.86092118e-04 -1.21188074e-04 0.
      7.20904791e-05 7.20904791e-05 7.20904791e-05 1.86092118e-04
      1.21188074e-04 1.21188074e-04 2.47040152e-04 -5.27685334e-05
      -1.86092118e-04 -1.21188074e-04 -4.25742255e-05 0. 0. 0. 0.
      1.21188074e-04 -3.47534624e-05 -3.47534624e-05 9.10986055e-05
      1.21355170e-05 -1.21188074e-04 -1.21188074e-04 -4.25742255e-05 0.
      -6.49040521e-05 -6.49040521e-05 -1.43517900e-04 -3.47534624e-05
      -3.47534624e-05 3.01505879e-05 8.42259979e-05 -7.18643059e-06
      -1.21188074e-04 -4.25742255e-05 1.06530119e-04 -6.49040521e-05
      -6.49040521e-05 -2.20845584e-04 -2.20845584e-04 -3.47534624e-05
      1.08764434e-04 1.76658341e-05 1.43517900e-04 7.14274211e-05
      -4.25742255e-05 1.06530119e-04 1.25852064e-04 -1.43517900e-04
      -1.43517900e-04 -2.20845584e-04 -2.20845584e-04 3.01505879e-05
      1.76658341e-05 9.49935202e-05 2.20845584e-04 1.48755105e-04
      1.06530119e-04 1.25852064e-04 1.25852064e-04 -2.20845584e-04
      -1.06843945e-04 -1.06843945e-04 -1.06843945e-04 -4.72382162e-05
      3.00894699e-05 3.00894699e-05 1.55941540e-04 1.74949659e-04
      2.39853704e-04 2.39853704e-04 2.39853704e-04 -1.06843945e-04
      -1.06843945e-04 -1.78620598e-04 -1.97942543e-04 -4.85243800e-05
      -4.85243800e-05 -4.85243800e-05 1.68426297e-04 9.63358107e-05
      9.63358107e-05 1.61239863e-04 2.03362768e-04 -1.55941540e-04
      -1.75263485e-04 -6.09480157e-05 -6.09480157e-05 -6.09480157e-05
      3.01505879e-05 3.01505879e-05 1.56002658e-04 1.56002658e-04
      1.56002658e-04 -3.00894699e-05 1.20334389e-05 -1.49104337e-04
      -9.63358107e-05 -9.63358107e-05 -9.63358107e-05 -5.23720610e-06
      -5.23720610e-06 -5.23720610e-06 1.20614859e-04 1.20614859e-04
      1.20614859e-04 1.20614859e-04 1.20334389e-05 -9.63358107e-05
      -9.63358107e-05 -9.63358107e-05 -7.70138649e-05 -5.23720610e-06
      -5.23720610e-06 -5.23720610e-06 1.20614859e-04 1.20614859e-04
      1.20614859e-04 1.20614859e-04 8.41239234e-05 -1.90081209e-05
      -1.90081209e-05 -9.63358107e-05 -7.70138649e-05 -5.23720610e-06
      -5.23720610e-06 -5.23720610e-06 1.20614859e-04 1.20614859e-04
      1.20614859e-04 1.20614859e-04 8.93611286e-05 -9.10986055e-05
      -9.10986055e-05 -9.10986055e-05 -9.10986055e-05 -7.17766525e-05
      -7.17766525e-05 -7.17766525e-05 -3.52857169e-05 -3.52857169e-05
      -3.52857169e-05 1.25852064e-04 8.93611286e-05 0. -9.10986055e-05
      -9.10986055e-05 -9.10986055e-05 -9.10986055e-05 -9.10986055e-05
      -9.10986055e-05 -5.46076626e-05 -5.46076626e-05 -5.46076626e-05
      1.71689917e-05 0.</_>
    <_>
      -1.67440739e-04 -3.10196832e-04 -7.95370288e-05 -7.95370288e-05
      -7.95370288e-05 1.21649236e-05 1.21649236e-05 -7.95370288e-05
      -7.95370288e-05 -7.48130219e-07 -1.12453490e-04 5.49872493e-05
      5.21942166e-05 -6.60503501e-05 -6.60503501e-05 2.56516050e-05
      6.39671780e-05 6.39671780e-05 6.39671780e-05 6.39671780e-05
      -9.17019497e-05 -1.30017521e-04 -2.08653699e-04 -2.64419505e-05
      -1.78465576e-04 -9.41677499e-05 2.47866792e-05 2.47866792e-05
      1.82211748e-04 1.82211748e-04 6.39671780e-05 -4.06575815e-20
      -9.17019497e-05 -1.30017521e-04 -1.44686506e-04 -2.64419505e-05
      9.17019497e-05 1.30017521e-04 1.30017521e-04 1.30017521e-04
      1.30017521e-04 3.51016461e-05 -6.84739352e-05 -4.06575815e-20
      -9.17019497e-05 -5.36160551e-05 2.40385489e-05 1.18954435e-04
      9.17019497e-05 9.17019497e-05 9.17019497e-05 1.30017521e-04
      6.60503501e-05 -1.47110099e-04 -1.18954435e-04 -4.06575815e-20
      9.05097913e-05 1.02674712e-04 1.18954435e-04 1.18954435e-04 0.
      9.17019497e-05 9.17019497e-05 9.17019497e-05 -1.01390397e-04
      -2.76379491e-04 -1.18954435e-04 -4.06575815e-20 2.27457276e-05
      2.27183307e-04 1.18954435e-04 1.18954435e-04 0. 0. 0. 0.
      -2.76379491e-04 -2.76379491e-04 -1.18954435e-04 -4.06575815e-20
      3.75674463e-05 -7.48130219e-07 1.18954435e-04 1.18954435e-04 0. 0.
      0. -9.62002014e-05 -9.41677499e-05 -2.12412313e-04 -5.49872493e-05
      6.39671780e-05 -4.12214540e-05 -7.48130219e-07 -1.08977016e-04
      1.18954435e-04 0. 0. 0. 0. -9.41677499e-05 -9.41677499e-05
      6.32573137e-05 1.82211748e-04 7.80754999e-05 -1.30017521e-04
      -7.48130219e-07 4.49715699e-05 0. 0. 0. 0. 1.30017521e-04
      3.51016461e-05 1.13737813e-04 2.32692240e-04 9.05097913e-05
      3.97599215e-05 -1.30017521e-04 -5.50892764e-06 0. 3.83155748e-05
      3.83155748e-05 3.83155748e-05 1.30017521e-04 1.30017521e-04
      2.87442585e-04 4.06397012e-04 1.40990291e-04 1.40990291e-04
      -9.17019497e-05 -1.29130540e-05 3.83155748e-05 3.83155748e-05
      3.83155748e-05 3.83155748e-05 1.30017521e-04 1.30017521e-04
      2.87442585e-04 4.06397012e-04 2.65498878e-04 2.27457276e-05
      -9.17019497e-05 -9.17019497e-05 0. -1.18244563e-04 2.42072565e-05
      1.30017521e-04 1.30017521e-04 1.30017521e-04 1.81632320e-04
      2.88152456e-04 2.38956272e-04 5.04804993e-05 -2.87442585e-04
      -1.05230851e-04 -1.24342932e-05 -1.05331506e-04 -2.65426115e-05
      -2.65426115e-05 -2.65426115e-05 -2.65426115e-05 1.30882458e-04
      1.07080807e-04 5.78846266e-05 1.21649236e-05 -8.99303705e-05
      -2.64419505e-05 1.29130540e-05 -4.87174184e-05 -1.54527690e-04
      -1.05331506e-04 -1.05331506e-04 -1.69298684e-04 -1.18736252e-05
      1.17975193e-04 6.74946932e-05 7.99289846e-05 6.52599992e-05
      1.15740499e-04 4.25057697e-05 -1.32483328e-04 -1.45970014e-04
      -1.45970014e-04 -1.45970014e-04 -1.32483328e-04 2.49417371e-05
      1.43896163e-04 1.43896163e-04 2.22685063e-04 1.15740499e-04
      1.18954435e-04 -9.96766757e-05 -1.45396378e-04 -2.24185278e-04
      -2.24185278e-04 -2.24185278e-04 -2.24185278e-04 -2.24185278e-04
      -1.45396378e-04 -9.49158784e-05 -9.49158784e-05 1.18954435e-04
      1.18954435e-04 0. 0. -5.04804993e-05 -9.62002014e-05
      -9.49158784e-05 -9.49158784e-05 -9.49158784e-05 0. 0. 0. 0. 0.</_>
    <_>
      0. 0. 7.93349245e-05 7.93349245e-05 4.55459085e-05 5.53553264e-06
      5.49716242e-05 9.49819951e-05 9.49819951e-05 9.49819951e-05
      3.87173022e-05 3.87173022e-05 7.93349245e-05 7.93349245e-05
      7.93349245e-05 1.04601386e-04 1.88504011e-04 1.46729479e-04
      1.80518502e-04 2.19868802e-04 2.20528877e-04 1.12923015e-04
      3.87173022e-05 3.87173022e-05 0. 1.66661324e-04 1.89731552e-04
      1.32239307e-04 1.46729479e-04 1.46729479e-04 2.19868802e-04
      2.61643319e-04 2.20528877e-04 1.12923015e-04 3.87173022e-05
      3.87173022e-05 5.90554737e-05 1.82308402e-04 1.82308402e-04
      1.09169086e-04 6.73945615e-05 9.34221825e-05 1.89037193e-04
      2.53881939e-04 1.28278887e-04 2.06730310e-05 3.87173022e-05
      3.87173022e-05 7.47025479e-05 7.47025479e-05 3.53522446e-05
      6.73945615e-05 4.39860960e-05 7.77751120e-05 8.11401260e-05
      1.14913848e-04 8.15607782e-05 -2.60450761e-05 3.87173022e-05
      3.87173022e-05 1.79410199e-05 5.90554737e-05 -1.40838465e-05
      -5.58583706e-05 2.60450761e-05 2.48754332e-05 7.61965421e-05
      1.22675236e-04 8.15607782e-05 -2.60450761e-05 3.87173022e-05
      3.87173022e-05 0. -3.93503069e-05 -1.14913848e-04 -1.22675236e-04
      5.98340921e-05 -3.97836957e-05 5.82555222e-05 1.22675236e-04
      8.15607782e-05 -2.60450761e-05 3.87173022e-05 3.87173022e-05 0.
      -7.31393229e-05 -2.14925225e-04 -2.61643319e-04 -3.97836957e-05
      1.99082820e-06 6.60169171e-05 8.33249287e-05 4.35949516e-07
      -2.60450761e-05 3.87173022e-05 3.87173022e-05 -1.31600289e-04
      -2.14925225e-04 -2.61643319e-04 -2.27854311e-04 5.24662901e-05
      1.02002203e-04 1.58266892e-04 8.33249287e-05 -3.33530661e-05
      -6.78196011e-05 1.12923015e-04 1.12923015e-04 -1.31600289e-04
      -2.61643319e-04 -2.61643319e-04 -2.27854311e-04 5.24662901e-05
      1.48720312e-04 7.33847119e-05 4.17745214e-05 -4.11144574e-05
      -1.14931296e-04 2.06730310e-05 1.12923015e-04 -2.19868802e-04
      -1.54037465e-04 -1.54037465e-04 -1.20248456e-04 -3.24158937e-05
      1.71200209e-05 2.66666066e-05 -2.20228566e-20 -4.11144574e-05
      -7.32544140e-06 3.93926675e-05 1.20517499e-04 -2.00129653e-05
      -1.54037465e-04 -1.54037465e-04 -1.20248456e-04 -7.91339990e-05
      -3.73594776e-05 1.89052153e-05 -2.20228566e-20 -4.11144574e-05
      -4.11144574e-05 -7.32544140e-06 1.88020058e-05 -1.22281650e-04
      -1.69393345e-04 -2.06730310e-05 -2.06730310e-05 -2.06730310e-05
      -2.06730310e-05 3.55916636e-05 -2.20228566e-20 -2.20228566e-20
      -2.20228566e-20 -2.04985001e-04 -5.52427773e-05 -3.37890160e-05
      -3.44490800e-05 -3.44490800e-05 -3.44490800e-05 -3.44490800e-05
      -3.44490800e-05 -3.26638838e-05 -1.07605854e-04 -1.07605854e-04
      -1.07605854e-04 -3.22702581e-05 -4.23136808e-05 4.11144574e-05
      4.11144574e-05 -6.60066746e-07 -6.60066746e-07 -6.60066746e-07
      -6.60066746e-07 5.56046289e-05 -9.98444666e-05 -1.07605854e-04
      -1.07605854e-04 1.44478490e-05 8.21257054e-05 4.11144574e-05
      4.11144574e-05 -6.60066746e-07 -6.60066746e-07 -6.60066746e-07
      -6.60066746e-07 5.56046289e-05 2.61945333e-05 -9.98444666e-05
      3.17558261e-05 5.59982545e-05 4.10112443e-05 0. 0. 0. 0. 0. 0. 0.
      -2.61274472e-05 -8.86935522e-05 -5.49045362e-05 3.87173022e-05
      2.30702262e-05 0. 0. 0. 0. 0. 0. 0. -2.61274472e-05
      -5.99164632e-05 -2.61274472e-05 1.56470760e-05 0.</_>
    <_>
      -7.43979472e-05 -1.77787122e-04 -1.08698267e-04 -1.08698267e-04
      -1.08698267e-04 -1.41628479e-05 -2.15270143e-06 -6.96954812e-05
      -6.96954812e-05 -6.96954812e-05 -7.67668607e-05 -6.46130356e-05
      3.38373757e-05 -1.08698267e-04 -1.08698267e-04 4.21641089e-05
      8.29911514e-05 8.29911514e-05 8.29911514e-05 8.29911514e-05
      -1.15442635e-05 -1.33685253e-05 -7.67668607e-05 -4.77179929e-05
      -1.32389978e-04 -8.30925273e-05 -2.28361046e-06 9.72653561e-06
      1.20187091e-04 1.20187091e-04 1.20187091e-04 1.67534759e-04
      8.85375721e-06 7.02949592e-06 -8.48709387e-05 9.28190639e-05
      -1.88263982e-06 -1.08235326e-04 -1.08235326e-04 -6.08876580e-05
      3.43003157e-05 1.08698267e-04 1.63117307e-04 2.16933593e-04
      1.22398167e-04 1.20573910e-04 9.82790698e-06 9.82790698e-06
      -1.10059584e-04 -1.10059584e-04 -1.10059584e-04 -6.08876580e-05
      2.22901708e-05 2.22901708e-05 7.67092206e-05 1.42535646e-04
      4.80002236e-05 4.61759628e-05 9.82790698e-06 9.82790698e-06
      -1.60563635e-04 -1.22069730e-04 -1.22069730e-04 -1.22069730e-04
      -3.40797778e-05 2.22471772e-05 7.66662270e-05 1.69485284e-04
      7.49498722e-05 7.31256077e-05 9.28190639e-05 9.28190639e-05
      -1.69485284e-04 -2.43883231e-04 -2.99924752e-04 -2.99924752e-04
      -1.39419484e-04 -1.39419484e-04 -4.58539653e-05 1.03292048e-04
      -8.04128467e-06 8.98002418e-06 -3.76203934e-05 1.84211131e-05
      -1.22137615e-04 -1.69485284e-04 -1.69485284e-04 -1.69485284e-04
      -7.31256077e-05 -7.31256077e-05 -1.87065598e-05 7.43979472e-05
      -2.01374696e-05 -7.75141089e-05 -3.76203934e-05 -3.76203934e-05 0.
      0. -3.91464673e-05 -3.91464673e-05 -6.93237098e-06 5.72132121e-05
      1.11632260e-04 2.13430612e-04 1.18895194e-04 -9.63596758e-05
      -9.63596758e-05 -9.86554551e-06 0. 0. 0. 0. 9.63596758e-05
      9.63596758e-05 1.50778724e-04 2.99924752e-04 1.18895194e-04
      -9.63596758e-05 -9.63596758e-05 -4.90120110e-05 0. 1.82426118e-06
      1.82426118e-06 1.82426118e-06 9.63596758e-05 9.63596758e-05
      1.50778724e-04 2.99924752e-04 2.05389326e-04 -3.03898341e-05
      -9.45354186e-05 -4.71877502e-05 -1.70213098e-05 -9.14192569e-05
      -7.25736900e-05 -7.25736900e-05 9.63596758e-05 9.63596758e-05
      1.50778724e-04 2.99924752e-04 1.49347819e-04 8.75663227e-06
      -9.45354186e-05 -1.06545565e-04 -1.88455706e-05 -1.57389106e-04
      -6.10294228e-05 2.19617305e-05 2.19617305e-05 2.19617305e-05
      2.03392701e-05 1.69485284e-04 1.69485284e-04 3.91464673e-05
      -1.50778724e-04 -1.06747364e-04 0. -2.56516742e-05 -1.18895194e-04
      -1.18895194e-04 -1.18895194e-04 -1.18895194e-04 -6.44761458e-05
      8.46698749e-05 3.73222065e-05 -1.82426118e-06 1.57187300e-04
      9.79894030e-05 9.45354186e-05 3.84939085e-05 -4.44972429e-05
      -1.18895194e-04 -1.18895194e-04 -1.18895194e-04 -6.44761458e-05
      1.01564910e-04 5.42172456e-05 7.30628162e-05 1.57187300e-04
      1.92524822e-04 9.45354186e-05 9.45354186e-05 9.45354186e-05
      3.03898341e-05 3.03898341e-05 -6.63566607e-05 -1.19376164e-05
      1.37208393e-04 1.37208393e-04 2.11606355e-04 1.57187300e-04
      1.37135867e-04 0. -8.64941321e-05 -8.64941321e-05 -8.64941321e-05
      -8.64941321e-05 -8.64941321e-05 -8.64941321e-05 -4.74913468e-05
      8.83560733e-06 5.61832749e-05 9.28190639e-05 8.08089171e-05
      -3.91464673e-05 -8.64941321e-05 -8.64941321e-05 -8.64941321e-05
      -8.64941321e-05 -8.64941321e-05 -4.73476684e-05 3.90027853e-05
      3.90027853e-05 3.90027853e-05 3.90027853e-05 0.</_>
    <_>
      0. 0. 1.87201167e-05 1.87201167e-05 1.87201167e-05 6.90647503e-05
      -1.66977607e-05 -3.25698747e-05 1.33996846e-05 5.16687578e-05
      1.99987717e-05 1.99987717e-05 1.87201167e-05 1.87201167e-05
      1.87201167e-05 9.01029416e-05 1.56680340e-04 6.33024101e-05
      6.33024101e-05 3.44725195e-05 9.33998526e-05 7.27069491e-05
      4.53319917e-05 4.53319917e-05 0. 1.30344808e-04 1.42728153e-04
      1.75676789e-04 6.33024101e-05 6.33024101e-05 0. 3.44725195e-05
      6.83665203e-05 9.40454174e-06 4.53319917e-05 4.53319917e-05
      7.13828267e-05 1.37960233e-04 1.63293444e-04 4.45822916e-05
      4.45822916e-05 -1.87201167e-05 -1.23833479e-05 1.18711156e-04
      1.31668930e-04 7.27069491e-05 4.53319917e-05 4.53319917e-05
      1.04331470e-04 1.04331470e-04 -1.43796851e-05 -1.87201167e-05
      -2.63355396e-05 -2.63355396e-05 9.87123858e-05 1.82013566e-04
      1.31668930e-04 7.27069491e-05 4.53319917e-05 4.53319917e-05
      4.63714096e-05 5.84469744e-05 -8.52975136e-05 -8.52975136e-05
      -4.73737309e-05 -2.63355396e-05 1.23745718e-04 1.43744488e-04
      9.33998526e-05 7.27069491e-05 4.53319917e-05 4.53319917e-05 0.
      -1.01571481e-04 -1.82013566e-04 -1.82013566e-04 -7.27069491e-05
      -4.73737309e-05 -4.10369612e-05 4.59695621e-05 3.00974461e-05
      3.44378750e-05 4.53319917e-05 4.53319917e-05 -3.82690741e-05
      -1.82013566e-04 -1.82013566e-04 -1.82013566e-04 -7.27069491e-05
      -7.27069491e-05 -4.10369612e-05 0. -4.37507470e-06 -2.88645315e-05
      -5.62394926e-05 4.53319917e-05 -3.82690741e-05 -1.82013566e-04
      -1.82013566e-04 -1.82013566e-04 -7.27069491e-05 -3.44378750e-05
      -2.76788887e-06 0. -5.03446354e-05 -1.09306609e-04 -2.88645315e-05
      -2.88645315e-05 -1.82013566e-04 -1.82013566e-04 -1.82013566e-04
      -1.43744488e-04 2.88645315e-05 1.09306609e-04 1.40976597e-04
      1.01571481e-04 5.12268452e-05 -1.09306609e-04 -1.09306609e-04
      -2.88645315e-05 -1.82013566e-04 -1.23051592e-04 -1.23051592e-04
      -3.88129520e-05 1.09306609e-04 1.09306609e-04 1.40976597e-04
      1.82013566e-04 5.12268452e-05 1.29577729e-05 -5.03446354e-05
      3.00974461e-05 -1.23051592e-04 -1.23051592e-04 -3.88129520e-05
      -3.88129520e-05 1.09306609e-04 1.09306609e-04 1.40976597e-04
      1.82013566e-04 9.71964109e-05 5.12268452e-05 -5.03446354e-05
      -1.19904971e-05 -8.42386362e-05 -1.82013566e-04 -2.67373889e-05
      1.15316843e-05 4.60042029e-05 4.60042029e-05 1.40976597e-04
      1.18711156e-04 8.42386362e-05 4.59695621e-05 -1.15643379e-04
      -8.87862843e-05 -8.42386362e-05 -2.23969582e-05 -8.56993647e-05
      -8.56993647e-05 -5.12268452e-05 -1.29577729e-05 1.87122150e-05
      2.14801039e-05 -1.29924165e-05 -1.29924165e-05 -6.52987437e-05
      -2.54838742e-05 4.37507470e-06 -2.23969582e-05 -2.23969582e-05
      -2.23969582e-05 -2.23969582e-05 -5.12268452e-05 -1.95568591e-05
      2.14801039e-05 -1.29924165e-05 5.03099909e-05 -1.99633701e-06
      6.31298317e-05 5.03446354e-05 4.37507470e-06 -2.23969582e-05
      -2.23969582e-05 -2.23969582e-05 -2.23969582e-05 9.27302972e-06
      5.03099909e-05 5.03099909e-05 4.34043113e-06 3.62727369e-05
      1.27851990e-05 0. -4.59695621e-05 0. -3.44725195e-05
      -7.27415973e-05 -7.27415973e-05 -4.74083754e-05 -3.97929507e-05
      -2.64552473e-05 -2.64552473e-05 -6.37570338e-07 -8.25299321e-06 0.
      0. -4.59695621e-05 -4.59695621e-05 -4.59695621e-05 -8.04420779e-05
      -5.51088597e-05 -4.74934386e-05 -1.30209182e-05 -1.30209182e-05
      -1.30209182e-05 2.53332200e-05</_>
    <_>
      -1.84572054e-04 -1.84572054e-04 -5.21224647e-05 -5.21224647e-05
      -5.21224647e-05 5.41256350e-06 5.41256350e-06 -5.21224647e-05
      -5.21224647e-05 -5.21224647e-05 -9.70030596e-05 4.21955428e-06
      -1.23837919e-04 -1.23837919e-04 -1.23837919e-04 -6.63028986e-05
      1.59446772e-05 1.59446772e-05 1.59446772e-05 1.59446772e-05
      -5.75350277e-05 -1.39782598e-04 -1.84663193e-04 -2.50136400e-05
      -8.76601407e-05 5.21224647e-05 3.84688392e-05 3.84688392e-05
      8.33494341e-05 8.33494341e-05 8.33494341e-05 1.59446772e-05
      -5.75350277e-05 -1.39782598e-04 -1.84663193e-04 -8.34405873e-05
      5.75350277e-05 1.39782598e-04 1.39782598e-04 1.39782598e-04
      1.39782598e-04 1.39782598e-04 1.17258445e-04 1.17167292e-04
      -5.75350277e-05 -1.39782598e-04 -1.84663193e-04 -1.01313766e-04
      5.75350277e-05 5.75350277e-05 5.75350277e-05 1.39782598e-04
      1.39782598e-04 7.23778430e-05 1.17258445e-04 1.46400489e-04
      7.29207823e-05 -7.23778430e-05 -1.17258445e-04 -4.28868188e-05 0.
      5.75350277e-05 5.75350277e-05 5.75350277e-05 1.39782598e-04
      7.23778430e-05 5.88314979e-05 1.30455810e-04 9.86973009e-06
      -7.23778430e-05 -4.28868188e-05 -1.36536264e-05 0. 0. 0. 0.
      7.23778430e-05 1.39509002e-05 5.88314979e-05 8.80914265e-20
      9.86973009e-06 3.12269694e-05 -1.36536264e-05 8.75689875e-05 0. 0.
      0. -6.74047551e-05 -1.52822922e-05 -1.52822922e-05 -8.75689875e-05
      6.74047551e-05 6.82966784e-05 3.12269694e-05 8.75689875e-05
      8.75689875e-05 0. 0. 0. -6.74047551e-05 -1.52822922e-05
      -1.32449582e-04 -2.01642324e-05 9.66379521e-05 9.75298681e-05
      1.32449582e-04 1.32449582e-04 1.32449582e-04 0. 0. 0.
      -1.25831706e-04 -1.16504911e-04 -6.50448274e-05 -2.01642324e-05
      1.55064903e-04 2.14697167e-04 1.32449582e-04 1.32449582e-04
      1.32449582e-04 0. 8.22475777e-05 8.22475777e-05 -4.35841284e-05
      -1.32449582e-04 -6.50448274e-05 3.82627150e-05 1.55064903e-04
      2.14697167e-04 2.14697167e-04 2.14697167e-04 2.14697167e-04
      8.22475777e-05 8.22475777e-05 2.38206303e-05 -4.35841284e-05
      -1.32449582e-04 -6.50448274e-05 3.82627150e-05 1.71009568e-04
      2.14697167e-04 2.14697167e-04 2.14697167e-04 2.14697167e-04 0. 0.
      8.13556544e-05 6.54109826e-05 -6.50448274e-05 -6.61788363e-06
      5.42073903e-05 1.71009568e-04 2.72232195e-04 2.72232195e-04
      8.75689875e-05 8.75689875e-05 0. 5.75350277e-05 -1.68365950e-05
      -1.68365950e-05 -1.18059208e-04 -4.36875889e-05 1.19300921e-06
      8.87619972e-05 1.89984610e-04 1.89984610e-04 1.45104015e-04
      8.75689875e-05 5.75350277e-05 4.15903487e-05 -1.68365950e-05
      -1.68365950e-05 -1.18059208e-04 -4.36875889e-05 1.19300921e-06
      8.87619972e-05 1.89984610e-04 1.89984610e-04 1.45104015e-04
      1.45104015e-04 5.75350277e-05 4.15903487e-05 -1.68365950e-05
      -1.68365950e-05 5.75350277e-05 -4.36875889e-05 1.19300921e-06
      1.89984610e-04 1.89984610e-04 1.89984610e-04 1.45104015e-04
      8.75689875e-05 0. 0. -5.84269437e-05 -5.84269437e-05 0. 0. 0. 0.
      0. 0. 8.75689875e-05 8.75689875e-05 0. 0. 0. 0. 0. 0. 0. 0. 0. 0.
      0. 0.</_>
    <_>
      0. -1.20976452e-04 -3.95861425e-05 -7.61249903e-05 -7.61249903e-05
      -3.84429404e-05 -9.21432002e-06 -2.19919457e-05 -2.19919457e-05
      -4.76793184e-06 8.37262924e-05 7.81367053e-05 8.13903098e-05
      -3.95861425e-05 -7.61249903e-05 -2.76033370e-06 3.30005969e-05
      5.52046404e-05 5.52046404e-05 5.52046404e-05 1.00590092e-04
      1.36906619e-05 -1.50461119e-05 1.00340752e-04 0. 2.20636284e-05
      9.87653475e-05 4.49264626e-05 1.93405111e-04 2.12719940e-04
      1.93405111e-04 7.24286583e-05 1.75225887e-05 -8.86916823e-05
      -3.22701271e-05 1.05930339e-04 5.96394093e-05 3.46777961e-05
      -2.61856676e-05 -6.87083048e-06 1.31329638e-04 1.31329638e-04
      2.24675328e-04 1.74810993e-04 1.75225887e-05 -8.86916823e-05
      -1.15337629e-04 1.05930339e-04 8.88680297e-05 -4.93324333e-05
      -1.87604586e-04 -6.20754727e-05 -5.18760353e-05 3.11914700e-05
      4.14696515e-05 1.19606360e-04 -3.76820535e-05 -1.43896323e-04
      5.63881940e-06 2.28628342e-05 8.27159784e-06 2.66388124e-05
      -1.94629160e-04 -1.39424519e-04 -1.10372246e-04 8.37786683e-06
      1.86560483e-05 8.30675053e-05 -3.76820535e-05 -1.43896323e-04
      -3.23418099e-05 2.28628342e-05 -5.52046404e-05 -1.95495930e-04
      -2.40582813e-04 -2.40582813e-04 -9.66864827e-05 8.58506337e-06
      1.88632439e-05 1.38272153e-04 1.75225887e-05 -1.26672312e-04
      -3.23418099e-05 5.07256991e-05 -1.76181100e-04 -1.76181100e-04
      -1.57515300e-04 -2.40582813e-04 2.42899659e-05 2.42899659e-05
      5.67721909e-05 1.76181100e-04 1.75225887e-05 -1.07357475e-04
      -1.53318266e-04 5.07256991e-05 -1.76181100e-04 -1.95495930e-04
      -2.12719940e-04 -1.74810993e-04 -3.09146744e-05 -3.09146744e-05
      5.67721909e-05 1.76181100e-04 1.75225887e-05 -1.43896323e-04
      -2.42899659e-05 -2.42899659e-05 -1.20976452e-04 -1.57515300e-04
      -1.74810993e-04 -1.74810993e-04 -3.09146744e-05 -1.36906619e-05
      1.87915630e-05 1.20976452e-04 -3.76820535e-05 -1.43896323e-04
      -4.15139802e-05 3.09146744e-05 -1.93405111e-04 -1.89573184e-04
      -1.89573184e-04 -5.13727136e-05 5.62417563e-06 8.86916823e-05
      1.21173907e-04 2.21267968e-04 -3.76820535e-05 -3.76820535e-05
      1.75225887e-05 2.58105400e-04 1.44707774e-05 -1.89573184e-04
      -1.34368544e-04 -9.78296885e-05 2.29198722e-05 2.29198722e-05
      5.54020953e-05 1.74810993e-04 1.17814110e-04 -3.76820535e-05
      8.32943988e-05 1.12808673e-04 -1.74810993e-04 -1.74810993e-04
      2.42899659e-05 2.29198722e-05 2.29198722e-05 2.29198722e-05
      5.54020953e-05 1.74810993e-04 2.78563442e-04 1.20976452e-04
      -3.31980518e-05 -4.02226287e-05 -1.74810993e-04 -1.37128940e-04
      -8.19243069e-05 2.04580392e-05 3.76820535e-05 3.76820535e-05
      7.01642784e-05 1.89573184e-04 1.72349173e-04 1.47621804e-05
      4.48400033e-06 -2.29986163e-05 -6.47002889e-05 -1.37128940e-04
      -1.37128940e-04 -5.40614419e-05 -3.47466048e-05 -3.47466048e-05
      -2.26437942e-06 1.17144526e-04 9.78296885e-05 1.47621804e-05
      7.69126564e-05 8.92029129e-05 3.76820535e-05 -6.47002889e-05
      -8.19243069e-05 -1.37128940e-04 -5.40614419e-05 -5.40614419e-05
      -2.15792170e-05 9.78296885e-05 1.47621804e-05 8.71908342e-05
      7.69126564e-05 5.15208631e-05 0. 0. -1.02382342e-04
      -1.02382342e-04 -1.02382342e-04 -1.19606360e-04 -9.74023133e-05
      -6.75641350e-05 -3.18815255e-05 -3.18815255e-05 2.28628342e-05
      9.89057589e-05 0. 0. 0. 0. -8.30675053e-05 -1.02382342e-04
      -6.08634618e-05 -4.82492942e-05 -4.82492942e-05 3.48182111e-05
      3.48182111e-05 2.22040435e-05</_>
    <_>
      0. -9.87228123e-05 -4.85540877e-05 -8.81350061e-05 -1.26957515e-04
      -6.66363412e-05 -4.54560495e-06 -2.60442721e-05 1.35366436e-05
      1.35366436e-05 3.21238876e-05 1.30846704e-04 1.14975133e-04
      -4.85540877e-05 -1.26957515e-04 -6.66363412e-05 5.18677516e-05
      1.50590568e-04 1.50590568e-04 1.50590568e-04 -8.45343038e-06
      -6.48667847e-05 2.38224698e-06 3.21238876e-05 -1.33787573e-04
      -8.56171973e-05 -5.64421389e-05 -1.64775174e-05 1.63529214e-04
      2.02351730e-04 2.02351730e-04 1.63529214e-04 1.03208033e-04
      6.89207882e-05 2.38224698e-06 2.38224698e-06 -1.03208033e-04
      -6.31073781e-05 -1.14975133e-04 -1.13462092e-05 8.73766039e-05
      8.73766039e-05 1.33595764e-04 2.02351730e-04 1.42030549e-04
      -8.16697793e-05 -1.62953700e-04 2.38224698e-06 -1.32565969e-04
      -1.71388485e-04 -9.75012081e-05 -1.13462092e-05 1.16734540e-04
      1.16734540e-04 1.62953700e-04 2.93800404e-04 9.51754919e-05
      -1.31056204e-05 -1.62953700e-04 -4.94855049e-05 -1.56255075e-04
      -1.98414462e-04 -1.59591946e-04 -3.84016312e-05 1.80117258e-05
      1.16734540e-04 1.62953700e-04 1.95077591e-04 1.34756410e-04
      -1.31056204e-05 -1.62953700e-04 -1.24131184e-04 -1.65335950e-04
      -1.60012831e-04 -1.21190307e-04 -1.28464453e-04 1.80117258e-05
      1.80117258e-05 6.42308878e-05 1.95077591e-04 1.05014762e-04
      -4.28472631e-05 -1.62953700e-04 -1.62953700e-04 -9.14486664e-05
      -1.95077591e-04 -1.60012831e-04 -6.93225593e-05 -1.17299160e-05
      -1.17299160e-05 6.42308878e-05 1.65335950e-04 6.54338510e-05
      -1.16734540e-04 -6.42308878e-05 -2.54083679e-05 -9.14486664e-05
      -1.65335950e-04 -1.30271190e-04 -1.08145076e-04 8.69928990e-05
      8.69928990e-05 -5.75519152e-07 1.30271190e-04 -6.03211811e-05
      -1.16734540e-04 -1.80117258e-05 5.05524331e-05 0. -9.14486664e-05
      -1.30271190e-04 -1.30271190e-04 3.83311090e-05 -6.03917069e-05
      -7.89789483e-05 -5.42101086e-20 -6.03211811e-05 -1.80117258e-05
      1.17299160e-05 5.05524331e-05 0. 4.54560495e-06 -3.50353112e-05
      -1.08922592e-04 -1.47324216e-04 -1.47324216e-04 -1.01105063e-04
      -5.42101086e-20 3.84016312e-05 3.84016312e-05 6.81432721e-05
      1.81611467e-04 5.64133588e-05 5.64133588e-05 5.64133588e-05
      -3.50353112e-05 -7.34369387e-05 -1.08501707e-04 6.69862766e-06
      9.87228123e-05 3.84016312e-05 6.81432721e-05 1.06965788e-04
      1.71388485e-04 0. 0. 1.16734540e-04 1.16734540e-04 1.16734540e-04
      -4.45576916e-06 6.69862766e-06 9.87228123e-05 1.28464453e-04
      1.28464453e-04 9.12657852e-05 6.87559732e-05 0. 6.03211811e-05
      6.03211811e-05 6.03211811e-05 3.05795402e-05 -9.00137456e-06
      -4.97147303e-05 7.20511016e-05 7.20511016e-05 1.10873618e-04
      1.91167885e-04 6.87559732e-05 6.03211811e-05 6.03211811e-05
      6.03211811e-05 6.03211811e-05 6.03211811e-05 -6.61922459e-05
      -5.87956056e-05 7.20511016e-05 7.20511016e-05 2.37387052e-04
      1.91167885e-04 1.29077147e-04 6.03211811e-05 6.03211811e-05
      6.03211811e-05 6.03211811e-05 8.45343038e-06 -1.05014762e-04
      -5.87956056e-05 7.20511016e-05 1.97806134e-04 2.37387052e-04
      1.91167885e-04 6.87559732e-05 0. 0. 0. -5.18677516e-05
      -9.14486664e-05 -1.65335950e-04 -1.65335950e-04 2.25098174e-05
      6.20907304e-05 6.20907304e-05 1.30846704e-04 6.87559732e-05 0. 0.
      0. -5.18677516e-05 -9.14486664e-05 -1.65335950e-04 -3.95809147e-05
      2.25098174e-05 6.20907304e-05 6.20907304e-05 6.20907304e-05 0.</_>
    <_>
      9.36138690e-07 -6.41880106e-05 -1.03454167e-05 1.31397137e-05
      1.31397137e-05 1.31397137e-05 1.31397137e-05 1.31397137e-05
      1.31397137e-05 -5.39459779e-06 -4.64939112e-05 -3.21495863e-05
      -1.02454949e-04 -9.16360659e-05 -5.29790268e-05 -5.29790268e-05
      -5.29790268e-05 -3.61602797e-05 -3.61602797e-05 -5.29790268e-05
      -1.68187471e-05 -3.19906540e-05 -5.05249664e-05 -1.93115175e-05
      1.73546778e-05 6.19003504e-06 -5.56562100e-06 -5.56562100e-06
      -5.56562100e-06 -5.56562100e-06 -7.49258761e-05 -1.07075459e-04
      -2.34851304e-05 -1.68187471e-05 3.31334995e-05 4.89983468e-05
      6.73273025e-05 8.41460496e-05 8.41460496e-05 3.19906540e-05
      3.19906540e-05 -2.28117387e-05 -1.42124234e-04 -1.87254598e-04
      -7.56405279e-05 8.66445498e-06 1.92908716e-04 1.35745722e-04
      5.21553957e-05 6.73273025e-05 5.21553957e-05 0. -3.21495863e-05
      -1.41140321e-04 -1.50935390e-04 -1.50935390e-04 1.06974076e-05
      1.36449016e-04 2.19245252e-04 1.50935390e-04 0. 0. 0. 0.
      -1.14803777e-04 -1.50935390e-04 -1.50935390e-04 -1.35654933e-04
      5.37948217e-05 2.19245252e-04 1.50935390e-04 9.24592750e-05 0. 0.
      0. -1.32939376e-05 -1.50935390e-04 -8.36080872e-05 -6.83276230e-05
      -4.03038757e-05 -1.36900635e-05 2.30890037e-05 1.50935390e-04
      9.24592750e-05 0. 6.83098624e-05 6.83098624e-05 -1.27908038e-06
      1.79017497e-05 -3.61780403e-05 -7.64641591e-05 -5.96454120e-05
      -2.31794984e-05 9.79506694e-06 -3.53871146e-05 2.34851304e-05
      6.83098624e-05 6.83098624e-05 1.35637165e-04 1.37623691e-04
      3.31822157e-05 -2.22758081e-05 1.80280695e-05 1.80280695e-05
      1.80280695e-05 -1.26785992e-04 -1.17655196e-04 -1.01509839e-04
      8.34817693e-05 8.34817693e-05 1.50917636e-04 1.50917636e-04
      1.10631518e-04 1.09426939e-04 2.42969763e-05 -4.27742680e-06
      -7.74315413e-05 -9.42502884e-05 -2.19245252e-04 -1.46640203e-04
      1.35637165e-04 1.50917636e-04 1.78941380e-04 1.78941380e-04
      2.04073353e-04 1.51917950e-04 1.36637493e-04 1.08613742e-04
      -4.29518559e-06 -7.26050494e-05 -2.19245252e-04 -1.72976754e-04
      1.35637165e-04 1.50917636e-04 1.95760134e-04 2.19245252e-04
      1.67089864e-04 1.51809392e-04 1.23785649e-04 8.34817693e-05
      7.01878380e-05 -5.84835361e-05 -2.04073353e-04 -2.05951321e-04
      8.26077667e-05 6.47563938e-05 8.15751409e-05 1.50935390e-04
      1.35654933e-04 6.73273025e-05 -2.03295235e-06 -2.03295235e-06
      -1.53268902e-05 -1.06787586e-04 -1.51917950e-04 -6.55800177e-05
      8.42546069e-05 3.34286669e-05 6.64032341e-05 6.64032341e-05
      -1.72048585e-05 -1.72048585e-05 -1.72048585e-05 -8.23290102e-05
      -9.56229487e-05 -1.21959492e-04 -9.77296077e-05 -1.93115175e-05
      1.02788923e-04 1.02788923e-04 3.34286669e-05 9.94353559e-06
      -3.48989597e-05 -6.70485460e-05 -6.70485460e-05 -3.73187759e-05
      -8.24491435e-05 -8.24491435e-05 -1.73249900e-05 2.58188484e-05
      7.03141559e-05 -3.41273262e-05 3.10088508e-05 7.52371989e-06
      -9.29502676e-06 -2.22758081e-05 -2.22758081e-05 -2.22758081e-05
      -2.22758081e-05 1.06987573e-05 2.78053776e-05 0. 9.90332046e-06
      -1.64332268e-05 -4.94077940e-05 -4.94077940e-05 -7.28929226e-05
      -7.28929226e-05 -7.28929226e-05 -3.99183591e-05 5.21200900e-06
      5.21200900e-06 2.80237473e-05 0. 0. 5.50336881e-05 9.90332046e-06
      -1.64332268e-05 2.86971390e-05 2.86971390e-05 2.86971390e-05
      5.50336881e-05 5.50336881e-05 6.83276230e-05 5.15088759e-05 0.</_>
    <_>
      1.08697335e-04 1.08697335e-04 1.37969721e-04 1.51416913e-04
      8.90864540e-05 1.15318653e-04 1.26539337e-04 1.51416913e-04
      1.51416913e-04 1.37969721e-04 1.08697335e-04 0. 0. 2.92723835e-05
      1.23323669e-04 6.09932140e-05 5.22841801e-05 6.66648775e-05
      1.28995336e-04 1.07155131e-04 2.32021004e-04 1.51416913e-04
      1.37969721e-04 2.92723835e-05 2.92723835e-05 1.09876477e-04
      1.40425720e-04 6.93862312e-05 5.32176891e-05 5.32176891e-05
      1.24257174e-04 1.40425720e-04 2.49123055e-04 2.32021004e-04
      1.51416913e-04 1.37969721e-04 1.09876477e-04 1.40425720e-04
      1.40425720e-04 4.01138495e-05 2.39453057e-05 -1.66018162e-05
      7.27113147e-05 8.88798531e-05 1.10339643e-04 1.39612021e-04
      2.62570247e-04 1.37969721e-04 2.92723835e-05 1.09876477e-04
      2.05633514e-05 -8.72080345e-05 -1.09481516e-04 -4.71510575e-05
      -3.92557267e-05 -6.66648775e-05 -1.38421537e-05 9.60343241e-05
      2.62570247e-04 1.53872912e-04 0. 0. -7.10394888e-05
      -8.72080345e-05 -1.09481516e-04 -3.92557267e-05 -6.66648775e-05
      -4.43913959e-05 9.60343241e-05 1.09481516e-04 1.53872912e-04
      7.32688204e-05 0. -8.70903204e-06 -8.72080345e-05 -1.09481516e-04
      6.15462777e-05 2.70430573e-05 4.32115994e-05 6.54850810e-05
      -1.26630075e-05 7.84184579e-07 1.53872912e-04 7.32688204e-05 0.
      3.76578428e-05 -1.10295216e-04 -7.32688204e-05 2.70430573e-05
      4.32115994e-05 -4.32122506e-05 -2.13720396e-05 -2.40933896e-05
      7.84184579e-07 7.32688204e-05 1.34471920e-05 -9.52273058e-06
      -1.10295216e-04 -4.39964351e-05 1.83340235e-05 1.36554096e-04
      -1.43053148e-05 2.96911203e-05 -8.85289483e-05 -1.67027945e-04
      -9.59884565e-05 1.34471920e-05 0. 7.10813692e-05 -7.32688204e-05
      -4.39964351e-05 1.83340235e-05 2.78567550e-05 7.32688204e-05
      -7.42236298e-05 -1.51295491e-04 -2.18573812e-04 -1.86792604e-04
      -1.09511035e-04 0. -2.78278931e-05 -4.39964351e-05 -4.39964351e-05
      1.83340235e-05 2.53040616e-05 3.44737055e-05 -9.10399376e-06
      -5.87667018e-05 -1.53872912e-04 -2.00239796e-04 -1.56662092e-04
      -1.31784516e-04 8.16831380e-05 -4.39964351e-05 -1.34471920e-05
      1.12206817e-05 3.30580770e-05 4.92266190e-05 4.92266190e-05
      -2.21590399e-05 -7.32688204e-05 -7.32688204e-05 -1.19635690e-04
      -1.84071250e-04 -1.22002202e-05 -2.97355436e-05 8.13698193e-07
      8.13698193e-07 8.13698193e-07 7.92704122e-06 -4.31827357e-05
      -1.52693770e-04 -1.52693770e-04 -1.52693770e-04 -1.52693770e-04
      -5.27473421e-05 -2.50883340e-06 -5.23018343e-06 -5.23018343e-06
      -5.23018343e-06 -4.92266190e-05 -4.92266190e-05 -1.15077804e-04
      -2.33297862e-04 -2.33297862e-04 -2.33297862e-04 -1.15077804e-04
      -7.15001006e-05 7.32688204e-05 7.32688204e-05 5.71002747e-05
      4.36530827e-05 1.31038405e-05 1.31038405e-05 1.31038405e-05
      -2.11024380e-04 -2.33297862e-04 -2.33297862e-04 -7.15001006e-05
      2.92723835e-05 4.39964351e-05 4.39964351e-05 5.71002747e-05
      4.36530827e-05 1.31038405e-05 1.31038405e-05 1.31038405e-05
      -3.91828908e-05 -2.11024380e-04 -9.28043155e-05 1.31038405e-05 0.
      4.39964351e-05 4.39964351e-05 4.39964351e-05 4.39964351e-05
      3.05492431e-05 3.05492431e-05 3.05492431e-05 1.43807001e-05
      -9.15274577e-05 -8.03067742e-05 0. 0. 0. 4.39964351e-05
      4.39964351e-05 4.39964351e-05 4.39964351e-05 4.39964351e-05
      4.39964351e-05 2.78278931e-05 1.66072114e-05 -2.32818857e-05
      1.34471920e-05 0.</_>
    <_>
      2.57595798e-06 -6.99339216e-05 -3.07938535e-05 6.93847051e-06
      6.93847051e-06 6.93847051e-06 6.93847051e-06 6.93847051e-06
      6.93847051e-06 -3.07938535e-05 -7.22233672e-05 -6.92883841e-05
      -3.87123873e-05 -7.20821990e-05 -7.22125651e-06 -7.22125651e-06
      -7.22125651e-06 1.11873933e-05 1.11873933e-05 -7.22125651e-06
      3.40670886e-05 6.93847051e-06 2.72630530e-07 1.12950838e-05
      -8.88874069e-07 -4.62701391e-05 -2.78614880e-05 -2.78614880e-05
      1.35819091e-05 1.35819091e-05 1.35819091e-05 4.46483937e-05
      4.56449598e-05 6.49686335e-05 3.91565736e-05 1.13784343e-04
      -4.82674068e-06 -7.90206686e-05 -7.90206686e-05 -1.20450182e-04
      -3.47834575e-05 -3.40670886e-05 -6.93847051e-06 -6.93847051e-06
      3.43498759e-05 1.06845873e-04 1.44578196e-04 6.13086086e-05
      -1.24557933e-04 -9.74293216e-05 -1.24557933e-04 -1.65987454e-04
      -9.11881289e-05 -9.11881289e-05 -4.98997797e-05 -4.98997797e-05
      -3.14911304e-05 7.90008853e-05 1.44578196e-04 1.03289851e-04
      -1.55610542e-04 -1.97053945e-04 -1.97053945e-04 -1.97053945e-04
      -8.01557835e-05 -3.88674380e-05 -3.88674380e-05 -3.88674380e-05
      7.91658240e-05 1.16898154e-04 1.44898193e-04 1.28636966e-04
      -1.27765554e-04 -1.55610542e-04 -1.97053945e-04 -1.97053945e-04
      -1.04606406e-04 -4.98179179e-06 2.83741356e-05 2.83741356e-05
      -1.45982576e-05 2.44506246e-05 7.56098088e-05 8.99245861e-05
      -8.58316707e-05 -7.56098088e-05 -7.56098088e-05 -4.84811862e-05
      2.40148111e-05 2.40148111e-05 -1.72735363e-05 -4.03082850e-05
      -2.57595798e-06 -3.99717901e-05 4.84811862e-05 -4.24234604e-05
      4.12883455e-05 4.12883455e-05 1.07557033e-04 1.07557033e-04
      5.63978501e-05 3.91400681e-05 9.52810442e-05 6.42145606e-05
      6.42145606e-05 -6.84169645e-05 -1.59321615e-04 -1.32631525e-04
      6.84169645e-05 6.84169645e-05 1.40912962e-04 1.40912962e-04
      9.96246163e-05 1.28636966e-04 5.61409761e-05 5.61409761e-05
      -8.28143857e-06 -1.59321615e-04 -1.97053945e-04 -1.65987454e-04
      1.40912962e-04 1.40912962e-04 1.40912962e-04 1.40912962e-04
      1.69925319e-04 9.74293216e-05 9.74293216e-05 9.74293216e-05
      4.12883455e-05 -1.45894752e-04 -1.97053945e-04 -1.65987454e-04
      1.39596406e-04 1.00884019e-04 1.20609227e-04 1.58341543e-04
      1.24557933e-04 1.24557933e-04 1.24557933e-04 6.84169645e-05
      2.69735683e-05 -4.41218617e-05 -1.69925319e-04 -1.97053945e-04
      9.83080608e-05 4.61688142e-05 6.45774635e-05 1.17053205e-04
      1.17053205e-04 7.17796283e-05 3.03362340e-05 3.03362340e-05
      1.94688328e-05 -6.40733924e-05 -9.74293216e-05 -7.22471377e-05
      9.09046503e-05 2.51669899e-05 -3.99455121e-06 -3.99455121e-06
      -6.01355277e-05 -6.01355277e-05 -6.01355277e-05 -6.01355277e-05
      -9.12020114e-05 -1.24557933e-04 8.07358447e-06 3.91400681e-05
      1.28636966e-04 8.71935772e-05 2.38504344e-05 -4.17268784e-05
      -6.01355277e-05 -6.01355277e-05 -6.01355277e-05 -5.20480571e-05
      -8.31145444e-05 -7.09305823e-05 8.07358447e-06 3.91400681e-05
      5.61409761e-05 5.61409761e-05 1.28636966e-04 2.88780629e-05
      1.04694127e-05 -3.06388029e-05 -3.06388029e-05 -3.06388029e-05
      -1.97714016e-05 8.07358447e-06 8.07358447e-06 0. 5.61409761e-05
      -8.28143857e-06 -8.28143857e-06 -8.28143857e-06 -4.60137635e-05
      -4.60137635e-05 -4.60137635e-05 -4.60137635e-05 -4.60137635e-05
      -1.49472789e-05 0. 0. -3.33559292e-05 -8.28143857e-06
      -8.28143857e-06 -8.28143857e-06 -8.28143857e-06 -8.28143857e-06
      2.50744888e-05 5.61409761e-05 5.61409761e-05 5.61409761e-05
      3.77323267e-05 0.</_>
    <_>
      4.70791128e-05 4.70791128e-05 9.09283917e-05 9.99013209e-05
      9.99013209e-05 9.99013209e-05 -3.52315442e-06 2.63740039e-05
      7.74254950e-05 9.09283917e-05 4.70791128e-05 0. 0. 4.38492789e-05
      9.76951851e-05 9.76951851e-05 9.76951851e-05 1.89955226e-05
      1.89955226e-05 -4.19067655e-05 1.22298472e-04 9.99013209e-05
      9.09283917e-05 4.38492789e-05 4.38492789e-05 8.87222559e-05
      1.13447066e-04 1.13447066e-04 1.00225925e-05 1.00225925e-05
      -5.60520421e-05 -2.61548830e-05 9.44515414e-05 7.86996607e-05
      9.99013209e-05 9.09283917e-05 8.87222559e-05 1.13447066e-04
      1.13447066e-04 -3.38266873e-05 -3.38266873e-05 -1.44774298e-04
      -9.22669205e-05 3.52315442e-06 1.16676900e-04 1.60526179e-04
      1.69499108e-04 9.09283917e-05 4.38492789e-05 8.87222559e-05
      -5.95751953e-05 -1.69499108e-04 -1.69499108e-04 -1.69499108e-04
      -1.89955226e-05 4.70791128e-05 7.18039228e-05 1.60526179e-04
      1.69499108e-04 1.22419995e-04 0. -9.03854834e-06 -1.69499108e-04
      -1.69499108e-04 -1.69499108e-04 -1.22419995e-04 1.69688847e-05
      3.04061632e-05 1.51487635e-04 1.69499108e-04 1.22419995e-04
      7.75470253e-05 0. -9.61848564e-05 -1.69499108e-04 -1.69499108e-04
      -1.22419995e-04 -3.36977428e-05 -3.36977428e-05 9.71934878e-06
      1.72622076e-05 1.05747051e-04 1.22419995e-04 7.75470253e-05
      -9.03854834e-06 -1.22419995e-04 -1.22419995e-04 -7.75470253e-05
      -3.36977428e-05 -3.36977428e-05 -8.07768520e-05 -5.60520421e-05
      -3.66201903e-06 2.62351386e-05 -1.86378365e-05 8.97293012e-06
      1.69688847e-05 -1.22419995e-04 -3.36977428e-05 -3.36977428e-05
      -3.36977428e-05 -9.55396026e-05 -6.18418635e-05 -7.85148077e-05
      -9.19520899e-05 -9.19520899e-05 -8.72119272e-05 -8.85504633e-05
      -7.75470253e-05 -7.75470253e-05 -3.36977428e-05 -2.46591953e-05
      1.54080062e-05 7.75470253e-05 3.36977428e-05 -3.96165051e-05
      -4.72509055e-05 -1.60526179e-04 -1.69499108e-04 -8.85504633e-05
      -3.36977428e-05 -3.36977428e-05 -3.36977428e-05 2.63922975e-05
      1.24626138e-04 8.07768520e-05 8.07768520e-05 8.07768520e-05
      -2.62351386e-05 -1.03424478e-04 -1.69499108e-04 -9.61848564e-05
      -3.36977428e-05 -3.36977428e-05 4.34827089e-05 7.35273206e-05
      1.25649836e-04 1.25649836e-04 1.25649836e-04 9.19520899e-05
      6.20549326e-05 -2.43384011e-06 -1.24626138e-04 -1.26082014e-04
      1.51949380e-05 -7.18039228e-05 -3.66201903e-06 2.64482060e-05
      5.63453650e-05 2.26476204e-05 8.87222559e-05 2.26476204e-05
      -7.24953679e-06 -3.73597613e-05 -8.07768520e-05 -9.57526718e-05
      8.48405216e-06 1.75396399e-05 -4.85349956e-05 -4.85349956e-05
      -3.88983026e-05 -2.98597552e-05 -2.98597552e-05 -3.88983026e-05
      -6.87954598e-05 -8.22327347e-05 -1.25649836e-04 -2.20436377e-05
      3.41299310e-05 3.09769166e-05 1.75396399e-05 8.56670886e-06
      -1.61581047e-05 -5.23355811e-05 -5.23355811e-05 -5.23355811e-05
      -8.22327347e-05 -1.61581047e-05 -5.19407949e-05 4.32187306e-07
      3.36977428e-05 -9.71934878e-06 3.09769166e-05 8.56670886e-06
      -1.61581047e-05 -1.61581047e-05 -1.61581047e-05 -1.61581047e-05
      -1.61581047e-05 -5.19407949e-05 -2.94649708e-05 -4.34170906e-05
      3.36977428e-05 -9.71934878e-06 3.36977428e-05 3.80058577e-06
      -1.42108929e-05 -2.18452933e-05 -2.18452933e-05 -1.42108929e-05
      -4.85894379e-05 -4.85894379e-05 -4.34170906e-05 -4.34170906e-05 0.
      3.36977428e-05 -9.71934878e-06 -9.71934878e-06 -9.71934878e-06
      -3.96165051e-05 -3.96165051e-05 -3.96165051e-05 -9.71934878e-06
      -9.71934878e-06 -3.44441614e-05 0.</_>
    <_>
      -1.55107045e-04 -1.63737262e-04 -2.78725602e-05 9.94631591e-06
      3.84432633e-06 3.84432633e-06 3.84432633e-06 3.84432633e-06
      3.84432633e-06 -1.28908461e-04 -2.74052145e-04 -2.17067092e-04
      -3.05833761e-04 -1.69969047e-04 -1.08142005e-04 -1.08142005e-04
      -1.08142005e-04 -6.98877993e-05 -6.98877993e-05 -1.08142005e-04
      -3.82542021e-05 -6.22623629e-05 -1.95015149e-04 -3.28385155e-04
      4.37964991e-05 6.78046636e-05 -1.21251913e-04 -1.21251913e-04
      -1.21251913e-04 -1.21251913e-04 -1.21251913e-04 -2.18021552e-04
      -3.78188743e-05 -3.82542021e-05 -6.22623629e-05 -1.88334117e-04
      6.49389622e-05 1.03193168e-04 1.03193168e-04 6.22623629e-05
      6.22623629e-05 3.82542021e-05 -1.56051450e-04 -2.22158138e-04
      -7.87496756e-05 -3.78188743e-05 1.42301535e-19 2.81539360e-05
      4.09308013e-05 6.49389622e-05 4.09308013e-05 0. 0. -9.06676432e-05
      -2.20265647e-05 -8.43647649e-05 2.41085527e-05 5.28487690e-05
      9.06676432e-05 2.19394438e-04 0. 0. 0. 0. 0. -2.20265647e-05
      -7.82627758e-05 -1.09079556e-04 5.28487690e-05 9.06676432e-05
      2.10764207e-04 7.97370259e-09 0. 0. 0. 0. -2.20265647e-05
      -1.33238100e-05 8.22588554e-05 -7.60730763e-05 -1.43438476e-04
      2.20634698e-04 2.29264915e-04 1.17003881e-04 0. 1.96287248e-04
      1.96287248e-04 1.29627762e-04 -2.31942940e-05 7.23883713e-05
      -2.72360339e-04 -1.43438476e-04 7.82627758e-05 2.29264915e-04
      1.17003881e-04 3.78188743e-05 1.96287248e-04 1.96287248e-04
      2.61226203e-04 1.53227273e-04 8.10185884e-05 -2.96368496e-04
      -1.29627762e-04 7.88888701e-06 7.88573016e-05 1.17003881e-04
      3.78188743e-05 0. 2.20295420e-04 2.20295420e-04 2.43894916e-04
      9.08890725e-05 -1.45960876e-04 -1.29627762e-04 -4.29123975e-05
      -7.23883713e-05 7.60730763e-05 3.78188743e-05 0. 0. 2.61226203e-04
      3.71541100e-04 3.38828831e-04 1.77192764e-04 -2.40081608e-05
      2.57286847e-05 9.92961868e-05 2.89649761e-05 1.96287248e-04 0. 0.
      0. 2.61226203e-04 3.71541100e-04 3.20846826e-04 2.53265840e-04
      -4.09308013e-05 -6.05780260e-05 4.31026529e-05 1.03299506e-04
      2.20295420e-04 2.20295420e-04 2.40081608e-05 0. 1.75253837e-04
      3.08006624e-04 1.62378448e-04 2.12467858e-05 -2.15934473e-04
      -1.94428867e-04 -6.19274288e-05 -5.20569447e-05 6.49389622e-05
      6.49389622e-05 6.49389622e-05 4.09308013e-05 1.89499871e-04
      1.94606488e-04 1.19708338e-05 -2.76137644e-06 -4.01079131e-04
      -7.60651092e-05 -7.60651092e-05 -7.60651092e-05 4.09308013e-05
      4.09308013e-05 4.09308013e-05 4.09308013e-05 3.22252657e-04
      6.82070386e-05 1.19708338e-05 -4.05802530e-05 -2.82134046e-04
      3.42497660e-05 3.42497660e-05 3.42497660e-05 1.51245680e-04
      1.51245680e-04 1.51245680e-04 4.09308013e-05 2.81321874e-04
      2.72762409e-05 3.34061338e-06 -4.05802530e-05 1.12431422e-04
      1.29183682e-04 1.29183682e-04 2.46179581e-04 2.46179581e-04
      2.46179581e-04 1.51245680e-04 0. 1.71006992e-04 3.47305977e-05
      -2.15056116e-05 -2.76076007e-05 -5.60048363e-07 1.33188107e-04
      1.33188107e-04 1.33188107e-04 1.33188107e-04 1.33188107e-04
      9.49339083e-05 0. 0. 1.62376760e-04 3.47305977e-05 2.86286067e-05
      1.71006992e-04 1.71006992e-04 1.71006992e-04 1.71006992e-04
      1.71006992e-04 1.71006992e-04 1.32752786e-04 0.</_>
    <_>
      1.21372301e-04 -2.16850049e-06 6.12669683e-05 1.84514738e-05
      1.76944541e-05 1.76944541e-05 1.76944541e-05 4.47132916e-05
      2.67486012e-05 6.12669683e-05 1.00113641e-04 0. 2.12586656e-05
      -2.01249641e-05 -1.75302575e-05 -1.75302575e-05 -9.01612002e-05
      -3.51246999e-05 -3.51246999e-05 -9.01612002e-05 8.25833777e-05
      4.47132916e-05 6.12669683e-05 7.76226952e-05 1.03415841e-04
      -2.73002624e-05 6.47757224e-06 -6.61533704e-05 8.37111147e-05
      1.10729947e-04 8.37111147e-05 -2.18650039e-05 4.10317007e-05
      -4.23479696e-06 4.47132916e-05 1.96458044e-04 1.01305552e-04
      -1.22441361e-05 -9.90623157e-05 -1.35478942e-04 3.31072479e-05
      -3.17816775e-05 1.19925426e-04 -3.61537764e-06 -2.24037667e-05
      4.10317007e-05 7.78205431e-05 2.17716704e-04 3.64166299e-05
      -6.72806345e-05 -2.69789452e-04 -3.06206086e-04 -2.61160691e-04
      -1.74342509e-04 -7.42288685e-05 -7.42288685e-05 -1.52281631e-04
      -9.77000491e-06 2.01361341e-04 1.60480326e-04 -5.08017038e-05
      -9.27647925e-05 -3.47412133e-04 -2.96610437e-04 -3.19636281e-04
      -1.18517237e-04 -1.18517237e-04 -1.38464646e-04 -9.77000491e-06
      -3.04931861e-20 1.08921602e-04 7.43327328e-05 -5.08017038e-05
      -2.16305591e-04 -2.96610437e-04 -2.96610437e-04 -1.95739776e-04
      3.35900186e-05 5.48486860e-05 5.40916662e-05 -5.90819400e-05
      -5.58252686e-05 1.08921602e-04 1.10349210e-04 -1.74342509e-04
      -8.84161054e-05 -1.09678622e-04 -1.31607871e-04 6.95556300e-05
      9.08142974e-05 -9.29934413e-06 6.44588654e-05 -4.93119333e-05
      -2.88064330e-05 -1.00009776e-04 -4.10317007e-05 -7.42288685e-05
      -1.15434937e-04 -1.79687031e-05 4.00125900e-05 4.00125900e-05
      -1.06268264e-04 9.33994488e-06 9.33994488e-06 -1.14200862e-04
      -1.86261226e-04 -1.64572499e-04 -1.74342509e-04 4.14617607e-05
      -4.40326767e-05 4.00125900e-05 4.00125900e-05 -4.13793387e-05
      1.70138428e-05 -6.06088543e-05 -1.40343123e-04 -2.63883936e-04
      -3.37642123e-04 -2.33575134e-04 -1.23540798e-04 9.80715140e-06
      -8.35282117e-05 -8.35282117e-05 1.17209900e-04 1.44903330e-04
      1.54098816e-04 1.32840141e-04 8.70996009e-05 -2.47298507e-04
      -3.47412133e-04 -2.96610437e-04 0. 1.06329120e-04 -6.48065034e-05
      4.10317007e-05 1.36296148e-04 1.46248640e-04 1.24989980e-04
      1.06268264e-04 4.14617607e-05 1.44429232e-05 -1.82409582e-04
      -1.58982410e-04 -1.52564127e-04 -6.01010470e-05 -3.16093356e-05
      7.42288685e-05 1.23757694e-04 1.02499034e-04 1.89708189e-05
      1.89708189e-05 1.89708189e-05 9.82232523e-05 -8.13597144e-05
      -8.13597144e-05 -1.46248640e-04 -5.12317638e-05 -4.14617607e-05
      9.33994488e-06 1.38121206e-04 7.76226952e-05 7.76226952e-05
      7.76226952e-05 7.76226952e-05 3.33343269e-05 -1.46248640e-04
      -1.46248640e-04 -1.01960271e-04 5.36283151e-05 -4.14617607e-05
      -4.14617607e-05 3.55864140e-05 3.79129051e-06 3.79129051e-06
      3.79129051e-06 3.79129051e-06 -3.74147785e-05 -1.24989980e-04
      -2.98999003e-05 -9.95249775e-06 1.04786879e-04 -2.39943838e-05
      9.33994488e-06 -5.12317638e-05 -1.94500881e-05 -3.74147785e-05
      -3.74147785e-05 -3.74147785e-05 -1.24989980e-04 -2.98999003e-05
      -1.57126688e-05 -8.75751939e-05 8.35282117e-05 8.27711920e-05
      -4.52530512e-05 -4.52530512e-05 -5.50230543e-05 -9.93114227e-05
      -9.93114227e-05 -5.50230543e-05 -5.50230543e-05 -4.08358210e-05
      -6.88534856e-05 1.87217083e-05 0. 8.35282117e-05 8.35282117e-05
      8.27711920e-05 -4.04698130e-06 -3.10658179e-05 -4.04698130e-06
      -4.04698130e-06 -4.04698130e-06 8.27711920e-05 9.77000491e-06 0.</_>
    <_>
      9.91339402e-05 -4.41142947e-05 -2.31733375e-05 3.19226056e-05
      -3.15552861e-05 -3.15552861e-05 -3.15552861e-05 3.19226056e-05
      4.43751305e-05 -1.54602767e-05 -4.41142947e-05 0. 0.
      -1.39627198e-04 -8.32957667e-05 -8.32957667e-05 -8.32957667e-05
      9.96835297e-05 9.96835297e-05 5.99524719e-05 1.58381754e-05
      -3.15552861e-05 -1.54602767e-05 -6.89244116e-05 -7.66374724e-05
      -1.58021925e-04 -1.30743399e-04 -1.40642820e-04 1.26287796e-05
      7.61066694e-05 7.61066694e-05 4.91571927e-06 1.01739366e-04
      1.59086412e-04 4.43751305e-05 -1.54602767e-05 -9.45440333e-05
      -1.30743399e-04 -1.86312624e-04 -1.24145474e-04 1.91027630e-05
      -2.82907004e-05 1.91027630e-05 1.91027630e-05 9.32037292e-05
      -8.71786833e-05 -2.71050543e-20 -1.54602767e-05 -2.09959253e-04
      -2.26043689e-04 -2.09959253e-04 -2.11270002e-04 0. 0.
      9.91339402e-05 9.91339402e-05 -2.45488227e-05 2.19690173e-05
      -2.71050543e-20 -1.54904646e-05 -1.41034849e-04 -3.47760972e-04
      -2.84283073e-04 -1.43248239e-04 -1.43248239e-04 9.91339402e-05
      9.91339402e-05 -4.41142947e-05 1.09620996e-04 1.09147702e-04
      -9.91339402e-05 -8.30495119e-05 -1.58842930e-04 -2.04512733e-04
      -1.41034849e-04 -1.88918042e-04 -4.41142947e-05 7.76029920e-05
      7.76029920e-05 7.76029920e-05 -5.48129756e-05 -3.56560522e-05
      -9.91339402e-05 -1.38814343e-04 -9.53650379e-05 -1.05378793e-04
      -1.05378793e-04 6.10617935e-05 3.19331848e-05 3.19331848e-05
      -2.15309483e-05 -3.74930569e-05 1.99131846e-05 -9.91339402e-05
      -3.27916609e-06 -2.65128838e-05 3.11121839e-05 -5.97089856e-05
      6.20083083e-05 7.19077289e-05 1.47838145e-04 1.31074205e-06
      -1.50277529e-05 -1.50277529e-05 -1.46527411e-04 -1.46527411e-04
      -1.17334057e-04 -6.80217563e-05 1.46527411e-04 5.34726678e-05
      6.20083083e-05 6.20083083e-05 1.84435958e-05 -4.52883614e-05
      -1.65281992e-04 -2.20851231e-04 -2.20851231e-04 -1.17334057e-04
      -1.56532624e-04 -6.80217563e-05 2.20851231e-04 1.65281992e-04
      1.27796491e-04 6.43185995e-05 5.86645399e-07 -7.60474795e-05
      -7.60474795e-05 -1.21717290e-04 -1.05378793e-04 -2.04512733e-04
      -1.31499648e-04 -5.55692350e-05 2.20851231e-04 2.20851231e-04
      2.60582281e-04 2.79739208e-04 5.44540890e-05 5.44540890e-05
      1.32402303e-04 -5.79853331e-05 -5.79853331e-05 -1.00052248e-05
      -2.06282966e-05 0. 1.21717290e-04 2.08895974e-04 2.48627039e-04
      2.48627039e-04 2.48627039e-04 -1.93175547e-05 -1.93175547e-05
      -8.27954500e-05 -3.71256392e-05 -9.78236221e-06 1.09264765e-04
      7.43238270e-05 1.14054885e-04 2.01233575e-04 2.01233575e-04
      2.01233575e-04 9.02380270e-06 -1.11417821e-05 -6.67110144e-05
      -8.45191025e-05 -6.48888818e-05 6.30206841e-06 7.43238270e-05
      7.43238270e-05 2.01233575e-04 2.01233575e-04 2.01233575e-04
      1.11744586e-04 4.69805527e-05 -2.10412072e-05 -8.45191025e-05
      -8.22088041e-05 -5.71758246e-05 7.43238270e-05 7.43238270e-05
      7.43238270e-05 1.26909741e-04 1.26909741e-04 2.01233575e-04
      8.90219089e-05 -8.58868316e-06 -8.45191025e-05 -8.22088041e-05
      -5.71758246e-05 6.18713020e-05 7.43238270e-05 7.43238270e-05 0.
      1.26909741e-04 1.26909741e-04 1.26909741e-04 6.36274490e-05
      -5.33236780e-05 -9.94816510e-05 -9.17685902e-05 2.72785346e-05
      3.97310578e-05 3.97310578e-05 0. 0. 0. 1.26909741e-04
      1.26909741e-04 6.36274490e-05 5.88879848e-05 -4.58990826e-06
      1.14457216e-04 1.14457216e-04 1.26909741e-04 1.26909741e-04
      8.71786833e-05 0.</_>
    <_>
      4.81654024e-05 1.21587451e-04 1.21587451e-04 1.21587451e-04
      9.34473646e-05 8.84173933e-05 8.06615790e-05 1.21587451e-04
      1.21587451e-04 1.04956460e-04 1.04956460e-04 5.67910538e-05
      7.36708753e-05 1.07473097e-04 1.07473097e-04 7.93330109e-05
      7.93330109e-05 3.84071391e-05 6.65472253e-05 7.43030469e-05
      1.64264158e-04 1.64264158e-04 1.47633167e-04 4.26767037e-05
      5.93076984e-05 5.93076984e-05 7.36708753e-05 4.55307854e-05
      4.60491356e-06 4.60491356e-06 7.43030469e-05 1.64264158e-04
      1.64264158e-04 1.64264158e-04 9.08421061e-05 4.26767037e-05 0. 0.
      0. -2.81400880e-05 -6.90659654e-05 -4.18100426e-05 7.31700493e-05
      1.49016807e-04 8.43133093e-05 1.42773388e-05 0. 0. 0. 0. 0.
      -6.13101438e-05 -2.75222556e-05 4.87832367e-05 3.58959078e-05
      6.90659654e-05 -6.27996860e-06 -6.33198506e-05 0. 0. 0. 0.
      -2.81400880e-05 -6.90659654e-05 2.06431469e-05 2.81400880e-05
      6.90659654e-05 8.43133093e-05 -1.51544482e-05 -7.99508416e-05 0.
      0. 0. 0. -6.90659654e-05 -6.99501325e-05 1.08090935e-04
      3.58959078e-05 6.90659654e-05 8.43133093e-05 2.50056128e-05
      1.06424350e-05 0. 0. 0. -2.81400880e-05 -1.64264158e-04
      -1.07224274e-04 -6.24531895e-05 1.22749079e-05 2.75222556e-05
      2.75222556e-05 7.10733104e-07 1.72497948e-05 9.05932757e-05 0.
      -7.99508416e-05 -1.56508337e-04 -1.64264158e-04 -1.21760888e-04
      2.52534719e-05 7.36708753e-05 7.36708753e-05 -6.27996860e-06
      -6.21010113e-05 4.33874375e-05 1.04956460e-04 9.05932757e-05
      -7.99508416e-05 -1.64264158e-04 -1.64264158e-04 -1.36124072e-04
      -4.84174052e-05 0. -6.33198506e-05 -6.42040177e-05 -9.05932757e-05
      -4.92082727e-05 8.43133093e-05 1.33269976e-04 -1.23338279e-04
      -1.64264158e-04 -1.64264158e-04 -1.28368250e-04 -1.28368250e-04
      -7.99508416e-05 -7.99508416e-05 -1.36124072e-04 -1.33269976e-04
      -1.05129897e-04 3.58959078e-05 3.80717902e-05 -4.33874375e-05
      -1.64264158e-04 -1.64264158e-04 -1.56508337e-04 -1.28368250e-04
      -9.51981929e-05 -9.51981929e-05 -1.36124072e-04 -1.49900981e-04
      -9.94677612e-05 3.58959078e-05 5.47027848e-05 -6.90659654e-05
      -5.05110875e-05 -6.37560006e-05 -8.43133093e-05 -8.43133093e-05
      -5.61732231e-05 -6.37560006e-05 -1.30461936e-04 -1.16098752e-04
      -4.26767037e-05 3.38813179e-20 2.52534719e-05 -2.26509892e-05
      -1.86327434e-05 -3.52637362e-05 -3.52637362e-05 -3.52637362e-05
      -3.52637362e-05 -5.05110875e-05 -5.70398806e-05 -4.26767037e-05
      -4.26767037e-05 5.93935365e-05 -4.16366056e-05 1.66309928e-05
      2.98759114e-05 1.72631626e-05 1.72631626e-05 1.72631626e-05
      7.40542164e-05 7.40542164e-05 -4.79866612e-05 -2.05573069e-05
      -3.38022255e-05 -1.95176108e-05 0. 1.43631778e-05 7.36708753e-05
      5.46151714e-05 5.46151714e-05 5.46151714e-05 4.05008213e-05
      4.05008213e-05 3.27450034e-05 -7.53459317e-05 -1.20260802e-05
      -1.88068771e-05 0. 5.70398806e-05 5.70398806e-05 7.36708753e-05
      7.36708753e-05 7.36708753e-05 7.36708753e-05 7.36708753e-05
      1.61140088e-05 -5.47027848e-05 -4.69469669e-05 0. 0. 0.
      1.43631778e-05 5.70398806e-05 5.70398806e-05 1.43631778e-05
      1.43631778e-05 1.43631778e-05 -2.65626950e-05 -2.65626950e-05
      -6.13101438e-05 0. 0.</_>
    <_>
      1.09551736e-04 2.59221961e-05 8.95939866e-06 8.95939866e-06
      8.95939866e-06 8.95939866e-06 8.95939866e-06 8.95939866e-06
      8.95939866e-06 -1.34681804e-05 4.76987661e-05 -7.80658229e-05
      4.25628650e-06 2.87281273e-06 2.87281273e-06 2.87281273e-06
      2.87281273e-06 2.87281273e-06 2.87281273e-06 2.87281273e-06
      7.46484366e-05 7.46484366e-05 1.33409470e-04 1.98321061e-07
      -6.22886146e-05 -1.54626701e-04 -1.40036122e-04 -7.20372263e-05
      2.46069048e-05 2.46069048e-05 1.67515842e-04 2.52481172e-04
      1.79778493e-04 1.79778493e-04 8.55752951e-05 8.78541905e-05
      -1.70790241e-04 -3.42082814e-04 -3.42082814e-04 -2.60894187e-04
      -1.27845749e-04 -3.53668074e-05 2.01745337e-04 2.67434370e-04
      2.67434370e-04 1.48876003e-04 -5.24832831e-05 -7.46484366e-05
      -3.42082814e-04 -3.42082814e-04 -3.42082814e-04 -2.60894187e-04
      -5.80158812e-05 1.24174680e-04 2.12291299e-04 2.12291299e-04
      -2.39325732e-06 -8.32530204e-05 -7.46484366e-05 -7.46484366e-05
      -2.45438685e-04 -3.42082814e-04 -3.42082814e-04 -3.42082814e-04
      1.66843311e-05 1.22296711e-04 1.22296711e-04 1.90295599e-04
      5.28309429e-05 -1.47117811e-04 -1.94575455e-06 0. -1.24242462e-04
      -2.45438685e-04 -3.42082814e-04 -3.24966328e-04 7.46484366e-05
      7.46484366e-05 1.09106993e-04 1.09106993e-04 -4.29942411e-05
      1.04140745e-05 -1.51787201e-04 -5.51430676e-05 -1.09106993e-04
      -1.22296711e-04 -1.90295599e-04 -8.99943261e-05 -6.28973576e-05
      8.00115813e-05 8.00115813e-05 -1.66325553e-05 -1.05459703e-05
      -9.06425194e-05 8.03931180e-05 -1.51787201e-04 0. 0.
      -3.44585605e-05 -1.73420831e-05 1.82912518e-05 9.29396920e-05
      9.29396920e-05 7.97499742e-05 5.85338203e-05 1.18584613e-20
      -9.06425194e-05 -7.08168727e-06 0. 0. 0. 0. 0. 2.21651553e-05
      4.45927326e-05 6.17092082e-05 7.97499742e-05 -1.67901817e-04
      1.18584613e-20 -4.38501011e-05 0. 0. 0. 0. 0. 0. 0. 0.
      6.17092082e-05 -2.05725155e-04 1.18584613e-20 -2.63543388e-05 0.
      -5.51430676e-05 -5.51430676e-05 -5.51430676e-05 0. 0. 0. 0.
      -7.73841675e-05 -2.83576665e-05 1.18584613e-20 -1.45905769e-05 0.
      1.31174293e-05 -3.36653102e-05 -5.51430676e-05 -5.51430676e-05
      -5.31973128e-05 -5.37152519e-05 -6.93251332e-06 1.03817019e-05
      -3.12304801e-05 1.18584613e-20 -1.16094670e-04 4.67827376e-05
      -7.90181184e-06 -8.35267056e-05 -8.35267056e-05 -8.35267056e-05
      -8.35267056e-05 -8.35267056e-05 1.06764983e-05 1.92726511e-05
      -6.56890406e-05 1.30309447e-04 -1.20773593e-05 2.24275791e-05
      -2.27644232e-05 -3.23241898e-06 -6.10991265e-05 -6.10991265e-05
      1.06764983e-05 1.06764983e-05 1.60175077e-05 5.17938361e-07
      -4.43190474e-05 -1.06764983e-05 -1.22934034e-05 2.17858687e-05
      1.27398249e-04 1.33484835e-04 -1.11082509e-05 -1.11082509e-05
      -4.33919886e-05 -4.33919886e-05 -4.33919886e-05 -4.14462338e-05
      -1.06764983e-05 -8.36664367e-06 0. 8.74749094e-05 -1.06764983e-05
      1.17510808e-05 1.17510808e-05 1.17510808e-05 1.17510808e-05
      1.17510808e-05 -1.06764983e-05 -7.63655335e-05 4.82307223e-06 0.
      0. -3.44585605e-05 -3.05317990e-05 -3.28416536e-05 -1.53458914e-05
      -7.63655335e-05 -8.36664367e-06 2.60919151e-05 1.71164756e-05
      1.71164756e-05 0. 0. 0.</_>
    <_>
      8.13104489e-05 1.29141525e-04 1.32759596e-04 1.32759596e-04
      1.32759596e-04 1.32759596e-04 2.54669867e-05 2.54669867e-05
      5.74188125e-05 1.32679357e-04 1.22974161e-04 4.77508293e-05
      7.56569716e-05 1.32954272e-04 1.32954272e-04 1.32954272e-04
      1.32954272e-04 2.56616622e-05 2.56616622e-05 -4.77508293e-05
      1.05364321e-04 1.80705101e-04 1.80624862e-04 5.15635802e-05
      5.41128793e-05 5.77309511e-05 7.56569716e-05 7.56569716e-05
      -3.16356418e-05 -3.16356418e-05 -4.77508293e-05 -5.42101086e-20
      8.57368650e-05 1.07292617e-04 1.32874033e-04 5.15635802e-05 0. 0.
      0. -1.07292617e-04 -1.07292617e-04 -1.53073895e-04 -4.79455084e-05
      8.57368650e-05 1.80705101e-04 7.56569716e-05 3.61807315e-06 0. 0.
      0. -8.57368650e-05 -1.80705101e-04 -1.32954272e-04 -4.80257549e-05
      8.57368650e-05 1.80705101e-04 7.56569716e-05 3.69831878e-06 0. 0.
      0. -5.37850356e-05 -1.80705101e-04 -1.80705101e-04 -5.16438267e-05
      -5.42101086e-20 1.05364321e-04 1.26920073e-04 3.12237316e-05 0. 0.
      0. 0. -1.48753286e-04 -1.80705101e-04 -1.56691967e-04
      -5.42101086e-20 -5.42101086e-20 -5.42101086e-20 3.19518258e-05
      -2.21610517e-05 3.33254211e-05 0. 0. -5.37850356e-05
      -1.80705101e-04 -1.80705101e-04 -1.05128383e-04 -1.05048137e-04
      -4.77508293e-05 -4.77508293e-05 -4.77508293e-05 -1.59936808e-05
      -2.21610517e-05 -4.00870704e-05 0. -7.53407876e-05 -1.80705101e-04
      -1.80705101e-04 -1.56691967e-04 -1.05048137e-04 -5.12631013e-05
      -5.12631013e-05 -1.05048137e-04 -4.77508293e-05 -5.42101086e-20
      -2.21610517e-05 -4.37051458e-05 -1.80705101e-04 -1.80705101e-04
      -1.80705101e-04 -1.26920073e-04 -3.19518258e-05 3.61807315e-06
      3.69831878e-06 -4.24036307e-06 2.21493938e-05 -4.77508293e-05
      -5.42101086e-20 4.24036307e-06 -1.80705101e-04 -1.80705101e-04
      -1.80705101e-04 -7.34124915e-05 0. 0. 0. 0. -4.24036307e-06
      -7.95811502e-05 -5.42101086e-20 7.85843622e-06 -1.80705101e-04
      -1.80705101e-04 -9.49682435e-05 -7.34124915e-05 0. 0. 0. 0.
      1.79260187e-05 3.15011930e-05 -5.42101086e-20 1.40258080e-05
      -1.07292617e-04 -1.23407808e-04 -1.48753286e-04 -7.34124915e-05
      -7.34124915e-05 -7.34124915e-05 0. -1.61151893e-05 1.81083044e-06
      -1.59936808e-05 -5.42101086e-20 -1.05048137e-04 -4.99953094e-05
      -1.79632352e-05 -9.14559787e-05 -9.14559787e-05 -6.99002267e-05
      -1.61151893e-05 -1.61151893e-05 -2.20691491e-05 -1.96117544e-05
      -1.59936808e-05 -5.42101086e-20 -4.96419088e-05 -5.34273313e-05
      -1.79632352e-05 -1.79632352e-05 -1.79632352e-05 -1.79632352e-05
      -2.20691491e-05 -2.20691491e-05 -1.59936808e-05 3.19518258e-05
      4.80670169e-05 -3.17158883e-05 -4.98895024e-05 2.40131449e-05
      2.21493938e-05 1.21507654e-07 1.21507654e-07 1.21507654e-07
      3.16184327e-07 3.16184327e-07 3.16184327e-07 3.16184327e-07
      -3.17158883e-05 -2.58763594e-05 -3.19518258e-05 7.19586533e-05
      4.36248993e-05 5.41012196e-05 5.41012196e-05 3.16184327e-07
      3.16184327e-07 3.16184327e-07 2.35938529e-07 -2.58763594e-05
      -2.58763594e-05 -3.19518258e-05 -3.19518258e-05 0. 2.40131449e-05
      4.00068275e-05 4.36248993e-05 -2.58763594e-05 -2.58763594e-05
      -2.58763594e-05 -2.94944330e-05 -7.93868185e-06 -3.19518258e-05
      -3.19518258e-05 0.</_>
    <_>
      -1.27104722e-04 -6.02843684e-05 -4.97984620e-05 -4.97984620e-05
      -4.97984620e-05 -4.97984620e-05 -4.97984620e-05 -4.97984620e-05
      -4.97984620e-05 -7.44599529e-05 -8.49458593e-05 -1.05245934e-04
      -1.43111800e-04 -3.48714857e-05 -3.48714857e-05 -3.48714857e-05
      -3.48714857e-05 -3.48714857e-05 -3.48714857e-05 -3.48714857e-05
      4.06575815e-20 4.06575815e-20 -2.46614891e-05 -7.22699842e-05
      4.63059478e-05 5.67918578e-05 -2.99437579e-06 -2.99437579e-06
      -2.99437579e-06 -2.99437579e-06 1.05245934e-04 7.28737359e-06
      4.06575815e-20 4.06575815e-20 -6.68203502e-05 -1.15274423e-04 0.
      0. 0. 0. 0. 1.35960699e-05 2.03853051e-05 7.01837635e-05
      4.06575815e-20 -4.21588593e-05 -2.70973716e-04 -1.34054833e-04 0.
      0. 0. 0. 4.21588593e-05 2.38778193e-05 1.13188202e-04
      7.01837635e-05 -8.75027763e-05 -1.06194813e-04 -1.41342214e-04
      -6.28963971e-05 0. 0. 0. 0. 1.53509332e-04 1.13188202e-04
      7.01837635e-05 6.28963971e-05 5.15565807e-06 -1.41342214e-04
      -6.28963971e-05 -6.28963971e-05 0. 0. 0. 3.11016174e-06
      1.13188202e-04 7.01837635e-05 7.01837635e-05 4.06575815e-20
      2.26530283e-05 9.79886827e-05 -6.28963971e-05 0. 0. 0. 0.
      -3.37184465e-05 -8.02154027e-05 2.80249078e-05 -4.21588593e-05
      9.79585602e-05 1.18472955e-04 1.01098842e-04 1.60885073e-04 0. 0.
      0. 0. -1.65161255e-04 -8.02154027e-05 -1.50399166e-04
      -1.02817494e-05 1.78722530e-05 6.08766932e-05 2.81459623e-04
      1.63995239e-04 1.50399166e-04 0. 0. -2.81540015e-05
      -2.11275852e-04 -2.74172256e-04 -1.30856293e-04 -7.80408081e-05
      -3.19262072e-05 1.31060457e-04 1.31060457e-04 2.81459623e-04
      2.43202070e-04 0. 0. -2.81540015e-05 -2.11275852e-04
      -2.81459623e-04 -1.41342214e-04 -7.01837635e-05 -7.01837635e-05
      3.82575599e-05 3.82575599e-05 2.81459623e-04 2.53687962e-04 0. 0.
      -7.11584435e-05 -2.11275852e-04 -2.81459623e-04 -1.41342214e-04
      -7.01837635e-05 -6.28963971e-05 3.11016174e-06 1.46497870e-04
      2.81459623e-04 2.78349471e-04 0. 1.08240311e-04 3.70818670e-05
      -7.84458171e-05 -1.41342214e-04 -7.01837635e-05 4.53439134e-05
      4.53439134e-05 1.11350470e-04 1.88656719e-04 2.81459623e-04
      1.31060457e-04 0. 1.04747793e-04 2.97944935e-05 2.97944935e-05
      -3.31019000e-05 4.53439134e-05 4.53439134e-05 1.12164264e-04
      1.78170812e-04 1.88656719e-04 1.73219320e-04 1.03288810e-04
      2.46614891e-05 -1.07798878e-05 5.44559807e-05 5.44559807e-05
      -8.44041278e-06 1.12164264e-04 1.12164264e-04 1.75200239e-05
      1.73219320e-04 1.73219320e-04 1.06398969e-04 1.04859082e-05
      3.11016174e-06 9.56190852e-05 1.97060399e-06 1.97060399e-06
      5.22624141e-05 6.81640668e-05 6.81640668e-05 1.31060457e-04
      1.31060457e-04 1.06398969e-04 1.35960699e-05 0. 9.59130630e-05
      7.82449715e-05 5.99020168e-05 5.99020168e-05 1.02906459e-04
      1.31060457e-04 1.31060457e-04 1.06398969e-04 1.35960699e-05
      1.35960699e-05 0. 0. 0. 3.11016174e-06 6.77590579e-05
      7.82449715e-05 1.35960699e-05 1.35960699e-05 1.35960699e-05
      3.11016174e-06 3.11016174e-06 0. 0. 0.</_>
    <_>
      6.95981144e-05 9.15529599e-05 1.22267244e-04 3.62414903e-05
      3.62414903e-05 3.62414903e-05 3.62414903e-05 3.85045423e-05
      7.43520141e-05 6.55467156e-05 1.09066634e-04 3.94685194e-05
      1.49203188e-04 7.38501985e-05 2.36719225e-05 2.36719225e-05
      1.30469398e-05 1.30469398e-05 1.30469398e-05 1.30469398e-05
      6.31404400e-05 6.54034884e-05 9.24456617e-05 7.30294341e-05
      6.82032769e-05 -4.59261937e-05 -2.64729715e-05 -3.70979542e-05
      1.20898956e-04 1.23161997e-04 1.71043852e-04 1.00430691e-04
      3.70992529e-05 3.70992529e-05 5.06191191e-06 7.30294341e-05
      -1.76792546e-05 -1.75676163e-04 -2.01717354e-04 -1.84038101e-04
      -2.60411871e-05 3.95425232e-05 2.11917650e-04 1.64582394e-04
      5.25154574e-05 -1.83489537e-05 -1.17476338e-04 0. -1.76792546e-05
      -1.75676163e-04 -2.38816603e-04 -2.21137350e-04 -9.79061297e-05
      4.38636671e-05 1.27483145e-04 9.16356730e-05 -8.96134152e-05
      -1.35965587e-04 -8.93726246e-05 -2.60411871e-05 -3.70992529e-05
      -9.06259811e-05 -2.38816603e-04 -2.01717354e-04 -9.16394492e-05
      7.95679152e-05 7.95679152e-05 2.60411871e-05 -6.63674655e-05
      -2.38816603e-04 -6.31404400e-05 -2.60411871e-05 -3.70992529e-05
      -1.29012711e-04 -2.01717354e-04 -1.82264135e-04 3.70992529e-05
      6.31404400e-05 6.31404400e-05 6.31404400e-05 -4.65202284e-05
      -5.51574703e-05 -6.31404400e-05 -3.70992529e-05 -1.11333458e-04
      -1.26749655e-04 -1.75676163e-04 -1.09234694e-04 2.17200450e-05
      7.18649389e-05 7.18649389e-05 7.18649389e-05 1.02003032e-05
      -3.34411998e-05 -1.63074458e-06 -3.70992529e-05 -1.11333458e-04
      -1.29012711e-04 -2.12775412e-04 -1.45129176e-04 -1.53792080e-05
      -1.53792080e-05 2.17200450e-05 2.17200450e-05 -3.65344713e-05
      -1.69406589e-20 4.38636671e-05 -2.17200450e-05 -7.42342017e-05
      -1.39828684e-04 -1.64582394e-04 -1.64582394e-04 -1.64582394e-04
      -5.51204721e-05 1.60005834e-06 -4.22781559e-05 -8.96134152e-05
      -7.36337242e-05 6.41517108e-05 4.22781559e-05 -1.74664892e-04
      -2.38816603e-04 -2.38816603e-04 -1.01250960e-04 -6.31404400e-05
      -3.70992529e-05 -3.70992529e-05 -7.52097767e-05 -1.16512361e-04
      -1.16512361e-04 3.70992529e-05 1.62642842e-04 -1.38541203e-04
      -2.38816603e-04 -2.01717354e-04 -1.00275392e-04 -7.42342017e-05
      -7.42342017e-05 -7.42342017e-05 -7.42342017e-05 -5.70440316e-05
      -6.63674655e-05 7.42342017e-05 1.40806733e-04 -1.64582394e-04
