<?xml version="1.0"?>
<opencv_storage>
<opencv_ml_svm>
  <format>3</format>
  <svmType>C_SVC</svmType>
  <kernel>
    <type>LINEAR</type></kernel>
  <C>1.0000000000000001e-01</C>
  <term_criteria><iterations>100</iterations></term_criteria>
  <var_count>216</var_count>
  <class_count>10</class_count>
  <class_labels type_id="opencv-matrix">
    <rows>10</rows>
    <cols>1</cols>
    <dt>i</dt>
    <data>
      0 1 2 3 4 5 6 7 8 9</data></class_labels>
  <sv_total>45</sv_total>
  <support_vectors>
    <_>
      0. 0. -1.81201867e-05 4.49672189e-05 4.49672189e-05 2.27955406e-05
      9.91837260e-06 3.20900508e-05 3.20900508e-05 3.20900508e-05
      -3.09973548e-05 -3.09973548e-05 -1.81201867e-05 -1.81201867e-05
      4.49672189e-05 1.16959360e-04 5.02679177e-05 3.30172384e-06
      4.81685456e-05 -4.81963216e-05 -7.36965958e-05 -4.50625485e-05
      -1.03566068e-04 -3.09973548e-05 0. -2.92263712e-06 1.34733869e-04
      1.14753973e-04 -6.04566958e-05 -1.78558010e-04 -1.78558010e-04
      -4.88450241e-05 -1.49061007e-05 -7.75423541e-05 -4.50625485e-05
      -6.61962986e-05 -2.21716764e-05 1.05252264e-04 1.21106910e-04
      -9.76827141e-06 -7.96918321e-05 -2.56672531e-04 -2.56672531e-04
      -1.10355104e-04 -1.49061007e-05 9.20196690e-05 1.73761528e-05
      -6.85942941e-05 2.94372094e-05 5.69754484e-05 2.02107534e-04
      3.65460874e-05 1.46986376e-05 -2.75278057e-04 -2.21609560e-04
      6.66255801e-05 1.00564503e-04 8.13643637e-05 1.94235054e-05
      -5.50689037e-06 6.44860556e-05 1.90956736e-04 3.28640686e-04
      2.07588600e-04 -9.64650171e-05 -2.42368071e-04 -5.94818948e-06
      3.73384719e-05 1.00564503e-04 1.44402875e-04 6.50602742e-05
      5.89791634e-05 1.27573454e-04 2.84775771e-04 3.58206511e-04
      2.38654349e-04 4.21502500e-06 -4.37602694e-06 4.41339253e-05
      -1.21465615e-04 1.00564503e-04 1.44402875e-04 1.17492375e-04
      5.89791634e-05 1.27573454e-04 2.84775771e-04 4.32251865e-04
      3.69213376e-04 4.98517948e-05 4.41339253e-05 9.40930931e-06
      -3.61484796e-04 -1.40902237e-04 2.09559948e-04 1.17492375e-04
      5.89791634e-05 1.27573454e-04 3.82844650e-04 4.32251865e-04
      3.16781283e-04 1.09290995e-04 9.40930931e-06 -1.67571372e-04
      -4.76116431e-04 3.60784506e-05 1.45073893e-04 2.37922737e-04
      -4.39012110e-05 1.27573454e-04 3.48120026e-04 4.32251865e-04
      3.16781283e-04 4.41339253e-05 9.40930931e-06 -2.37922737e-04
      -3.48120026e-04 -7.93921572e-05 1.45073893e-04 9.56666627e-05
      -4.59485636e-05 1.27573454e-04 2.44842464e-04 1.11551140e-04
      2.70824326e-04 1.02199541e-04 4.41339253e-05 -6.09420458e-05
      -2.45239673e-04 -2.69600532e-05 3.60784506e-05 1.99658080e-05
      -8.77395796e-05 8.37350963e-05 1.81803960e-04 1.76037196e-04
      9.97838943e-05 4.41339253e-05 -5.80688611e-05 -6.09420458e-05
      -1.88673643e-04 -2.75588100e-04 -6.19708808e-05 -3.24662942e-05
      -1.35551818e-04 1.27573454e-04 1.80005562e-04 2.07255347e-04
      1.35607974e-04 -3.93758019e-05 -1.02414306e-04 -1.02414306e-04
      -2.86711933e-04 -2.74121703e-04 -8.42124209e-05 1.70899384e-05
      -5.65145092e-05 0. 9.36345314e-05 1.91779345e-05 1.21380719e-04
      1.21380719e-04 -5.85759408e-05 -8.62828674e-05 -6.29168935e-05
      -1.65797275e-04 -4.84931006e-05 -7.67291058e-05 -5.65145092e-05
      -2.21716764e-05 9.36345314e-05 1.63536515e-05 6.48147034e-05
      1.21380719e-04 1.21380719e-04 2.09235477e-05 -6.29168935e-05
      -1.65797275e-04 -9.41298713e-05 -6.81202437e-05 -1.43172234e-04
      -2.21716764e-05 4.09157292e-05 4.09157292e-05 9.36345314e-05
      1.63047498e-05 1.63047498e-05 -8.41524234e-05 -9.10908566e-05
      -1.58573293e-05 -6.81202437e-05 -1.93646352e-04 -1.21000565e-04 0.
      6.30874056e-05 6.30874056e-05 6.30874056e-05 6.30874056e-05
      6.30874056e-05 3.53804753e-05 -6.58437202e-05 -6.58437202e-05
      1.26132963e-05 -3.33953503e-05 -1.81201867e-05 0. 0. 0.
      6.30874056e-05 6.30874056e-05 6.30874056e-05 6.30874056e-05
      4.78122420e-05 -1.52751618e-05 -1.52751618e-05 -1.28771680e-05 0.</_>
    <_>
      -1.62692173e-04 -1.62692173e-04 -1.90955630e-04 -2.63158308e-05
      -2.63158308e-05 -2.63158308e-05 -2.63158308e-05 -2.63158308e-05
      -2.63158308e-05 -2.05199121e-05 -1.62692173e-04 0. 0.
      -2.82634446e-05 2.59636490e-05 1.31455581e-05 1.64197059e-04
      8.93343240e-05 8.93343240e-05 8.93343240e-05 -7.44056670e-05
      -1.09235189e-04 -2.05199121e-05 -2.82634446e-05 -2.82634446e-05
      3.17595659e-05 1.26425701e-04 2.02563155e-04 2.22019735e-05
      9.46796990e-06 9.46796990e-06 -1.94761515e-06 -1.09470551e-04
      -1.27360836e-04 -3.18906791e-06 -1.90955630e-04 -1.38676143e-04
      5.54973813e-05 2.43835530e-04 1.25193998e-04 -3.95235402e-05
      -1.11762682e-04 -2.22175382e-04 -1.83397031e-04 -1.36376344e-04
      5.79591870e-06 -1.66226208e-04 -1.94762746e-04 8.43533235e-06
      7.60471230e-05 2.94224650e-04 2.80783075e-04 1.64021709e-04 0.
      -4.01496618e-05 2.89098534e-04 2.28227742e-04 -1.64639787e-04
      -2.68065924e-04 2.21565260e-05 3.66987770e-05 3.37002799e-04
      6.13464566e-04 4.73251072e-04 0. -1.03717779e-04 1.00584817e-04
      2.52399768e-04 2.56101066e-05 -1.05632600e-04 1.47631348e-04
      8.46180628e-05 2.07134493e-04 3.37002799e-04 5.76765800e-04
      4.65925259e-04 4.11064793e-05 2.31026061e-05 -2.67918131e-05
      -1.50065171e-04 8.98646322e-05 3.67205121e-06 1.47631348e-04
      2.82066521e-05 2.07134493e-04 2.14257219e-04 4.14073584e-04
      2.32129736e-04 3.99449491e-05 -2.67918131e-05 -1.78105947e-05
      -1.50632812e-04 -1.53865738e-04 3.46917041e-05 2.81555316e-04
      6.90576780e-05 4.44423131e-05 4.30371147e-04 2.75397440e-04
      1.92208790e-05 -2.67918131e-05 6.27509580e-05 -1.49963744e-05
      -3.20938736e-04 2.24463383e-05 1.49193307e-04 5.52774000e-04
      1.53746965e-04 -6.59703874e-05 3.06996721e-04 5.91674725e-05
      5.91674725e-05 6.28713860e-06 1.18412296e-04 -2.66301970e-04
      -6.25033063e-05 2.65292212e-04 4.04613907e-04 4.47820727e-04
      2.07134493e-04 -9.42338302e-05 2.56825915e-05 -1.44631180e-04
      -8.09953199e-05 -6.97126598e-05 -2.08610189e-04 -2.36611071e-04
      -1.96991896e-04 1.19323122e-04 4.86771722e-04 3.63987696e-04
      2.07134493e-04 -9.42338302e-05 2.56825915e-05 -1.78571237e-04
      -3.43977415e-04 -2.64830334e-04 -2.07236735e-04 -3.07404582e-04
      -1.69733430e-05 -2.85322876e-05 -6.51449818e-06 1.58613853e-04
      3.66987770e-05 6.84583429e-05 -7.95477463e-05 -6.36469194e-05
      -2.57554871e-04 -3.34200246e-04 -2.57765525e-04 -1.46791659e-04
      -6.78982906e-05 -5.64827096e-05 6.61753584e-05 -6.48248897e-05
      -5.55061633e-05 -4.11385736e-06 -3.05707581e-05 -2.16305256e-04
      -1.04706945e-04 -1.17786942e-04 -1.74549914e-05 8.49496428e-05
      8.08607365e-05 8.08607365e-05 1.02880927e-04 4.50228981e-05
      -5.55061633e-05 -9.90977605e-06 8.98364524e-05 -1.15035873e-04
      -8.48818891e-05 -5.13950399e-05 4.85690070e-05 8.08607365e-05
      5.73494654e-05 -3.84526902e-05 2.67366377e-05 -3.57113749e-05
      -2.82634446e-05 -5.79591870e-06 5.89191659e-05 -5.98364459e-05
      -1.98253019e-05 -1.66111422e-04 -1.80360366e-05 -1.80360366e-05
      1.28250089e-04 1.70680229e-04 1.24667538e-04 -1.22413549e-04
      -8.78046103e-06 -5.79591870e-06 1.64639787e-04 -6.17911937e-05
      -7.75856970e-05 -4.11104611e-06 -4.11104611e-06 -4.11104611e-06
      -4.11104611e-06 3.07296182e-06 3.81799327e-05 -7.99226837e-05 0.
      0. -5.79591870e-06 1.83536686e-05 8.84763085e-06 2.71281879e-05
      -6.94686696e-06 -6.94686696e-06 -6.94686696e-06 -1.48002277e-04
      -1.38076808e-04 -5.79591870e-06 0.</_>
    <_>
      -4.47430502e-05 -9.21176907e-05 -9.21176907e-05 1.23084346e-05
      1.23084346e-05 1.23084346e-05 1.23084346e-05 1.23084346e-05
      1.23084346e-05 1.23084346e-05 -9.21176907e-05 -4.73746441e-05 0.
      -4.84109514e-05 -2.83532900e-05 6.35937613e-05 3.28440474e-05
      3.28440474e-05 3.28440474e-05 3.28440474e-05 -7.09262313e-05
      -4.98497175e-05 -6.25527537e-05 0. 0. 1.96954024e-05
      1.67406358e-06 1.07148328e-04 2.72219972e-06 2.72219972e-06
      -4.20208489e-05 -1.01440928e-04 -1.76302114e-04 -1.69842067e-04
      -3.63638974e-05 -2.10499620e-05 0. 9.28806912e-05 1.76600457e-04
      1.32617366e-04 1.13783142e-04 8.79302661e-06 -1.41343844e-04
      -1.34555055e-04 -1.76302114e-04 1.54818499e-05 7.46207443e-05
      -4.98125919e-05 0. 2.08418613e-04 2.67751282e-04 2.08580605e-04
      1.16384144e-04 -6.38203419e-05 -1.49266503e-04 -1.42386707e-04
      -3.82235739e-05 3.61641942e-05 1.48049745e-04 7.56634981e-05 0.
      2.92743760e-04 3.05711845e-04 2.20553586e-04 -2.02417050e-05
      -1.55547736e-04 -1.98659967e-04 -1.67239952e-04 8.82127279e-05
      2.64976232e-04 2.09835314e-04 1.04426130e-04 1.04426130e-04
      2.68309581e-04 3.05711845e-04 2.20553586e-04 -7.64727592e-05
      -1.98659967e-04 -2.39115951e-04 -1.71959880e-04 8.42393711e-05
      1.84831530e-04 2.46254524e-04 1.04426130e-04 1.04426130e-04
      2.68309581e-04 3.05711845e-04 1.96397683e-04 -6.11313808e-05
      -1.16880110e-04 -2.10575527e-04 -2.77605082e-04 -8.25046154e-05
      4.73387554e-05 1.54136826e-04 1.04426130e-04 1.04426130e-04
      2.80294596e-04 3.05711845e-04 1.84412653e-04 -2.07244807e-06
      -4.03126833e-05 -1.07342225e-04 -2.31113663e-04 -7.51222615e-05
      -2.68362674e-05 2.12279439e-04 1.23084346e-05 1.04426130e-04
      2.99420964e-04 3.05711845e-04 2.33835861e-04 1.21598830e-04
      6.20290011e-05 -7.13245827e-05 -2.37010499e-05 -6.00916283e-05
      5.50910318e-06 2.61687746e-05 1.23084346e-05 1.04426130e-04
      2.14262691e-04 2.19848080e-04 2.55766237e-04 1.71022024e-04
      1.71022024e-04 8.58637650e-05 3.64405678e-05 3.48290669e-05
      -1.23084346e-05 -3.64405678e-05 -5.65008850e-05 1.04426130e-04
      1.54371723e-04 2.19848080e-04 1.81887503e-04 1.71022024e-04
      8.58637650e-05 8.58637650e-05 1.71022024e-04 -8.21488243e-07
      -1.07128872e-04 -8.00312555e-05 -1.60927011e-04 1.04426130e-04
      7.16681025e-05 1.36491857e-04 1.43274330e-04 1.45049227e-04
      8.51582663e-05 1.80204518e-06 1.80204518e-06 -6.65611660e-05
      -1.54503519e-04 -9.58669043e-05 -6.88093205e-05 0. 5.96830796e-05
      5.13335981e-05 9.85312872e-05 9.85312872e-05 1.80204518e-06
      1.80204518e-06 -5.35675172e-05 -1.25908788e-04 -1.32408866e-04
      -3.17178456e-05 -1.19729775e-05 0. 1.17474019e-05 -1.13936085e-05
      -7.01077588e-05 -5.09252959e-06 -3.57499812e-05 -5.35675172e-05
      -4.25525686e-05 -9.48882443e-05 -7.59189732e-07 7.06188257e-06 0.
      0. 8.29406854e-05 4.30801492e-06 -6.59607686e-05 -8.97502614e-05
      -4.37567796e-05 -5.78106738e-05 4.66154561e-05 3.46304332e-05
      -2.59975586e-05 0. 0. 0. 5.17705048e-05 -2.12394261e-05
      -8.80743610e-05 -5.01137874e-05 -5.01137874e-05 -2.52605350e-05
      -5.85452335e-06 3.20848594e-05 7.28204686e-05 0. 0. 0. 0.
      -3.16056612e-05 5.17705048e-05 1.09347548e-05 5.98552970e-06
      6.08474875e-05 7.28204686e-05 0. 0. 0. 0.</_>
    <_>
      0. 0. 0. 6.38011988e-05 -5.60079243e-05 -4.33357454e-05
      -4.33357454e-05 6.38011988e-05 6.38011988e-05 6.38011988e-05 0. 0.
      0. 0. 6.38011988e-05 7.76712332e-05 1.22802507e-04 5.58939646e-05
      1.43807672e-04 2.15931490e-04 1.93369720e-04 6.38011988e-05
      6.38011988e-05 0. 0. 6.38011988e-05 1.88602804e-04 1.44127669e-04
      1.34179327e-05 1.34179327e-05 1.41560056e-04 2.08468584e-04
      2.40363996e-04 1.81219788e-04 6.38011988e-05 0. 0. 1.11513036e-04
      2.82840017e-04 2.44401395e-04 1.00403078e-04 1.47987987e-04
      1.88216392e-04 3.32214695e-04 1.45315542e-04 2.62430636e-04
      1.04130006e-04 0. 0. 1.97480345e-04 3.42885352e-04 1.29781023e-04
      -1.95329758e-05 2.50425746e-05 1.11436289e-04 2.02786439e-04
      1.73715103e-04 1.53445872e-04 1.04130006e-04 6.38011988e-05 0.
      2.75976519e-04 2.44401395e-04 1.29781023e-04 -9.47665467e-05
      -6.34487151e-05 -8.86112539e-05 1.73715103e-04 1.73715103e-04
      2.31942031e-04 1.70486033e-04 6.38011988e-05 6.38011988e-05
      2.35748099e-04 1.77492853e-04 8.90080701e-05 -4.29389256e-05
      -1.35326001e-04 9.64018545e-06 1.10465689e-05 1.73715103e-04
      1.95040266e-04 2.56064814e-04 6.38011988e-05 6.38011988e-05
      1.15938979e-04 1.35758310e-04 -1.13226029e-04 -1.45753133e-04
      -2.22552226e-05 -8.64532412e-05 -1.26681640e-04 4.75745182e-05
      1.95040266e-04 2.56064814e-04 6.38011988e-05 -1.81617597e-05
      7.39518291e-05 -6.38011988e-05 -1.08067004e-04 -4.74292101e-05
      3.77360921e-05 1.22945406e-04 -1.74393484e-04 -5.32309496e-05
      1.28131738e-04 3.91150330e-04 6.38011988e-05 -1.81617597e-05
      -1.08841095e-05 -6.38011988e-05 -1.08067004e-04 -8.03101357e-05
      2.75988659e-05 -2.05418211e-04 -1.85429031e-04 -2.49201286e-04
      8.79033323e-05 2.52440368e-04 6.38011988e-05 -1.37970885e-04
      -6.74734838e-05 -1.59894626e-04 -5.08960038e-05 -1.29392167e-04
      -3.05882204e-05 -1.53533634e-04 -2.52337573e-04 -1.63622521e-04
      2.31269933e-05 -1.07449250e-05 -6.32122174e-05 -9.62363265e-05
      -6.35148608e-05 -1.30823290e-04 -1.81219788e-04 -1.29392167e-04
      -1.44656093e-04 -1.85429031e-04 -2.04625729e-04 -2.15507098e-04
      -1.59894626e-04 -9.63236889e-05 -8.19629568e-05 -1.22916463e-04
      -1.09461507e-04 4.95040258e-05 2.81788616e-05 -5.73999059e-05
      -1.60869440e-05 -1.35896058e-04 -3.45294713e-04 -1.81219788e-04
      -1.59894626e-04 -1.26383253e-04 -6.69085348e-05 -1.19809119e-04
      -1.22916463e-04 -2.43354334e-05 6.84072656e-05 6.84072656e-05
      -9.56676522e-05 -9.56676522e-05 -1.44318023e-04 -1.81219788e-04
      -1.23611477e-04 -7.63157077e-05 -1.86717647e-04 0. 6.38011988e-05
      7.19011805e-05 1.61829710e-04 1.88216392e-04 1.88216392e-04
      1.88216392e-04 -4.26270126e-05 -1.59894626e-04 -8.82764944e-05
      -1.22916463e-04 0. 0. 6.38011988e-05 1.82178246e-05 1.82178246e-05
      1.18491553e-04 1.18491553e-04 8.65961410e-05 1.10168934e-04
      -1.36953502e-04 -1.54811860e-04 -6.69085348e-05 0. 0.
      6.38011988e-05 6.38011988e-05 6.38011988e-05 8.51263612e-05
      8.51263612e-05 5.32309496e-05 -1.36775834e-05 -1.54811860e-04
      -1.22916463e-04 0. 0. 0. 0. 0. 6.38011988e-05 6.38011988e-05
      6.38011988e-05 6.38011988e-05 -3.50027476e-05 -9.88039392e-05
      -1.86717647e-04 0. 0.</_>
    <_>
      -1.12136971e-04 -1.12136971e-04 -1.12136971e-04 1.17728287e-05
      1.17728287e-05 1.17728287e-05 1.17728287e-05 1.17728287e-05
      1.17728287e-05 1.17728287e-05 -1.12136971e-04 0. -1.12136971e-04
      -1.80095303e-04 -2.00874885e-04 -1.67547132e-05 6.11345531e-05
      6.11345531e-05 6.11345531e-05 6.11345531e-05 -1.79001072e-04
      -1.55926245e-04 -1.91929299e-04 0. -1.12136971e-04 -5.61854977e-05
      -1.52945140e-04 4.25723956e-05 -2.47658591e-05 -7.93728686e-05
      -7.93728686e-05 -7.93728686e-05 3.12916268e-06 -6.19299171e-05
      -1.19085635e-04 0. -1.12136971e-04 -1.21344106e-04 -1.33590758e-04
      -5.61929528e-06 -2.32465409e-05 -6.81951788e-05 -1.88450213e-04
      5.11773978e-05 -1.51826171e-04 1.22943369e-04 5.35228028e-05
      -8.42419468e-05 -1.96378925e-04 -1.75515597e-04 -6.93027905e-05
      -2.08620579e-04 -1.91586456e-04 -3.69321613e-04 -1.54846610e-04
      1.06156302e-04 3.18803999e-04 2.69344193e-04 -3.83984079e-05
      3.96678515e-05 -1.96378925e-04 9.01482999e-05 -1.23909806e-04
      -2.08620579e-04 -2.85079674e-04 -1.95020461e-04 -4.98353402e-05
      2.26333097e-04 3.08688759e-04 4.55342670e-04 1.76858914e-04
      1.43656711e-04 -7.24691199e-05 8.65522961e-05 -1.23909806e-04
      -2.63640104e-04 -5.30890189e-04 -9.17968864e-05 -2.35836415e-05
      -9.14997690e-06 1.06156302e-04 3.18332546e-04 3.16877500e-04
      3.15197431e-05 3.96678515e-05 1.98689260e-04 1.91929299e-04
      -1.11258514e-05 -2.82037945e-04 -1.62054537e-04 -2.91818753e-04
      -3.17020487e-04 -1.41041659e-04 2.00042050e-04 2.00850031e-04
      3.15197431e-05 1.23909806e-04 6.10634219e-04 3.77038057e-04
      1.07374392e-04 -6.11877476e-05 -5.79219886e-06 -1.05542451e-04
      -2.75485509e-04 2.74147569e-05 -1.23909806e-04 1.22013327e-04
      -5.27222073e-05 1.23909806e-04 6.33694290e-04 7.47106096e-04
      4.77442431e-04 2.72970035e-04 2.63358030e-04 9.61198566e-06
      4.10621487e-06 -1.54278634e-04 -1.23909806e-04 4.74850713e-05
      -5.27222073e-05 1.23909806e-04 3.62776947e-04 2.96516810e-04
      4.26422106e-04 3.93122260e-04 3.07889975e-04 1.54965950e-04
      1.54965950e-04 1.32476862e-05 -1.59820076e-04 4.87040270e-05
      -5.27222073e-05 1.23909806e-04 1.55006404e-04 1.75434252e-04
      2.45644012e-04 1.89420127e-04 1.90238556e-04 1.54965950e-04
      2.39676723e-04 9.80787263e-06 -1.94633802e-04 -1.79044746e-05
      -1.96378925e-04 1.23909806e-04 9.16189856e-06 -2.70982000e-05
      3.54323056e-05 4.75864954e-06 -6.64126128e-05 -6.64126128e-05
      -6.64126128e-05 3.54323056e-05 -2.69930169e-04 -1.30906818e-04
      -8.42419468e-05 5.46070114e-05 -5.07576733e-05 1.77243026e-04
      -4.88096448e-05 -4.88096448e-05 -3.81082034e-04 -3.81082034e-04
      -4.88096448e-05 -3.00587184e-04 1.46008178e-05 1.57543065e-04 0.
      5.46070114e-05 1.43656711e-04 -3.87561849e-05 2.82357942e-04
      4.31115695e-05 4.31115695e-05 -4.88096448e-05 -1.82296688e-04
      6.52240342e-05 1.41874145e-04 7.51526386e-05 0. 0. 1.43656711e-04
      1.45621249e-04 -2.30090282e-05 1.37858005e-04 -2.96775888e-05
      -2.96775888e-05 3.96251999e-05 1.59507588e-04 7.51526386e-05 0. 0.
      0. 1.23909806e-04 1.43656711e-04 -1.06156302e-04 -1.06156302e-04
      -1.06156302e-04 -2.38006414e-05 7.71171763e-05 -7.20301659e-06
      1.23909806e-04 0. 0. 0. 0. -9.62527192e-05 -7.20301659e-06
      -7.20301659e-06 -7.20301659e-06 1.43656711e-04 1.43656711e-04
      5.46070114e-05 0. 0. 0.</_>
    <_>
      0. 0. 3.17415179e-05 7.65006334e-05 7.65006334e-05 7.65006334e-05
      -8.62140878e-05 -6.85148552e-05 -3.90331406e-05 4.35607217e-05 0.
      0. 0. 0. 7.65006334e-05 1.18388794e-04 2.17209250e-04
      2.93180346e-05 -1.13878650e-05 -6.26129258e-05 2.78156731e-05
      7.65006334e-05 4.35607217e-05 0. 3.17415179e-05 7.65006334e-05
      1.18388794e-04 2.17209250e-04 6.65371408e-05 6.54741370e-07
      -1.27446037e-04 -1.00428668e-04 1.19621669e-04 1.25385617e-04
      7.65006334e-05 0. 3.29399154e-05 9.07688882e-05 2.17209250e-04
      2.10287166e-04 9.33415577e-05 -1.13159231e-05 -1.35115784e-04
      9.11060488e-05 1.30813321e-04 2.72812584e-04 1.32103960e-04 0.
      3.29399154e-05 1.18388794e-04 2.42028676e-04 1.12186885e-04
      -2.67825690e-05 -2.72812584e-04 -1.87159239e-05 2.26306656e-04
      3.49140086e-04 2.48537806e-04 1.32103960e-04 7.65006334e-05
      3.29399154e-05 1.77931710e-04 2.07690420e-04 2.58934306e-05
      -2.72812584e-04 -4.20684199e-04 -2.39764879e-04 2.29067693e-04
      2.52477388e-04 4.04743390e-04 2.30924416e-04 7.65006334e-05
      7.65006334e-05 1.01312668e-04 1.52485125e-04 -9.07688882e-05
      -4.20684199e-04 -3.74674448e-04 -2.64852482e-04 -1.35324472e-05
      1.21156241e-04 2.84671027e-04 2.50210345e-04 7.65006334e-05
      -2.01620478e-05 7.75414228e-05 1.70241981e-06 -2.31507831e-04
      -2.90122232e-04 -2.74655584e-04 -3.02275497e-04 -2.94722588e-04
      -7.57360031e-05 1.16447765e-04 9.75678267e-05 7.65006334e-05
      -6.24428358e-05 1.40442527e-04 -4.35607217e-05 -2.19052265e-04
      -2.74655584e-04 -1.63332021e-04 -9.37516088e-05 -2.84151029e-04
      -9.91640482e-05 -2.62046924e-05 1.11442714e-04 -7.33713896e-05
      -1.20552337e-04 6.92667963e-05 -4.35607217e-05 -1.22389567e-04
      -5.91198004e-05 1.36225499e-04 6.06395588e-06 -3.83278348e-05
      -1.12460330e-04 -3.60078084e-05 4.40479153e-06 -7.33713896e-05
      -1.20552337e-04 2.76922547e-05 -7.11806351e-05 -5.39186931e-06
      1.38157207e-04 1.41907018e-04 2.76199135e-05 2.00670020e-05
      4.69619299e-05 -2.21737046e-05 -1.09084343e-04 -9.67810920e-05
      -1.20552337e-04 -9.03709733e-05 3.15540710e-05 7.44042336e-05
      1.24403843e-04 2.76199135e-05 2.76199135e-05 4.18881609e-05
      4.98858280e-05 5.98203042e-05 -6.45553228e-05 -1.58041046e-04
      -6.85148552e-05 -1.08421278e-04 -5.75557024e-05 3.55875600e-05
      8.80077496e-05 9.25038112e-05 1.44830221e-04 7.50006366e-05
      2.80346485e-05 -6.51086157e-05 -1.34426897e-04 -1.46413833e-04
      -1.26144398e-04 -6.21204454e-05 8.04541014e-06 -1.03355917e-04
      -6.67855929e-05 -1.15585652e-04 -4.51460073e-05 -2.15224518e-05
      -9.20377352e-05 -3.58161415e-05 -8.29165219e-05 -1.21605794e-04
      -6.07201855e-06 -9.42108891e-05 -7.78141257e-05 8.14268205e-05
      4.00917452e-05 -8.56566840e-05 -8.56566840e-05 -8.56566840e-05
      4.40007898e-05 3.31283336e-05 -1.05547420e-04 -6.07201855e-06 0.
      3.74887022e-05 -3.74091651e-05 -7.19235613e-05 2.03165946e-05
      1.05134768e-05 1.05134768e-05 8.81105734e-06 3.90188943e-05
      -1.11901936e-04 -2.37712484e-05 -6.07201855e-06 0. 3.74887022e-05
      4.35607217e-05 8.14648156e-05 -5.50297809e-05 -7.84394797e-05
      -8.59923894e-05 -3.25538967e-05 1.22365609e-05 1.97894733e-05
      -6.07201855e-06 -6.07201855e-06 0. 0. -6.07201855e-06
      3.74887022e-05 3.74887022e-05 1.97894733e-05 1.97894733e-05
      1.97894733e-05 -6.07201855e-06 -6.07201855e-06 -6.07201855e-06 0.</_>
    <_>
      -9.10033195e-05 -9.10033195e-05 -9.10033195e-05 7.28041698e-07
      7.28041698e-07 7.28041698e-07 7.28041698e-07 7.28041698e-07
      7.28041698e-07 7.28041698e-07 -9.10033195e-05 -7.04127742e-05
      -9.10033195e-05 -1.22444922e-04 -1.55335962e-04 -9.21063111e-05
      2.52189438e-05 -4.59877356e-06 -4.59877356e-06 -4.59877356e-06
      -8.10673082e-05 -5.06965553e-05 -6.86286294e-05 -7.46747319e-05
      -3.57035642e-05 -2.53653125e-05 1.94504682e-05 8.32615260e-05
      -8.46983403e-06 -2.13185849e-05 -2.13185849e-05 -9.17313591e-05
      -9.17313591e-05 -8.28599368e-05 1.95523826e-05 -1.44031408e-04 0.
      7.14906782e-05 2.10838843e-04 1.20970610e-04 6.42368250e-05
      -7.63233766e-05 -1.61391348e-04 -1.46606311e-04 -9.17313591e-05
      -8.47032947e-22 -7.01514728e-05 -1.00377671e-04 2.73565047e-06
      2.26201271e-04 2.71087396e-04 2.12670639e-04 1.36589282e-04
      -7.97070898e-05 -6.07330403e-05 3.58259604e-05 -7.54027787e-05
      -1.09253415e-05 4.40731601e-05 5.21235743e-05 2.73565047e-06
      2.26201271e-04 2.99501495e-04 2.38349079e-04 0. -3.54700096e-05
      5.44621289e-05 3.12271841e-05 -1.09253415e-05 3.81592035e-05
      1.31941284e-04 7.81384297e-05 9.44670101e-05 2.26201271e-04
      2.96765851e-04 2.21765367e-04 1.22619254e-04 8.56400875e-05
      3.12271841e-05 -1.53063913e-04 7.68665996e-05 1.71944179e-04
      2.32739563e-04 9.44670101e-05 9.44670101e-05 2.26201271e-04
      2.96765851e-04 2.26353062e-04 3.04840069e-05 3.12271841e-05
      -8.37072439e-05 -2.12818093e-04 2.67852010e-05 2.03385789e-04
      2.59498600e-04 9.44670101e-05 9.44670101e-05 2.48809520e-04
      2.96765851e-04 2.22091112e-04 9.97523020e-05 -8.37072439e-05
      -2.23211347e-04 -1.36127012e-04 1.67345410e-04 2.27409168e-04
      3.34499084e-04 9.44670101e-05 9.44670101e-05 1.92075750e-04
      2.92503886e-04 1.59689575e-04 -6.42242412e-06 -8.26511387e-05
      -2.01814619e-04 6.97366631e-05 2.25546057e-04 2.96765851e-04
      1.93938875e-04 9.44670101e-05 9.44670101e-05 1.17075280e-04
      9.52099072e-05 1.59689575e-04 5.03113552e-05 -4.52649329e-05
      -4.52063341e-06 1.11608722e-04 2.94902711e-04 2.40032066e-04
      1.71330612e-04 9.44670101e-05 9.44670101e-05 1.17075280e-04
      9.79455581e-05 -4.80348572e-05 -1.90453175e-05 -3.23290988e-05
      2.38934535e-05 1.57931470e-04 9.76087395e-05 9.94718648e-05
      1.71330612e-04 2.73565047e-06 9.44670101e-05 9.44670101e-05
      4.26798397e-05 -4.42431010e-05 -9.35845455e-05 -6.87559077e-05
      -1.95181256e-05 4.98385489e-05 9.94718648e-05 1.02207516e-04
      9.44670101e-05 2.73565047e-06 0. 9.02050524e-05 -4.54810106e-05
      -4.42431010e-05 -8.89857765e-05 -5.83626679e-05 4.98385489e-05
      5.44373215e-05 1.02207516e-04 9.95908267e-05 9.44670101e-05
      2.73565047e-06 0. 9.02050524e-05 -3.96900286e-05 -1.02659877e-04
      -8.89857765e-05 -4.33334390e-05 5.44373215e-05 8.58789281e-05
      8.28599368e-05 9.63301354e-05 9.44670101e-05 0. 0. 8.74694015e-05
      7.70389524e-05 -5.01204813e-05 -4.56435373e-05 -4.01438992e-05
      -1.17298114e-05 9.63301354e-05 9.63301354e-05 9.63301354e-05 0. 0.
      0. 8.74694015e-05 8.74694015e-05 7.70389524e-05 5.90553173e-05
      8.24370509e-05 9.35944845e-05 9.35944845e-05 9.17313591e-05
      9.17313591e-05 0. 0. 0. 0. -4.26195766e-06 8.74694015e-05
      9.17313591e-05 9.17313591e-05 9.17313591e-05 9.17313591e-05 0. 0.
      0. 0.</_>
    <_>
      0. -2.99521547e-04 -1.16660471e-04 -2.26045427e-06 -5.69366894e-05
      -5.69366894e-05 -5.69366894e-05 -5.69366894e-05 -2.26045427e-06
      -1.85121549e-04 0. 0. 0. -2.99521547e-04 -2.02775773e-04
      -4.25224898e-05 3.37066449e-05 7.98867106e-08 7.01980243e-05
      1.89705781e-04 7.29821841e-05 1.42490957e-04 -1.85121549e-04 0.
      1.82861084e-04 -5.69366894e-05 -1.89219572e-04 5.31739788e-05
      2.73733138e-04 2.73733138e-04 2.89812917e-04 -8.04646479e-05
      9.10258095e-05 9.87032327e-05 1.42490957e-04 0. 1.82861084e-04
      -5.69366894e-05 6.48893692e-05 2.07159232e-04 3.47610447e-04
      5.72878635e-04 4.05717088e-04 2.57726118e-04 -8.04646479e-05
      2.27072305e-04 -5.28273558e-05 0. 1.82861084e-04 2.64984614e-04
      2.36749271e-04 -2.42180919e-04 -1.67797421e-04 -4.22574289e-04
      -2.49475590e-04 2.05413147e-04 -1.49358675e-04 2.11410428e-04
      2.28796736e-04 2.96937040e-04 -1.36395852e-06 7.16424081e-04
      9.73576462e-05 -6.93560141e-05 -8.94611643e-04 -7.67975755e-04
      -2.91261327e-04 6.54360156e-06 -1.27712177e-04 3.96585296e-04
      5.34020015e-04 2.96937040e-04 1.13036054e-04 2.52074009e-04
      4.84810706e-04 -4.70894556e-05 -4.21915611e-04 -1.63140707e-04
      1.02117352e-04 -3.41485400e-04 3.48663780e-05 3.96585296e-04
      4.26538580e-04 8.61372755e-05 -1.86485500e-04 2.74703430e-04
      2.69634009e-04 -2.28332399e-04 -1.50702417e-05 7.93554209e-05
      -3.17956525e-04 -5.17384149e-04 -8.25823008e-05 3.48508533e-04
      1.81693264e-04 8.61372755e-05 -1.86485500e-04 4.08771652e-04
      1.47224433e-04 -2.67465948e-04 -5.58308639e-05 -4.12368827e-04
      -1.56038383e-04 -7.00245262e-04 1.16845345e-04 5.70904413e-05
      2.38781009e-04 -2.13384279e-04 -2.26045427e-06 4.95758490e-04
      5.93972392e-04 -2.37348242e-04 -6.37191406e-05 -2.79443659e-04
      -5.13598730e-04 -3.14171077e-04 -8.02704715e-04 6.20726569e-05
      3.26157518e-04 -2.26045427e-06 -1.86485500e-04 -2.07516641e-04
      -6.93242124e-04 -4.46534759e-05 2.30236794e-04 3.23600048e-04
      9.23192420e-05 -4.40516975e-04 -2.43439848e-04 -1.14400013e-04
      -1.37369556e-04 2.97261111e-04 1.13036054e-04 -2.08037382e-04
      -5.09017089e-04 -4.22201963e-04 1.05337574e-04 5.19443929e-05
      -6.41277584e-05 -1.21820034e-04 -5.06624820e-05 -4.95638815e-04
      -2.27748955e-04 -1.83549666e-04 5.80357482e-05 -1.25827355e-04
      1.33952795e-04 -3.19186453e-04 -1.04978346e-04 -2.28827965e-04
      -2.28827965e-04 -2.28827965e-04 5.38046297e-04 -5.02722578e-05
      -3.57133249e-04 -1.83549666e-04 -2.39225352e-04 -3.27379006e-04
      -2.07998291e-05 1.53994450e-04 2.87301780e-04 -9.13898330e-05
      -6.97433425e-05 4.00741614e-04 1.71891908e-04 -3.02979024e-05
      -5.61845256e-04 -2.66124145e-04 -5.50003060e-05 -2.52635742e-04
      -1.04682469e-04 -4.99481866e-05 -9.07049398e-05 -3.27779776e-06
      2.16516579e-04 -1.23331356e-05 4.72805004e-06 1.22323865e-04
      -2.03132422e-05 -5.50003060e-05 0. 5.93997065e-05 -3.42047351e-05
      -1.53752771e-04 7.70795523e-05 -2.44450232e-04 -2.44450232e-04
      1.00199468e-04 1.21915822e-04 -1.87347468e-04 -7.28977757e-05
      -5.50003060e-05 0. 5.97237777e-05 1.19874043e-04 5.03443698e-05
      -1.34491347e-04 -1.52388820e-04 -1.52388820e-04 -1.52388820e-04
      -2.58338405e-05 5.93997065e-05 -5.50003060e-05 0. 0. 0. 0.
      5.97237777e-05 1.19874043e-04 1.19874043e-04 1.19874043e-04
      1.19874043e-04 -5.50003060e-05 -5.46762349e-05 0. 0.</_>
    <_>
      0. -2.68136810e-05 -2.68136810e-05 3.05877184e-05 2.79611104e-05
      2.79611104e-05 2.79611104e-05 3.05877184e-05 7.25343343e-05
      7.72481071e-05 -2.68136810e-05 0. 0. -3.15274592e-05
      -3.22669985e-05 -1.06048356e-04 1.01255508e-04 1.72842447e-05
      -7.16646609e-05 1.74208544e-04 1.89648883e-04 3.73892653e-05
      7.72481071e-05 -2.68136810e-05 -2.68136810e-05 6.99077282e-05
      -1.87527767e-04 1.08272783e-04 -5.87058785e-05 1.20285746e-04
      2.54238199e-04 1.27588628e-05 -5.87058785e-05 1.09549532e-04
      3.06164220e-05 -2.68136810e-05 -3.15274592e-05 -1.54567198e-04
      5.51097000e-05 -9.67214073e-05 -1.03371836e-04 -1.32470261e-04
      2.31143276e-05 1.98980430e-04 5.44259346e-05 -9.41695998e-06
      1.62007447e-04 -6.58541467e-05 -7.76959423e-05 -1.24719183e-04
      -8.98903236e-05 -9.67214073e-05 1.31547524e-04 -1.08272783e-04
      2.15390115e-04 6.11527765e-04 1.69962281e-04 -1.01435187e-04
      -6.70485315e-05 -1.80470688e-05 -5.08822595e-05 -7.97156390e-05
      -1.01435187e-04 1.19554483e-04 -3.08079383e-04 3.23662884e-04
      7.62515818e-04 4.71315783e-04 2.11908889e-04 -2.04707812e-05
      -5.17006702e-05 -1.26746136e-05 5.05529242e-05 1.55147507e-06
      1.20118721e-05 -9.24400138e-06 1.75322508e-04 2.43103816e-04
      4.27370338e-04 1.03707425e-04 2.35935950e-04 -5.95112433e-05
      -2.04603319e-04 -4.40420517e-05 5.31795304e-05 9.48214802e-05
      2.48237979e-04 2.33660219e-04 1.79444483e-04 3.36983794e-04
      -3.29312679e-05 -2.29875150e-04 -2.70587916e-04 -6.21378495e-05
      -4.38371935e-05 -1.40760836e-04 5.78933068e-05 4.98956069e-04
      3.38624523e-04 2.55833438e-04 4.17350995e-04 -1.01217898e-04
      -3.10452655e-04 -5.07300778e-04 -3.44365399e-05 2.21424300e-04
      2.38275563e-04 -5.97964317e-05 1.51380867e-04 3.66862863e-04
      3.78744677e-04 2.94679048e-04 8.02336435e-05 -1.11651250e-04
      -6.12483884e-04 -4.72876098e-04 -2.88609590e-04 2.48237979e-04
      2.11908206e-04 2.91524757e-05 1.51380867e-04 2.93730118e-04
      2.23293900e-04 2.49327859e-04 4.06296640e-05 -1.98223061e-04
      -3.82489583e-04 -4.72876098e-04 1.45949394e-04 3.28241033e-04
      3.34967626e-05 9.98399264e-05 1.51380867e-04 3.45271052e-04
      3.68814304e-04 1.42536330e-04 1.22585698e-04 -1.73311928e-04
      -2.33208237e-04 -7.32572516e-05 -2.46421580e-04 -1.41778524e-04
      1.62285301e-04 4.73190703e-05 1.51380867e-04 2.04331678e-04
      3.68814304e-04 2.83342961e-04 1.84266508e-04 -3.54147604e-04
      -3.18859209e-04 -5.31713420e-04 -2.27249882e-04 -1.50969981e-05
      1.18439581e-04 4.73190703e-05 6.24877066e-05 1.51380867e-04
      3.13346274e-04 2.83342961e-04 1.30832384e-04 -1.15100025e-04
      -3.18859209e-04 -3.42250423e-04 -1.35096867e-04 2.59595399e-04
      1.51380867e-04 4.73190703e-05 6.24877066e-05 1.51380867e-04
      2.26121891e-04 2.21017515e-04 1.16309566e-04 -9.48677334e-05
      -3.42250423e-04 -1.79930808e-04 -7.70157203e-06 2.88609590e-04
      1.51380867e-04 0. 0. 1.04061794e-04 1.89533152e-04 1.51430213e-05
      -3.40265324e-05 -2.78333609e-04 -2.78725958e-04 -1.92317937e-04
      2.02717492e-04 1.59192758e-04 0. 0. 0. 1.04061794e-04
      1.04061794e-04 -1.09798762e-04 7.68090031e-05 -1.16808587e-04
      -2.26686432e-04 1.40949473e-04 1.04061794e-04 1.04061794e-04 0. 0.
      0. 0. 6.24877066e-05 5.25208525e-05 1.05742374e-05 -7.40964824e-05
      -6.60682927e-05 6.21151776e-05 6.24877066e-05 0. 0. 0.</_>
    <_>
      -9.22710897e-05 -9.22710897e-05 -6.04070228e-05 -9.55537544e-05
      -9.55537544e-05 -5.49257238e-05 -1.13778233e-05 -5.20058529e-05
      -5.20058529e-05 -1.68591250e-05 -1.68591250e-05 7.54119683e-05
      3.18640705e-05 1.96144138e-05 -1.55323141e-05 -2.01608651e-04
      5.59795853e-06 -1.50074149e-04 2.35765201e-05 1.90693114e-04
      1.49715197e-04 1.04351529e-04 -9.55154610e-06 7.54119683e-05 0.
      9.15797573e-05 -1.75908659e-04 -2.83512549e-04 1.75873254e-04
      2.04090800e-04 2.04090800e-04 4.44636535e-05 -2.86340328e-05
      -1.17454993e-05 -3.47313871e-05 -1.68591250e-05 4.06280305e-05
      -1.49037169e-05 -1.17397154e-04 5.49598335e-05 4.01079415e-05
      1.84476390e-04 1.84476390e-04 4.24011487e-05 -2.12072715e-04
      -2.11219332e-04 -4.56798480e-05 -1.68591250e-05 8.41759320e-05
      -1.06451946e-04 -1.80932897e-04 9.05629931e-05 4.08318738e-04
      4.19078016e-04 4.54895868e-04 3.69330228e-04 -1.24280108e-04
      -2.75274098e-04 -1.73355525e-04 4.02652404e-05 0. 9.11760289e-05
      1.83468554e-04 2.47219461e-04 3.10420844e-04 4.28506755e-04
      3.51833762e-04 2.27024284e-04 -1.24280108e-04 -2.33747851e-04
      -2.60861652e-05 4.02652404e-05 0. 0. 5.05480020e-05 8.50166762e-05
      1.54398847e-04 7.61892225e-05 5.29911085e-05 -9.02071679e-06
      -2.82767560e-05 -1.41476761e-04 -2.60861652e-05 4.02652404e-05 0.
      -9.22710897e-05 -9.22710897e-05 -9.22710897e-05 -4.78873044e-05
      5.29911085e-05 7.26140643e-05 2.48528784e-04 -7.82753777e-05
      -2.13970940e-04 1.17715957e-04 4.02652404e-05 -9.22710897e-05
      -9.22710897e-05 -9.22710897e-05 -3.05505702e-04 -1.57365910e-04
      7.26140643e-05 1.75749825e-04 2.94557249e-04 5.95874480e-05
      1.28475251e-04 4.83507465e-05 9.10417875e-05 -9.22710897e-05
      -9.22710897e-05 -3.05505702e-04 -4.67786740e-04 7.26140643e-05
      4.12513182e-05 2.02059979e-04 4.67786740e-04 3.57219105e-04
      1.41486220e-04 9.83493665e-05 9.10417875e-05 -9.22710897e-05
      -4.00181707e-05 -1.94228342e-04 -2.68938980e-04 -2.11101622e-04
      -1.16915464e-04 4.53655630e-05 1.66496917e-04 2.17626366e-04
      4.01422323e-04 3.64600186e-04 1.54243171e-04 -2.90697080e-05
      -4.00181707e-05 -2.66876479e-04 -3.02024884e-04 -2.53477105e-04
      -8.02476061e-05 -7.59947125e-06 3.14036501e-04 1.32994872e-04
      7.51392945e-05 9.97149255e-05 1.10695270e-04 0. -5.83448455e-05
      -1.83295866e-04 -3.44039436e-04 -3.71563016e-04 -2.49456003e-04
      -1.14837421e-04 1.74242843e-04 2.77304935e-04 1.48422609e-04
      -1.84791934e-04 4.74938861e-05 0. 3.80445308e-05 -9.16304271e-05
      -2.32478254e-04 -1.95269022e-04 -3.97563235e-05 9.35471908e-05
      2.28429810e-04 2.54818908e-04 2.47511343e-04 3.19972678e-05
      4.74938861e-05 5.48130129e-06 6.12426447e-05 -1.59537522e-04
      -1.97331523e-04 -1.82479635e-04 -6.26618494e-05 8.64940012e-06
      1.64426150e-04 1.90815248e-04 1.83760450e-04 -9.11988682e-05
      8.81219166e-05 5.48130129e-06 3.41879490e-06 -2.16097571e-04
      -1.85119250e-04 -3.63516810e-05 5.27421289e-05 6.00497042e-05
      1.58255381e-04 8.39979912e-05 -4.99857124e-05 6.97809664e-05
      4.74938861e-05 -3.51467279e-05 -3.51467279e-05 -1.73861044e-04
      -3.06468195e-04 -2.71321478e-04 -2.71321478e-04 -2.64013914e-04
      -2.20465998e-04 -3.44941873e-06 -1.38211049e-04 1.14082995e-05
      3.18640705e-05 0. -3.51467279e-05 -3.51467279e-05 -9.91503985e-05
      -1.75994559e-04 -1.75994559e-04 -1.75994559e-04 -1.32446658e-04
      -6.45071896e-06 8.40117082e-06 8.40117082e-06 0.</_>
    <_>
      -4.06914623e-05 -1.74373970e-04 -3.43800748e-05 -3.43800748e-05
      -3.43800748e-05 1.43732268e-05 1.43732268e-05 -3.43800748e-05
      -3.43800748e-05 -3.43800748e-05 -1.49666463e-04 -1.08974993e-04
      1.39993892e-04 9.93024296e-05 -1.99309026e-04 -2.05069548e-04
      4.29131205e-06 -5.81332170e-05 2.83223108e-05 8.52201629e-05
      -5.67482202e-05 3.35530458e-05 -1.68294355e-04 2.47075150e-05 0.
      -5.26790027e-05 -2.49695993e-04 -2.59991793e-04 3.86069769e-05
      1.21837315e-04 1.52310415e-04 -3.73007497e-05 -2.47411634e-04
      -2.49080680e-04 -2.36839242e-05 2.47075150e-05 4.87533034e-05
      -8.10468705e-08 1.47294486e-04 1.81134790e-04 2.58341490e-04
      2.03548698e-04 -6.07961329e-06 -3.73007497e-05 -2.47411634e-04
      -4.51653759e-05 -2.17186971e-05 2.47075150e-05 4.87533034e-05
      1.04681953e-04 2.31096492e-04 1.66410624e-04 2.19047040e-04
      6.59868310e-05 6.82225218e-05 -5.59286527e-05 5.13291779e-05
      6.05254936e-05 7.12113397e-05 2.47075150e-05 0. 4.87533034e-05
      1.71942665e-04 3.14326840e-04 8.67505878e-05 8.42577811e-06
      -1.46481325e-04 -5.59286527e-05 2.20828952e-04 3.24664608e-04
      2.49743491e-04 2.47075150e-05 0. 0. 4.00255340e-05 1.79184528e-04
      -2.35131127e-04 -4.58401424e-04 -2.33515471e-04 -5.59286527e-05
      -4.03172671e-05 3.28822789e-04 2.49743491e-04 2.47075150e-05 0. 0.
      0. -1.52962366e-05 -1.87284415e-04 -4.76355519e-04 -2.94253405e-04
      7.77538589e-05 -5.71183264e-05 3.57698227e-05 7.53695131e-05
      2.47075150e-05 0. 0. 0. -4.10226021e-05 -3.76374646e-06
      -2.17097142e-04 -5.55995712e-06 1.93001877e-04 -1.66969912e-05
      -2.61696347e-04 1.26494502e-04 1.19491335e-04 0. 0. 0. 0.
      2.06946206e-04 -6.12456279e-05 1.95825036e-04 4.73805325e-04
      1.09112489e-05 -7.35948415e-05 -3.26537665e-05 1.19491335e-04 0.
      0. 5.68978503e-05 5.68978503e-05 1.92040156e-04 2.47968826e-04
      5.05039468e-04 4.95730434e-04 1.32193629e-04 -1.66969912e-05
      -2.91634497e-04 5.53389218e-05 0. 0. 5.68978503e-05 6.74996918e-05
      2.47968826e-04 3.02338653e-04 5.05039468e-04 7.16182520e-04
      1.53117478e-04 -5.14925669e-05 -3.48237489e-04 5.53389218e-05 0.
      -4.06914623e-05 -5.60898807e-05 3.43602733e-05 1.91070969e-04
      2.76514591e-04 2.36815118e-04 2.88749085e-04 3.17630911e-04
      -2.79175263e-04 -2.19747104e-04 1.14426512e-04 0. -1.44616824e-05
      -1.78469199e-04 -1.87449536e-04 -1.87449536e-04 -3.90844325e-05
      1.32542613e-04 1.36438670e-04 -4.94114429e-05 3.06919355e-05
      -1.30302331e-04 1.20322402e-04 4.87533034e-05 5.73605685e-05
      -2.64620576e-05 -3.26353067e-04 -3.26353067e-04 -3.74591938e-04
      -8.26892792e-05 -9.47266308e-05 1.23498859e-04 7.63909411e-05
      2.36416308e-04 2.27332232e-04 4.87533034e-05 4.87533034e-05
      -3.80886806e-04 -4.48457868e-04 -3.33375385e-04 -2.73994985e-04
      -2.10043095e-06 1.23647305e-05 2.93788871e-05 2.76865263e-04
      3.65499116e-04 1.78578921e-04 0. -1.52962366e-05 -1.33952635e-04
      -2.81868852e-04 -4.02144477e-04 -4.65065968e-04 -3.93901399e-04
      -3.06867267e-04 -6.51598457e-05 1.39098658e-04 1.07937856e-04
      2.47075150e-05 0. 0. -1.52962366e-05 -1.52962366e-05
      -2.11921233e-05 -1.63212462e-04 -1.63212462e-04 5.58683205e-05
      7.11645553e-05 7.11645553e-05 0. 0.</_>
    <_>
      0. 0. 1.00529351e-05 1.00529351e-05 -6.44531610e-05
      -6.44531610e-05 1.00529351e-05 1.00529351e-05 1.00529351e-05
      1.00529351e-05 1.00529351e-05 1.00529351e-05 1.00529351e-05
      1.00529351e-05 1.00529351e-05 -6.44531610e-05 1.49320549e-04
      1.32445231e-04 8.61833032e-05 1.54109235e-04 2.35626838e-04
      9.84087601e-05 1.19755741e-05 1.00529351e-05 0. 7.99801055e-05
      9.00330415e-05 1.49320549e-04 3.33133532e-04 2.67121679e-04
      2.91734177e-04 2.44397641e-04 3.43732885e-04 1.88145306e-04
      1.17759708e-04 1.19755741e-05 0. 7.99801055e-05 2.65200593e-04
      2.47711665e-04 1.86867779e-04 2.81681248e-04 3.39481689e-04
      3.38339654e-04 2.72782374e-04 1.19939345e-04 1.17759708e-04
      1.19755741e-05 0. 1.33793597e-04 1.78386355e-04 2.21649185e-04
      1.58769850e-04 1.89195678e-04 1.53236018e-04 2.50128331e-04
      1.33345500e-04 6.42968662e-05 1.17759708e-04 1.19755741e-05 0.
      3.74039992e-05 1.34895003e-04 -2.27915152e-05 6.15813551e-05
      1.41071068e-04 2.05845135e-04 1.06130021e-04 1.67791164e-04
      9.53116105e-05 1.17759708e-04 1.19755741e-05 0. 0. 2.60809866e-05
      -7.47980885e-05 1.16216768e-06 2.48733304e-05 1.72642787e-04
      1.46244958e-04 1.67791164e-04 -1.40196498e-05 1.17759708e-04
      1.19755741e-05 0. -7.45060970e-05 -1.55698930e-04 -3.95100244e-04
      -2.03749267e-04 6.31728617e-05 1.48649633e-04 2.09323392e-04
      1.09990731e-04 -1.40196498e-05 1.17759708e-04 1.19755741e-05
      -1.09679941e-05 -9.78984972e-05 -3.94559960e-04 -4.66871716e-04
      -2.29705591e-04 1.54951354e-04 2.82083318e-04 1.99346585e-04
      -2.32627008e-05 3.05730973e-05 3.13265191e-05 1.19755741e-05
      -1.09679941e-05 -1.53540968e-04 -5.00091468e-04 -4.66871716e-04
      -1.84892036e-04 2.37934146e-04 7.51178595e-05 3.71566130e-05
      -1.33793597e-04 -3.96517462e-05 -1.43822026e-05 1.19755741e-05
      -8.54740865e-05 -7.35608628e-05 -4.00029996e-04 -2.65802344e-04
      -2.28398334e-04 -3.71337701e-05 -1.41814071e-05 -1.40607469e-19
      -1.33793597e-04 -1.93369706e-05 -3.49935290e-05 8.09876874e-05
      5.47401305e-06 -6.92336616e-05 -3.48517235e-04 -2.65802344e-04
      -1.32008732e-04 -1.02714723e-04 -8.47617703e-05 -1.40607469e-19
      -9.63896091e-05 -1.33793597e-04 -1.32908230e-04 8.09876874e-05
      -7.45060970e-05 -1.03800106e-04 -1.23846621e-04 -1.33233843e-04
      -3.68442343e-05 -3.68442343e-05 -9.97715033e-05 -1.21089259e-04
      -1.21089259e-04 -1.21089259e-04 -1.02047379e-04 1.00529351e-05
      -7.45060970e-05 -7.45060970e-05 1.37612769e-05 1.37612769e-05
      9.63153980e-06 9.63153980e-06 -3.23311360e-05 -7.08619918e-05
      -2.01069372e-04 -5.14848834e-05 -3.36206758e-05 -6.44531610e-05 0.
      0. 8.82673703e-05 8.82673703e-05 8.82673703e-05 8.82673703e-05
      1.01415004e-04 -1.73835306e-05 -2.01069372e-04 4.62660937e-05
      -2.13687035e-05 1.00529351e-05 0. 0. 0. -1.62322212e-05
      1.17561380e-04 1.17561380e-04 8.82673703e-05 1.16296898e-04
      -1.37847628e-05 -6.24470485e-05 4.29903157e-05 1.00529351e-05 0.
      0. 0. 0. 0. 0. -2.92940131e-05 -2.61752903e-05 -1.42481949e-05
      1.46062885e-05 1.00529351e-05 1.00529351e-05 0. 0. 0. 0. 0. 0. 0.
      -9.94306811e-06 -8.44491660e-05 1.93509441e-05 0. 0.</_>
    <_>
      -2.44857965e-05 -2.44857965e-05 -1.50615160e-05 -1.50615160e-05
      -1.50615160e-05 -1.50615160e-05 -1.50615160e-05 -1.50615160e-05
      -1.50615160e-05 -1.50615160e-05 -2.44857965e-05 -2.44857965e-05
      -1.50615160e-05 -1.23543796e-04 -1.36622577e-04 -2.88831245e-04
      -2.86814065e-05 -2.86814065e-05 -1.03543702e-04 -7.55721558e-05
      -6.97061696e-05 -1.25854946e-04 2.74957692e-05 -2.44857965e-05
      -2.44857965e-05 -9.46579312e-05 -2.28592937e-04 -4.60540141e-05
      1.84870260e-05 1.52684923e-04 1.73752080e-04 -4.43579338e-05
      -1.02958962e-04 -2.95629172e-04 -4.09163513e-05 0. -2.44857965e-05
      -1.15243260e-04 -4.13858434e-05 4.88322839e-05 -2.29650523e-05
      1.50615160e-05 2.20074377e-04 3.01689488e-05 6.10648203e-05
      -7.57576272e-05 1.51562810e-04 -1.41193959e-05 -3.86051943e-05
      -2.74729064e-06 -9.85485749e-05 -1.77191061e-04 2.55886935e-05
      1.97348738e-04 3.79035366e-04 2.49967939e-04 2.12701023e-04
      9.21500541e-05 4.61020609e-05 -1.41193959e-05 -3.86051943e-05
      -1.38719101e-04 -1.66524012e-04 -3.04543821e-04 -4.93345105e-05
      1.47692350e-04 2.75176950e-04 1.29325999e-04 2.52710481e-04
      1.39374228e-04 2.19854148e-04 0. -1.41193959e-05 -2.20857299e-04
      -2.93716643e-04 -3.04543821e-04 -2.35156069e-04 -2.10039958e-04
      2.62148878e-05 1.34185364e-04 9.89773889e-06 1.06239429e-04
      1.74301182e-04 -2.44857965e-05 -1.41193959e-05 -8.20251589e-05
      -2.73539248e-04 -4.73963941e-04 -2.17543769e-04 -1.73062144e-04
      -2.96896062e-04 4.21097548e-06 -3.85969797e-05 -6.48851346e-05
      1.37240146e-04 -2.44857965e-05 0. -3.54269323e-05 -9.39230740e-05
      -9.97871539e-05 1.09408829e-04 1.46350503e-04 -4.34957619e-05
      3.22168285e-04 -1.79504816e-04 -3.14442557e-04 -2.12480212e-04
      5.07171426e-05 0. 0. 0. 0. 2.56420142e-04 2.56420142e-04
      3.44934000e-04 6.33633172e-04 -1.16387027e-05 -2.56420142e-04
      -3.11322947e-05 5.07171426e-05 0. -8.82177701e-05 -9.54324787e-05
      3.10954347e-05 1.20448356e-04 2.56420142e-04 3.44934000e-04
      6.72268448e-04 -9.37314471e-05 -2.03990625e-04 -1.17625561e-04
      8.90272859e-05 3.83101433e-05 -1.12703565e-04 -2.28400546e-04
      -1.01872640e-04 1.40723176e-04 2.69960932e-04 3.44934000e-04
      5.63786190e-04 1.68364248e-04 -2.93033227e-04 -1.23489634e-04
      8.90272859e-05 0. -1.65133097e-04 -2.75624712e-04 -1.79367111e-04
      -1.02905333e-05 3.25023848e-06 -8.96428101e-05 2.37691638e-04
      8.78892315e-05 -1.47065002e-04 -2.77145973e-05 7.11391913e-05 0.
      -1.41193959e-05 6.60691730e-05 -2.63690978e-04 -2.63690978e-04
      -2.72775331e-04 -8.61345252e-05 8.07425458e-05 -5.18509150e-05
      2.27974320e-04 2.84989830e-04 1.09744382e-04 0. 0. 1.30451983e-04
      -5.97760700e-05 -2.08577825e-04 -1.73969893e-04 -1.57549293e-04
      -4.17065803e-06 2.49757810e-04 2.57820648e-04 2.91224598e-04
      1.09744382e-04 0. 0. -2.00424693e-04 -2.14544096e-04
      -2.24513915e-05 -7.96563909e-05 2.64871833e-05 1.32078319e-04
      7.76098677e-05 2.95698701e-04 1.70853891e-04 1.09744382e-04 0.
      -2.60173165e-05 -1.55027243e-04 -2.28797071e-04 -2.28797071e-04
      -3.00211861e-04 -8.21593276e-05 7.24360943e-05 1.20271703e-04
      6.11095093e-05 6.11095093e-05 0. 0. 0. -5.09475649e-05
      -5.68116411e-05 -8.28289558e-05 -5.68116411e-05 -5.86407714e-06 0.
      4.51552951e-05 0. 0. 0.</_>
    <_>
      0. 0. 0. 0. 0. 0. -8.08959812e-05 -8.08959812e-05 -3.84841005e-05
      0. 0. 0. 0. 0. 0. 0. 1.17806929e-04 9.31834875e-05 2.72499892e-05
      -2.31456597e-05 4.37248636e-05 6.41312363e-05 0. 0. 0.
      2.66014631e-05 2.66014631e-05 1.17806929e-04 1.83242897e-04
      1.09572269e-04 2.69795528e-05 -4.55757217e-05 7.44868084e-05
      1.20651683e-04 6.35209435e-05 0. 0. 2.66014631e-05 1.45743659e-04
      1.70528016e-04 1.35392707e-04 2.69795528e-05 7.45388994e-20
      3.53202558e-05 1.73547582e-04 1.07936801e-04 6.35209435e-05 0. 0.
      8.99978040e-05 1.14383074e-04 2.32243910e-04 2.57718875e-05
      -1.20766515e-06 8.08959812e-05 2.53890641e-04 2.00527138e-04
      1.07936801e-04 6.35209435e-05 0. 0. -3.84841005e-05 1.08820255e-04
      1.94738295e-05 -1.39225476e-05 -1.20766515e-06 8.56262996e-05
      2.42386101e-04 1.62043041e-04 1.07936801e-04 6.35209435e-05 0. 0.
      -3.84841005e-05 -2.76219853e-05 -1.64672645e-04 -1.28642176e-04
      -9.82872225e-05 4.76437572e-06 1.16345778e-04 1.62043041e-04
      6.94527043e-05 6.35209435e-05 0. -3.84841005e-05 -8.08959812e-05
      -2.06377634e-04 -3.70868016e-04 -2.26332020e-04 -1.61210788e-04
      -1.61210788e-04 2.53226426e-06 -1.09107179e-06 -3.53490104e-05
      2.50368466e-05 0. -3.84841005e-05 -8.08959812e-05 -3.70868016e-04
      -3.70868016e-04 -2.02261494e-04 -1.10097091e-04 3.31363526e-06
      2.12386149e-05 -1.42005054e-04 -1.11155110e-04 3.79823200e-06
      -3.72764334e-05 -8.08959812e-05 -2.00405600e-04 -3.70868016e-04
      -3.32383905e-04 -4.62607932e-05 1.65235135e-04 2.03685180e-04
      1.91503976e-04 -8.22823422e-05 -1.17127151e-04 3.20966465e-05
      -1.87687201e-05 -8.08959812e-05 -1.79776180e-04 -3.31551651e-04
      -1.29789812e-04 8.12093713e-05 2.09657213e-04 2.09657213e-04
      2.53059756e-04 2.25193689e-05 -1.42005054e-04 -1.00023404e-04
      7.83274299e-06 -5.42945163e-05 -1.79776180e-04 -2.50655692e-04
      -1.01853082e-04 1.71207168e-04 2.09657213e-04 2.09657213e-04
      3.69660353e-04 7.09032902e-05 -1.03520957e-04 -1.05995445e-04
      7.83274299e-06 -8.08959812e-05 -1.73426044e-04 -1.57317350e-04
      -1.12861206e-04 -1.02337999e-05 1.41626966e-04 1.68606522e-04
      2.83122383e-04 4.58173236e-05 -5.06460710e-05 -5.61310044e-05
      -6.11805954e-05 -8.08959812e-05 -1.03077444e-04 -7.25279369e-06
      -8.79489598e-05 -8.79489598e-05 -4.94648630e-05 1.02237937e-05
      7.47850645e-05 -1.92682382e-05 -2.52402788e-05 -2.91514516e-05
      -6.11805954e-05 -4.24118771e-05 -1.05473773e-05 5.01885143e-06
      -6.09694107e-05 -6.09694107e-05 -8.79489598e-05 -8.79489598e-05
      3.07519840e-05 1.73927367e-06 8.24704548e-05 3.05372050e-05
      -2.26965003e-05 0. -4.24118771e-05 -3.84841005e-05 -1.09049484e-04
      -2.74591494e-05 -1.38232906e-04 -9.44273343e-05 -2.00114901e-05
      -3.66717395e-05 -1.81872947e-05 2.17193538e-05 -2.26965003e-05 0.
      -4.24118771e-05 0. 0. -4.44561410e-05 -4.44561410e-05
      -1.31630688e-04 -1.31630688e-04 -2.82128112e-05 6.43172534e-05
      2.05116885e-05 -2.39041638e-05 0. 0. -4.24118771e-05
      -4.24118771e-05 -4.24118771e-05 -4.24118771e-05 -4.24118771e-05
      1.39368876e-06 1.39368876e-06 1.39368876e-06 -4.24118771e-05 0.</_>
    <_>
      -7.75159860e-05 -7.75159860e-05 -2.70349083e-05 -2.70349083e-05
      -2.70349083e-05 -2.27355417e-06 -2.27355417e-06 -2.70349083e-05
      -2.70349083e-05 -2.70349083e-05 -2.70349083e-05 -4.75374691e-06
      -2.70349083e-05 -1.36199887e-04 -1.83399563e-04 -2.31363811e-04
      -1.22050857e-04 -2.08488957e-04 -1.84548466e-04 2.54546703e-05
      -1.20650860e-04 -3.32883705e-04 -7.42345801e-05 -4.75374691e-06
      -1.09164983e-04 -2.19626221e-04 -4.14572598e-04 -2.50012468e-04
      1.02434497e-04 5.52348247e-05 5.52348247e-05 -3.06271977e-05
      -1.76732734e-04 -1.80773553e-04 3.09521124e-06 -5.19534224e-05
      2.47613534e-05 -1.10461238e-04 -1.59457457e-04 9.29272665e-06
      1.61424236e-04 2.97380873e-04 1.13338596e-04 3.88536391e-05
      -1.76732734e-04 -1.80773553e-04 -1.62151642e-04 -1.89997609e-05
      2.47613534e-05 5.53885511e-05 1.16983225e-04 1.78895687e-04
      3.31027200e-04 1.98381851e-04 2.96743412e-04 1.48018618e-04
      -1.54451569e-04 -3.19801649e-04 -1.06916814e-04 -1.89997609e-05 0.
      2.47613534e-05 6.58541758e-05 1.76732734e-04 1.80773553e-04
      1.85405763e-04 2.40513255e-04 1.26918982e-04 -4.87723082e-05
      -1.48052306e-04 -5.08349513e-05 2.81999146e-05 0. 0. 0.
      3.06271977e-05 1.46601815e-05 1.85405763e-04 1.45173777e-04
      -5.17268345e-05 3.07416085e-05 -4.90451857e-05 1.05529711e-04
      5.04810778e-05 0. 0. 0. -5.52348247e-05 -1.35475930e-04
      6.74709954e-05 -8.06111930e-05 9.73332208e-05 1.46572973e-04
      5.83300352e-05 1.27810868e-04 5.04810778e-05 0. 0. 0.
      -5.52348247e-05 -8.06792523e-05 -1.01129364e-04 -7.25760474e-05
      2.07474339e-04 1.83727185e-04 8.06111930e-05 1.06711232e-04
      1.06711232e-04 0. 0. 0. -1.32645349e-04 4.72932297e-05
      -9.30942188e-05 7.75600711e-05 3.60459933e-04 4.09512169e-04
      2.42667869e-04 1.06711232e-04 1.06711232e-04 0. 4.04082766e-06
      2.14043976e-04 2.53167618e-05 -2.04881799e-05 -1.87433048e-04
      1.33641937e-04 3.02516186e-04 4.56711859e-04 4.56711859e-04
      1.68623694e-04 1.10752058e-04 4.04082766e-06 4.04082766e-06
      1.57962102e-04 2.53167618e-05 -3.70606576e-05 -1.64941812e-05
      1.93391446e-04 3.98568605e-04 4.56711859e-04 4.56711859e-04
      1.68623694e-04 1.10752058e-04 0. 0. 9.40644968e-05 -3.05456997e-05
      -2.13442210e-04 -1.46983410e-04 2.26459051e-05 2.35765125e-04
      4.23441437e-04 1.87240250e-04 1.06711232e-04 1.06711232e-04 0.
      3.52269817e-05 1.20650860e-04 -3.95933193e-06 -2.17483044e-04
      -7.82986390e-05 6.58047502e-05 2.31724305e-04 3.04543588e-04
      3.04543588e-04 1.31472581e-04 1.06711232e-04 2.47613534e-05
      3.52269817e-05 7.34511850e-05 -3.95933193e-06 -1.61401171e-04
      -7.82986390e-05 1.60143580e-04 3.40889295e-04 3.04543588e-04
      1.93665051e-04 1.31472581e-04 1.31472581e-04 2.47613534e-05
      2.47613534e-05 -3.13205128e-05 -1.45465077e-04 -9.19203376e-05
      -3.67909815e-05 2.69308570e-04 2.41826274e-04 9.63420680e-05
      1.31472581e-04 1.31472581e-04 1.06711232e-04 0. 0. 0. 0.
      -9.69037137e-05 -5.97495055e-05 0. 0. 2.10996404e-05 0.
      5.04810778e-05 5.04810778e-05 0. 0. 0. 0. 0. 0. 0. 0. 0. 0. 0. 0.</_>
    <_>
      0. -6.65749831e-05 -1.51333325e-05 -1.51333325e-05 -1.51333325e-05
      -1.51333325e-05 -1.51333325e-05 -1.51333325e-05 -1.51333325e-05
      -1.51333325e-05 5.14416497e-05 5.14416497e-05 5.14416497e-05
      -1.51333325e-05 -3.95695024e-05 -2.45309551e-04 -7.62447453e-05
      -3.81552891e-05 -1.97916379e-05 1.21000681e-04 9.64108985e-05
      6.92824542e-05 2.56415697e-05 5.14416497e-05 0. 6.28439084e-05
      7.63497155e-05 -7.62447453e-05 8.02283466e-05 1.41457655e-04
      1.98791124e-04 2.48541946e-05 1.19158840e-05 8.04185402e-05
      6.49668291e-05 5.14416497e-05 0. 6.28439084e-05 1.29199107e-04
      2.60163488e-05 1.73430686e-04 4.50788677e-04 4.12852824e-04
      9.81171615e-05 -1.32352588e-05 -1.28759988e-04 1.27401538e-04
      5.14416497e-05 0. 4.07869593e-05 9.98579126e-05 -5.48955541e-05
      -1.18636990e-05 1.51651009e-04 3.74553143e-04 1.53870831e-04
      -1.45451399e-04 -1.65498801e-04 -2.88776500e-05 5.14416497e-05
      -3.60238446e-05 1.03752327e-05 2.02241808e-05 -3.49429669e-04
      -2.30883481e-04 3.99296987e-05 1.51614659e-04 1.23687510e-04
      -1.31951732e-04 -2.59708522e-05 -3.51183844e-05 5.14416497e-05
      -3.60238446e-05 -1.59692310e-04 -5.36064181e-05 -3.30425653e-04
      -1.83459488e-04 5.86870237e-06 1.12527196e-04 1.41300494e-04
      -1.09427550e-04 -2.59708522e-05 -2.52427053e-05 1.54178051e-05
      -1.02598831e-04 -1.59692310e-04 -4.18094656e-04 -5.40332112e-04
      -2.41689864e-04 -1.20424513e-04 -6.30910508e-05 1.37828261e-04
      -7.03287369e-05 -1.30237793e-04 -1.49151150e-04 1.54178051e-05
      -1.02598831e-04 -3.89868539e-04 -4.54118504e-04 -4.60806477e-04
      -1.00135963e-04 -6.14385590e-06 1.67085178e-04 1.98791124e-04
      -7.03287369e-05 -3.41201376e-04 -1.89991406e-05 -2.36865399e-05
      -6.65749831e-05 -2.96751212e-04 -3.21134343e-04 -4.56535898e-04
      -2.24644227e-05 5.07985424e-05 1.08132008e-04 3.40231054e-04
      -1.45451399e-04 -3.13891011e-04 -8.59749634e-05 4.72216598e-05
      -1.02598831e-04 -2.67606112e-04 -3.58599063e-04 -3.98092059e-04
      1.49868210e-05 7.59496834e-05 3.21252970e-04 2.18435278e-04
      -1.01971542e-04 -1.45451399e-04 3.47326059e-05 2.08331185e-04
      9.33950432e-05 -1.19331737e-04 -3.22575215e-04 -3.26303794e-04
      -8.85853879e-05 1.12884096e-04 1.56717884e-04 3.65978281e-04
      1.00132980e-04 4.39499308e-05 9.62710837e-05 1.72307336e-04
      -3.60238446e-05 -1.82175645e-04 -2.15067877e-04 -2.08929661e-04
      -9.51438924e-05 3.54525364e-05 3.54525364e-05 2.66636605e-04
      3.74671159e-04 9.66215084e-05 -1.54413152e-04 4.28884414e-05
      -3.60238446e-05 -1.04987383e-04 -2.37124827e-04 -2.37124827e-04
      -7.68329483e-06 1.98299331e-05 6.15284225e-05 2.39757035e-04
      1.88158781e-04 5.29206864e-06 -8.96853671e-05 4.28884414e-05 0.
      -2.30855348e-05 -1.03693405e-04 -2.73148675e-04 -2.73148675e-04
      -2.78453845e-05 3.80806596e-05 9.23645712e-05 4.60669726e-05
      1.17653843e-04 2.12828327e-05 7.89122860e-05 0. 0. -2.51511428e-05
      -2.11055347e-04 -1.03693405e-04 -2.15815206e-04 -1.75040303e-04
      4.36792434e-05 1.78435457e-05 2.70039618e-06 4.35436741e-05
      7.89122860e-05 0. 0. 0. 0. -1.07052991e-04 -2.13120962e-04
      -1.27588675e-04 -5.18563174e-05 -3.56860728e-05 6.74718976e-05
      1.18913551e-04 5.14416497e-05 0. 0. 0. 0. 0. 0. 0. 0.
      6.31562725e-05 0. 0. 0.</_>
    <_>
      0. 0. -2.97539355e-05 -2.97539355e-05 -2.97539355e-05
      -2.97539355e-05 -2.97539355e-05 -2.97539355e-05 -2.97539355e-05
      -2.97539355e-05 5.81659042e-05 5.81659042e-05 6.47612032e-05
      -2.97539355e-05 -2.97539355e-05 -2.69835640e-04 -7.55671135e-05
      -1.07772670e-04 -1.59319970e-04 5.26887197e-06 7.52867199e-05
      4.44234211e-05 2.50524783e-04 5.81659042e-05 -9.45151405e-05
      -7.50658728e-05 -2.59266410e-04 -1.69420819e-04 -9.92632195e-05
      9.62585545e-05 3.34596843e-04 -2.37611366e-05 -9.31909890e-05
      9.72236303e-05 1.32343266e-04 5.81659042e-05 -9.45151405e-05
      -7.90940467e-05 -1.10371897e-04 -1.06894542e-04 -1.03731647e-04
      3.31186719e-04 4.49092011e-04 2.15402921e-04 8.74262332e-05
      4.90212842e-05 -5.90833006e-05 5.81659042e-05 -9.45151405e-05
      -2.14833082e-04 -1.70278974e-04 -1.30293192e-04 2.41932765e-04
      3.85426974e-04 2.64371891e-04 4.14166949e-04 -3.29662398e-05
      -1.99867703e-04 -5.90833006e-05 5.81659042e-05 -9.45151405e-05
      -4.61061609e-05 -5.12035913e-04 -3.26706126e-04 -1.63561184e-04
      3.84586921e-04 4.31072607e-04 2.70265475e-04 -1.06444886e-05
      -2.58364191e-04 -6.57191122e-05 -3.63492327e-05 -9.45151405e-05
      -8.72584133e-05 -3.76473065e-04 -3.26706126e-04 -1.27481704e-04
      1.44505233e-04 1.90990904e-04 2.99922569e-04 -1.06444886e-05
      -2.58364191e-04 -3.55309341e-04 -3.63492327e-05 0. -2.66606366e-04
      -3.34071141e-04 -2.83570902e-04 -1.51222936e-04 8.31541547e-05
      1.90990904e-04 3.95261188e-04 -7.70767583e-05 -4.09819244e-04
      -9.06347414e-05 -4.95878194e-05 0. -9.67998931e-05 -3.83484468e-04
      -3.34071141e-04 -6.19588245e-05 1.87116584e-05 1.28029333e-05
      1.58647061e-04 -1.73909182e-04 -1.82976131e-04 -1.57056318e-04
      -4.93580228e-06 0. 0. -2.38075983e-04 -3.34071141e-04
      -6.38983838e-05 2.35479038e-05 -2.52735743e-04 2.09640654e-20
      -1.93783577e-04 -1.43085752e-04 -1.22041572e-04 -4.93580228e-06 0.
      1.94492659e-05 7.63891803e-05 -2.41278671e-04 -3.34465964e-04
      -3.57235607e-04 -3.70681548e-04 -2.48181332e-05 4.62981116e-05
      1.09933957e-04 1.30508211e-04 1.09028602e-04 1.94492659e-05
      1.94492659e-05 7.63891803e-05 1.89383863e-04 -8.17516484e-05
      -1.77077673e-04 -2.52735743e-04 2.15263557e-04 7.59551986e-05
      -6.01031679e-05 1.67207501e-04 1.09028602e-04 0. 0. 1.94492659e-05
      4.91063511e-05 2.13232852e-04 1.24720944e-04 -1.82588643e-04
      4.53289613e-05 1.53819929e-04 2.51115300e-04 8.29840355e-05
      8.29840355e-05 0. 0. 1.93783577e-04 1.93783577e-04 1.71461827e-04
      1.47716361e-04 -1.63148434e-05 8.72307792e-05 1.03400860e-04
      2.85605900e-04 1.12641123e-04 8.29840355e-05 0. 0. 1.93783577e-04
      1.93783577e-04 1.71461827e-04 6.72152382e-05 -6.62737511e-05
      1.09552529e-04 2.55412102e-04 3.80121026e-04 8.29840355e-05
      8.29840355e-05 0. 0. 0. 0. 1.69177074e-04 -3.53270407e-05
      -4.39520009e-05 1.18473094e-04 3.53878189e-04 9.09988157e-05
      8.29840355e-05 8.29840355e-05 0. 0. 0. 0. -2.28475756e-06
      -1.88409365e-04 -1.25902588e-04 1.92358872e-04 2.87697505e-04 0.
      5.81659042e-05 5.81659042e-05 0. 0. 0. 0. -2.28475756e-06
      -1.07753724e-04 0. 0. 0. 0. 0. 0.</_>
    <_>
      1.96727797e-05 -1.86708585e-05 5.25316364e-06 5.25316364e-06
      5.25316364e-06 5.25316364e-06 5.25316364e-06 5.25316364e-06
      5.25316364e-06 5.25316364e-06 -1.86708585e-05 -3.83436382e-05 0.
      -4.41523571e-06 -8.98751750e-05 -6.92334288e-05 -1.00506208e-04
      6.87341308e-05 6.87341308e-05 6.87341308e-05 -8.67737072e-06
      -8.35606916e-05 -1.58048952e-05 2.39240217e-05 2.39240217e-05
      4.93313346e-05 -8.19841534e-06 -1.11226373e-05 3.39990111e-05
      1.77264119e-05 -3.28063907e-05 -5.48774296e-05 -1.06352627e-05
      -7.41028780e-05 -7.73426291e-06 9.41296021e-05 2.39240217e-05
      1.28476415e-04 7.45132929e-05 5.91457319e-05 9.18623264e-05
      5.38015229e-05 -1.67239559e-04 -7.88014513e-05 -2.39240217e-05
      -1.77746570e-05 -1.51114236e-05 4.88285841e-05 2.39240217e-05
      1.04092825e-04 1.72093220e-04 1.48169187e-04 -3.22962296e-05
      -8.28290358e-05 -2.34916675e-04 -2.11062681e-04 -3.62875253e-05
      1.51448694e-04 1.20272445e-04 -9.18297155e-06 0. 0. 0. 0.
      -8.88764407e-05 -9.21565588e-05 -3.24081222e-04 -2.05332763e-04
      2.07340054e-05 3.61678278e-04 1.37277297e-04 2.39240217e-05 0. 0.
      0. 0. -9.21565588e-05 -2.14258485e-04 -1.69240331e-04
      -1.01239944e-04 8.24973104e-05 2.29245139e-04 1.37277297e-04
      2.39240217e-05 0. 7.02055841e-05 7.02055841e-05 1.54808949e-05
      -1.35310729e-05 -1.09838642e-04 -1.39149299e-04 -1.49374493e-04
      -2.49206687e-06 4.35882102e-05 3.62875253e-05 0. 7.02055841e-05
      7.02055841e-05 9.41296021e-05 6.76146956e-05 9.97187017e-05
      -4.98617919e-06 -3.28784517e-05 -2.79414362e-05 -8.74343241e-05
      -1.55348447e-04 -6.48128480e-05 -8.88764407e-05 7.02055841e-05
      7.02055841e-05 1.28069281e-04 2.68466421e-04 1.99759219e-04
      1.28383690e-04 5.16030013e-05 -6.01149150e-05 -2.26532313e-04
      -1.87135767e-04 -1.91080268e-04 -8.88764407e-05 9.41296021e-05
      9.41296021e-05 2.68466421e-04 3.30419396e-04 3.36466794e-04
      4.01845551e-04 2.55718507e-04 1.18388220e-04 -1.48390493e-04
      -3.36893136e-04 -2.80799868e-04 -1.24721191e-04 9.41296021e-05
      9.41296021e-05 3.30419396e-04 3.30419396e-04 4.13782720e-04
      2.73385609e-04 2.11432620e-04 9.17402067e-05 -2.28108747e-05
      -1.96871391e-04 -2.84678303e-04 -1.24721191e-04 2.39240217e-05
      4.55567242e-05 1.25106249e-04 2.43080707e-04 3.61771265e-04
      2.27652781e-04 6.91085661e-05 5.85217833e-07 -2.14354252e-04
      -2.97769177e-04 -1.67986174e-04 -1.19207234e-05 2.39240217e-05
      6.49821231e-06 3.11716431e-05 1.38459000e-04 1.38459000e-04
      4.12162917e-05 -9.05417910e-05 -7.77711975e-05 -1.48440507e-04
      -1.48860359e-04 -1.29390552e-04 2.39240217e-05 2.39240217e-05
      -4.66751808e-05 4.12067566e-05 8.10392703e-06 1.25234219e-05
      -3.66374916e-05 -7.77711975e-05 -2.92880450e-05 -9.22801482e-05
      -7.67711299e-06 7.29628664e-05 2.39240217e-05 0. -6.04545930e-05
      1.11050631e-05 3.72027330e-06 3.72027330e-06 -1.73275577e-04
      -1.73275577e-04 -1.03683204e-04 -1.03683204e-04 -1.45896447e-05
      8.58770072e-05 0. 0. -1.09134480e-05 -5.54463077e-05
      4.92619222e-07 -1.39622243e-05 -2.63672773e-05 -2.63672773e-05
      7.80080939e-07 2.88736487e-06 6.21657018e-05 6.04740626e-06 0. 0.
      0. 0. 6.04740626e-06 1.05645722e-05 5.10728823e-05 9.63739003e-05
      9.63739003e-05 4.51216511e-05 0. 0. 0.</_>
    <_>
      8.13262886e-05 8.13262886e-05 8.36625914e-05 1.10763613e-04
      4.42864075e-05 1.02247010e-04 1.02247010e-04 1.10763613e-04
      1.10763613e-04 8.36625914e-05 8.13262886e-05 0. 0. 2.33629771e-06
      8.03904986e-05 1.06792781e-04 1.36450341e-04 1.61285076e-04
      1.61039265e-04 1.72896383e-04 2.92770448e-04 2.34493622e-04
      8.36625914e-05 2.33629771e-06 2.33629771e-06 8.30497447e-06
      1.05597603e-04 2.08533806e-04 2.00022361e-04 1.08666092e-04
      1.49753178e-04 2.14424188e-04 3.02457018e-04 2.92770448e-04
      1.10763613e-04 8.36625914e-05 2.33629771e-06 8.30497447e-06
      1.88463178e-04 1.87649377e-04 1.75696492e-04 1.28085783e-04
      1.48555278e-04 2.82167457e-04 3.35940567e-04 4.49909363e-04
      2.34493622e-04 8.36625914e-05 2.33629771e-06 1.50289023e-04
      2.16233821e-04 1.46015940e-04 -5.39999783e-05 -1.34557398e-04
      -8.46119365e-05 -1.56828464e-05 1.48485822e-04 3.19960091e-04
      3.85887804e-04 2.94373222e-05 0. 0. -7.49938044e-05
      -8.69466894e-05 -2.01034607e-04 -8.46119365e-05 -1.16328178e-04
      -9.10459057e-05 1.50822118e-04 2.00576789e-04 1.07340158e-04
      2.94373222e-05 0. -8.51660207e-06 -7.49938044e-05 -9.02872125e-05
      -5.32311133e-05 -8.33079866e-06 6.20052670e-05 1.49267595e-04
      9.21494720e-05 7.42659977e-05 1.07340158e-04 2.94373222e-05 0.
      6.33248510e-06 -5.62040123e-06 -1.86014033e-04 -7.27663501e-05
      -1.66706341e-05 1.60909894e-05 4.34038047e-05 2.51780402e-05
      -1.20226767e-04 1.07840548e-04 2.71010249e-05 7.28096929e-05
      6.33248510e-06 -1.65984369e-04 -4.31087974e-05 -1.66706341e-05
      9.93990325e-05 1.35698574e-05 -1.22774683e-04 -2.70555931e-04
      -1.56513997e-04 2.71010249e-05 0. 7.28096929e-05 -5.81030690e-05
      -5.77356914e-05 -3.71401220e-05 -9.79969263e-05 6.12839867e-05
      -1.03274841e-04 -2.19959242e-04 -4.13622125e-04 -2.08982499e-04 0.
      0. 8.66878236e-06 2.73918831e-05 -1.03617327e-04 -2.17457891e-05
      1.16977848e-04 2.86531049e-05 -2.60469151e-05 -2.05732831e-05
      -1.90667808e-04 -1.80109259e-04 -2.12860847e-04 0. 8.66878236e-06
      -4.37858471e-05 -5.11346589e-05 -3.67876200e-05 6.41409060e-05
      2.33385963e-05 1.99980732e-05 -8.36192557e-05 -1.50096457e-04
      -1.03379556e-04 -1.24918413e-04 -8.51660207e-06 -6.41409060e-05
      -1.67070593e-05 4.43259378e-05 4.56589769e-05 8.24465969e-05
      1.12412657e-04 5.02195689e-05 -1.90912295e-04 -2.43220420e-04
      -3.28776281e-04 -2.18762962e-05 2.33629771e-06 -6.41409060e-05
      4.57572014e-06 4.34911090e-05 8.02787326e-05 -3.75520031e-05
      -7.98079127e-05 -2.03857868e-04 -4.36594448e-04 -4.70760337e-04
      -4.18277661e-04 -2.93072735e-05 -6.41409060e-05 2.94373222e-05
      3.28787683e-05 7.17941584e-05 1.19654913e-04 1.19654913e-04
      4.31386070e-05 4.31386070e-05 -2.58888467e-04 -4.70760337e-04
      -1.43715806e-04 -2.59667504e-05 2.33629771e-06 2.71010249e-05
      3.05424692e-05 7.51346815e-05 8.48212730e-05 8.48212730e-05
      4.20649812e-05 3.87244581e-05 -9.24924243e-05 -2.07027042e-04
      -9.12044925e-05 2.33629771e-06 0. 2.71010249e-05 2.71010249e-05
      3.05424692e-05 1.03617327e-04 7.65162986e-05 7.65162986e-05
      7.31757755e-05 -1.41124829e-05 6.69857400e-06 6.59765146e-06 0. 0.
      0. 2.71010249e-05 2.71010249e-05 2.71010249e-05 6.38886413e-05
      6.38886413e-05 6.38886413e-05 6.05481218e-05 2.37605018e-05
      -3.93761802e-05 2.71010249e-05 0.</_>
    <_>
      4.43213394e-05 2.89228774e-05 3.28001006e-05 4.34107096e-05
      4.34107096e-05 4.34107096e-05 4.34107096e-05 4.34107096e-05
      4.34107096e-05 3.28001006e-05 2.14367756e-05 -1.53984620e-05
      -6.59896341e-06 -1.81202013e-05 -1.52721361e-04 -4.84916090e-05
      -8.24230956e-05 4.99990529e-05 4.99990529e-05 4.99990529e-05
      -3.15027937e-05 -2.70349337e-05 -6.28245471e-05 3.87722366e-06
      -2.72173975e-06 -1.81202013e-05 -3.44062100e-05 4.75996967e-05
      5.55441657e-05 5.55441657e-05 5.55441657e-05 5.55441657e-05
      8.75426304e-06 -1.12593871e-05 -3.76945973e-05 6.22836305e-05
      -2.72173975e-06 -7.49399851e-06 -5.58878673e-05 -6.54402465e-05
      -4.34107096e-05 -4.34107096e-05 -9.47922399e-06 4.06265281e-05
      9.15468336e-05 5.38677305e-05 1.52361477e-04 2.41136786e-05
      -5.87099203e-05 6.11969790e-06 -1.18331423e-04 -1.63626231e-04
      -2.21356211e-04 -2.21356211e-04 -1.52979919e-04 -1.11289773e-04
      1.09000779e-04 2.76805571e-04 1.54994021e-04 -1.61960143e-05
      -5.46747870e-05 -1.36006202e-04 -3.55161290e-04 -3.89092776e-04
      -2.12640458e-04 -1.00633260e-04 -1.00633260e-04 -8.60985165e-05
      5.36076077e-05 3.06008471e-04 1.61909426e-04 2.43937047e-05
      -5.46747870e-05 -1.20607736e-04 -3.55161290e-04 -3.89092776e-04
      -2.97064136e-04 -2.95001300e-05 -1.61675471e-05 2.55226005e-05
      4.78542024e-05 1.79960683e-04 1.46510953e-04 1.77947422e-05
      -4.80758208e-05 -1.35013515e-05 -1.24175363e-04 -1.86618927e-04
      -1.05439482e-04 8.52080484e-06 -5.11163453e-05 -5.00392998e-05
      -8.35527953e-06 7.48236489e-05 5.41943518e-05 -1.13868155e-05
      5.09203019e-05 3.57082245e-05 3.84516934e-05 1.11694513e-04
      1.32051253e-04 1.97041067e-04 -1.32284695e-05 5.10260325e-05
      -5.20526082e-05 -2.17276363e-04 -2.23628173e-04 -6.25871471e-05
      5.09203019e-05 5.09203019e-05 1.85113575e-04 2.46060023e-04
      2.20354370e-04 1.83721029e-04 1.43032754e-04 1.27205552e-04
      -1.91231549e-04 -2.87750183e-04 -2.15456588e-04 -7.00732489e-05
      6.22836305e-05 6.03072258e-05 8.93484830e-05 1.75650028e-04
      2.98360799e-04 2.58576416e-04 1.93953063e-04 2.32457867e-04
      -1.27796535e-04 -2.84783629e-04 -1.20350567e-04 -7.00732489e-05
      6.22836305e-05 5.37082633e-05 1.07964159e-04 1.79661671e-04
      2.82104796e-04 2.57672509e-04 2.32457867e-04 1.14639748e-04
      -3.04552814e-05 -1.61753866e-04 -4.15948853e-05 -7.00732489e-05
      1.13633259e-05 -2.71911522e-05 2.70647470e-05 1.10607471e-04
      1.74861969e-04 1.45635684e-04 5.33527382e-05 -1.09017674e-05
      -7.99442860e-05 -1.86466961e-04 -3.31002730e-06 -3.30356052e-05
      1.13633259e-05 1.84972832e-05 4.35714865e-05 2.12228570e-05
      1.06122488e-05 -4.10798857e-05 -1.21809899e-04 -9.65952568e-05
      -2.24971765e-04 -4.18148338e-05 5.80012238e-05 7.55411565e-06
      2.19739359e-05 6.57547389e-06 9.45975553e-05 1.67323800e-04
      4.52216482e-05 -1.90328537e-05 -9.65952568e-05 -1.17065290e-04
      -9.94086622e-06 -1.98174112e-05 8.37344996e-05 3.87722366e-06
      1.06106090e-05 1.06106090e-05 2.76980227e-05 3.41532359e-05
      3.41532359e-05 -3.98209777e-05 -8.94080949e-05 -8.94080949e-05
      -8.28091361e-05 -1.98469479e-05 2.90918633e-05 0. 1.06106090e-05
      3.12450675e-06 -1.82440217e-05 7.17014700e-06 -3.44046202e-06
      -3.44046202e-06 5.90030941e-05 5.95217243e-05 5.74167098e-05
      7.32439075e-05 1.64755074e-05 0. -7.48610228e-06 3.12450675e-06
      -1.27026924e-05 -4.58143040e-05 1.84401997e-05 4.49176950e-05
      6.82309983e-05 1.17818119e-04 3.70881025e-05 1.06106090e-05
      1.06106090e-05 0.</_>
    <_>
      6.42134692e-05 6.42134692e-05 8.63446840e-05 8.63446840e-05
      8.63446840e-05 8.63446840e-05 2.19878311e-05 2.19878311e-05
      5.00424212e-05 8.63446840e-05 6.42134692e-05 0. 0. 2.21312184e-05
      3.48189897e-05 4.60078809e-05 1.02890939e-04 7.85911325e-05
      4.59487055e-05 -2.83576151e-06 1.09712491e-04 1.54416630e-04
      8.63446840e-05 2.21312184e-05 2.21312184e-05 3.48189897e-05
      4.92913678e-05 1.78867311e-04 1.26315965e-04 1.05430452e-04
      -1.71968131e-05 -9.35562002e-06 1.27529027e-04 1.68423197e-04
      9.75335715e-05 8.63446840e-05 2.21312184e-05 4.60078809e-05
      1.41211480e-04 1.02929145e-04 4.41321463e-05 -5.20158028e-05
      -9.90324552e-05 1.06545986e-05 2.08976082e-04 2.53155886e-04
      1.54416630e-04 8.63446840e-05 2.21312184e-05 8.10449346e-05
      1.00092300e-04 6.41908919e-05 -2.07869627e-04 -2.54886283e-04
      -1.49553642e-04 3.31680749e-05 1.51147222e-04 2.78123945e-04
      2.02141455e-04 2.21312184e-05 0. -3.63022627e-05 -7.81270428e-05
      -1.43339872e-04 -2.78123945e-04 -2.13910491e-04 -1.20810459e-04
      4.38824645e-05 1.48165069e-04 2.78123945e-04 1.25246341e-04
      2.21312184e-05 0. -5.00724564e-05 -7.81270428e-05 -2.78123945e-04
      -2.13910491e-04 -1.32865549e-04 -3.74648043e-05 1.00383564e-04
      1.52032531e-04 1.77608221e-04 1.25246341e-04 2.21312184e-05
      -3.63022627e-05 -1.39135791e-05 -1.43030222e-04 -2.13910491e-04
      -1.32865549e-04 -6.32947267e-05 -1.24224694e-04 -6.69387227e-05
      2.37193472e-05 3.64310908e-05 7.69042672e-05 0. 2.79112046e-05
      -1.39135791e-05 -1.91779269e-04 -7.59824979e-05 -6.32947267e-05
      -5.46306110e-05 -6.79905643e-05 -8.90541705e-05 -1.24626065e-04
      -9.12690084e-05 -8.15783715e-05 -5.00724564e-05 -1.39135791e-05
      -9.49785390e-05 -7.59824979e-05 -2.69924622e-05 -2.93796656e-05
      9.85641454e-05 5.01525792e-05 -2.96561284e-05 -1.45156140e-04
      -2.07302088e-04 -1.68455110e-04 -5.00724564e-05 8.21763842e-06
      -5.10325808e-05 -6.32947267e-05 3.83939223e-05 2.14110594e-04
      1.51384855e-04 1.27508189e-04 1.37901225e-04 -1.62237175e-05
      -2.16628934e-04 -2.18245725e-04 -5.00724564e-05 8.21763842e-06
      -3.06052898e-05 4.34561753e-06 6.16315956e-05 2.30547404e-04
      1.75233014e-04 1.71949534e-04 1.11938294e-04 1.09402554e-05
      -1.04924322e-04 -1.66664293e-04 -5.00724564e-05 -4.22256344e-05
      -2.41994512e-05 -6.21218060e-05 3.50535447e-05 9.33134361e-05
      1.55650021e-04 1.62896060e-04 7.52114938e-05 -4.82147188e-05
      -1.12141373e-04 -4.28774401e-05 -4.48069368e-05 -4.22256344e-05
      1.98525977e-05 8.73714725e-06 -2.40054796e-05 -2.40054796e-05
      -3.87176515e-05 -3.57835524e-05 -6.29270653e-05 -1.18065014e-04
      -1.43894940e-04 -4.16559596e-05 -3.10367468e-05 -5.92337256e-06
      -1.41710443e-05 -1.18459448e-05 5.90031304e-05 4.54031615e-05
      -8.40167122e-05 -8.40167122e-05 -8.40167122e-05 -7.64509896e-05
      -1.79082199e-05 3.29988234e-06 -5.92337256e-06 0. -2.80545901e-05
      3.68433903e-05 1.93323012e-06 7.83006908e-06 -9.73187198e-05
      -9.73187198e-05 -5.25461437e-05 -7.36357906e-05 -7.55826914e-05
      -2.63988341e-06 -2.80545901e-05 0. -2.80545901e-05 3.28348915e-06
      6.32947267e-05 1.16254296e-06 1.16254296e-06 -3.79037992e-05
      -3.79037992e-05 -2.09165910e-06 2.01511484e-05 -2.80545901e-05
      -2.80545901e-05 0. 0. -2.80545901e-05 -2.80545901e-05
      8.71897009e-06 8.71897009e-06 8.71897009e-06 8.71897009e-06
      -1.62490942e-05 -2.80545901e-05 -2.80545901e-05 0.</_>
    <_>
      -1.05282423e-04 -1.05282423e-04 -1.05282423e-04 -7.37272057e-05
      -1.04204686e-04 -1.04204686e-04 -1.04204686e-04 -1.04204686e-04
      -1.04204686e-04 -1.35759910e-04 -1.05282423e-04 -1.11318244e-04
      -3.26891313e-04 -1.12376489e-04 5.78811560e-05 4.82114920e-05
      1.28121654e-04 1.18122531e-04 1.18122531e-04 1.18122531e-04
      -1.19325043e-04 -2.15152482e-04 -2.56439991e-04 -2.36008767e-04
      -1.38196920e-04 2.57696865e-05 -1.97303190e-04 -9.04825574e-05
      -3.76789794e-05 -2.21078109e-04 -3.95506155e-04 -3.31514573e-04
      -8.43484086e-05 -2.57339794e-04 -4.30640648e-04 -2.61622568e-04 0.
      3.91047448e-04 -1.08284927e-04 1.89010680e-05 7.17046496e-05
      -1.13606955e-04 -6.73976261e-04 3.45364970e-05 -3.15552170e-05
      -1.92698877e-04 -5.06197801e-04 -1.80103219e-04 0. 3.93511509e-05
      1.03245293e-04 1.03245293e-04 6.38941419e-05 -4.74241024e-05
      -2.90370139e-04 -1.86694917e-04 -1.67049089e-04 7.97630273e-05
      -1.18656630e-04 -1.42762117e-04 0. 0. 0. 0. 0. -2.41996298e-04
      -9.70120236e-05 1.81981432e-05 -1.34184214e-04 3.04544606e-04
      1.87557598e-04 -4.68981452e-05 0. 0. 0. 0. -2.68290605e-05
      9.06781861e-05 4.73212458e-05 -4.83607262e-04 -2.21380906e-04
      3.36406956e-04 2.12682382e-04 3.15552170e-05 0. 1.78702234e-04
      1.78702234e-04 2.72277044e-04 5.65470909e-05 1.09429922e-04
      -3.34177457e-04 -4.35037800e-04 3.30302573e-04 3.29582836e-04
      2.45502451e-04 3.15552170e-05 1.78702234e-04 1.78702234e-04
      2.62338173e-04 3.05435417e-04 1.97288580e-04 -9.59776662e-05
      -5.82752982e-04 -6.92666072e-05 2.35799351e-04 1.31461493e-04
      8.43587986e-05 0. 1.78702234e-04 2.62338173e-04 4.42312390e-04
      5.52126614e-04 3.29037248e-05 -4.38556133e-04 -1.03107355e-04
      -9.78133467e-05 1.06408799e-04 2.45502451e-04 0. 0. 1.78702234e-04
      2.62338173e-04 9.42810613e-04 1.97288580e-04 3.14257166e-04
      1.06098189e-04 1.56723458e-04 1.39675656e-04 3.11554963e-04 0. 0.
      0. 1.78702234e-04 2.87896895e-04 5.75543439e-04 4.01489669e-04
      1.61889518e-04 -3.86088177e-05 1.55448448e-04 2.09071790e-04
      5.45097806e-04 4.23840684e-04 3.93511509e-05 0. 0. 5.23481111e-04
      8.00601119e-05 1.11948146e-04 -1.05198516e-04 -8.46455223e-05
      -2.66053048e-05 2.56387517e-04 2.44244206e-04 1.22987083e-04
      3.41310952e-05 0. 0. 2.33903789e-04 9.77776217e-05 -1.12343580e-04
      -3.22202366e-04 -3.67648900e-04 -1.53698551e-04 1.19487289e-04
      4.16596216e-04 2.51508754e-04 3.41310952e-05 0. 3.15552170e-05
      2.33903789e-04 -6.85817213e-05 -1.43898797e-04 -2.01679268e-05
      3.22872977e-04 3.91115551e-04 4.85786499e-04 5.64239861e-04
      5.26056974e-04 2.19442707e-04 0. 3.15552170e-05 -6.26578330e-05
      2.16172411e-04 -1.13062633e-04 1.24599785e-04 9.79841134e-05
      1.97834306e-04 2.76287668e-04 2.76287668e-04 2.76287668e-04
      1.85311597e-04 0. 3.15552170e-05 -6.26578330e-05 1.48407475e-04
      3.84670420e-04 3.18582373e-04 4.63152974e-04 4.90234932e-04
      4.90234932e-04 4.37431328e-04 4.37431328e-04 3.81828722e-05 0. 0.
      3.15552170e-05 -6.26578330e-05 -5.49524375e-05 2.30881749e-04
      2.83685338e-04 2.83685338e-04 2.83685338e-04 8.43587986e-05
      3.15552170e-05 3.15552170e-05 0.</_>
    <_>
      1.16170493e-04 3.64600091e-05 6.69871588e-05 6.69871588e-05
      3.81255595e-05 3.81255595e-05 3.81255595e-05 3.81255595e-05
      6.69871588e-05 6.69871588e-05 1.16170493e-04 0. 0. -1.88720333e-05
      -1.22571328e-05 -6.09097260e-05 -1.29761305e-04 -9.03371547e-05
      -4.78349684e-05 -2.10211838e-05 -5.24560619e-06 1.38267889e-04
      6.69871588e-05 3.05271533e-05 3.05271533e-05 -4.77336325e-05
      1.44543999e-04 5.59419459e-05 3.82018188e-05 5.12268998e-05
      5.12268998e-05 -5.18159577e-05 -2.18947498e-05 5.13600862e-05
      9.66624139e-05 1.46697654e-04 3.05271533e-05 1.08032209e-05
      7.16010400e-05 -1.04315761e-04 -2.03654254e-05 1.92032108e-04
      1.46113351e-04 8.99206771e-06 3.38273821e-05 1.33415568e-04
      7.02650868e-05 1.46697654e-04 3.05271533e-05 8.90971351e-05
      2.72410944e-05 -2.91427132e-04 -4.27470484e-04 -2.36906140e-04
      -1.42256860e-04 -9.53308117e-05 -1.48071515e-04 9.56447475e-05
      2.11142236e-04 3.04387286e-05 -4.73146429e-05 -1.35587688e-04
      -3.01321154e-04 -6.03367342e-04 -5.52504440e-04 -3.11734708e-04
      -1.47424900e-04 -1.47669125e-04 -3.98141019e-05 1.95777800e-04
      8.36104373e-05 3.04387286e-05 -4.73146429e-05 -1.89835890e-04
      -2.11925639e-04 -6.03236724e-04 -3.71979404e-04 -3.16456935e-05
      8.06819080e-05 1.98317484e-05 -8.22432849e-05 7.40780815e-05
      1.38246600e-04 -5.52495658e-06 -1.27025123e-04 -2.78945263e-05
      -2.20726317e-04 -4.35596943e-04 -1.68733794e-04 -1.02346246e-04
      -1.04549399e-04 4.96327266e-06 -7.43850833e-05 -6.33892341e-05
      -1.04899045e-05 -3.60521080e-05 -1.08546337e-05 -1.52954119e-04
      -2.05170800e-04 -1.95014291e-05 -1.38474225e-05 -1.72847522e-05
      -7.85002048e-05 -1.21663412e-04 -2.48725089e-04 -2.40455585e-04
      -1.49870990e-04 -1.27025123e-04 3.64600091e-05 -8.85995905e-05
      3.56590026e-05 -9.66053922e-05 -1.72847522e-05 5.18383931e-05
      -5.03706106e-05 -2.23469731e-04 -5.35147323e-04 -5.85117959e-04
      -2.81264482e-04 -7.97104876e-05 1.96725196e-05 -4.57754722e-05
      -8.53898237e-05 -2.18590162e-06 3.46428424e-04 2.45041243e-04
      2.68279953e-04 7.68471364e-05 -3.71117174e-04 -5.23562543e-04
      -2.49601697e-04 0. 9.93830035e-05 2.51199322e-06 2.51489182e-05
      2.43833874e-05 2.54783372e-04 2.96615763e-04 1.66842699e-04
      7.22208861e-05 -1.95354238e-04 -2.18266374e-04 -1.04912891e-04
      -7.62646669e-05 -4.57375136e-05 -2.57726770e-05 3.00298889e-05
      -3.87523796e-05 1.80975418e-04 1.75812456e-04 9.07344656e-05
      6.99281154e-05 2.86866707e-05 -1.93652217e-04 -8.08116674e-05
      1.27993399e-05 -4.57375136e-05 -8.05224590e-06 -2.53124326e-05
      1.53063156e-05 1.95721557e-04 -2.02673004e-06 -2.76276351e-05
      5.72528843e-05 -7.49124083e-05 -2.52800412e-04 -2.13533625e-04
      1.27993399e-05 1.57712770e-06 -3.17328377e-05 3.46087654e-05
      -6.08699265e-05 -3.41332270e-05 6.65105326e-05 6.93363618e-05
      -3.88409790e-05 -1.40464297e-04 -4.52670356e-05 -2.36177184e-05
      1.57712770e-06 0. -2.39043584e-06 1.52583365e-04 -3.27508351e-05
      -4.39691648e-05 -2.09811260e-04 -2.09811260e-04 -7.47637969e-05
      -5.60461194e-05 -3.86787506e-05 5.07056120e-06 -2.89500258e-05 0.
      -2.88615993e-05 8.74292673e-05 9.86516679e-05 2.58978289e-05
      -4.62746466e-05 -4.62746466e-05 -4.62746466e-05 -5.71208111e-05
      1.30819855e-04 6.30045952e-06 0. 0. 0. 0. 6.38888469e-06
      1.79691815e-05 1.79691815e-05 1.79691815e-05 1.79691815e-05
      -1.55625912e-05 -1.75990681e-05 0. 0.</_>
    <_>
      7.44713907e-05 4.64663426e-05 2.34681247e-05 5.68938558e-05
      5.68938558e-05 5.68938558e-05 5.68938558e-05 5.68938558e-05
      7.35964495e-05 2.34681247e-05 4.64663426e-05 0. 0. -5.10032660e-05
      -5.96343925e-05 -1.29306587e-04 -7.45266152e-05 1.21691983e-05
      -4.58480645e-06 2.93585545e-05 -5.49896613e-05 -4.91502851e-06
      4.19155149e-05 -2.80050481e-05 -4.64524383e-05 -5.10032660e-05
      -2.57095933e-04 -1.75033259e-04 -1.59603311e-04 -6.42460363e-05
      1.09637942e-04 -1.54958025e-06 -3.98150660e-05 3.26122572e-05
      -6.38027996e-06 4.19155149e-05 -5.10032660e-05 -8.98071376e-05
      -2.76181701e-04 -1.90616047e-04 -4.70346858e-05 1.37098308e-04
      2.21484122e-04 1.45482598e-04 1.74758927e-04 -3.31998417e-05
      1.30783874e-05 5.75779231e-05 -1.24508384e-04 -1.27296094e-04
      -3.30673938e-04 -3.61803890e-04 -1.13455390e-04 -2.70580440e-05
      7.44713907e-05 6.89900698e-05 4.23543097e-05 -2.70372857e-05
      7.54378270e-05 4.72230613e-06 -9.65033323e-05 -2.46211304e-04
      -6.17509359e-04 -3.90152942e-04 -2.37569795e-04 7.44713907e-05
      7.96246823e-05 -1.79526921e-06 1.41973178e-05 2.18369569e-05
      -9.82306592e-05 -3.04276782e-05 -9.19525046e-05 -1.71418040e-04
      -4.15620336e-04 -3.94703762e-04 -2.02653275e-04 3.81887985e-05
      7.06052160e-05 5.99706000e-05 6.95402196e-05 -5.71852615e-05
      -1.56492082e-04 -4.56152775e-05 -7.35051144e-05 -1.91795800e-04
      -2.36434222e-04 -1.03455102e-04 -4.66351885e-05 3.66681052e-05
      3.93961909e-06 -1.41098808e-05 -3.85021622e-06 -2.23234005e-04
      -1.33626636e-05 -3.72646682e-05 9.66278321e-07 -8.23029695e-05
      -2.08470388e-04 4.44304214e-06 2.65831535e-04 -1.55313264e-05
      -1.13989212e-04 -5.67836760e-05 -2.51523976e-04 -1.30234956e-04
      -4.99089219e-05 -9.19525046e-05 7.44713907e-05 4.60102492e-05
      8.53844394e-05 6.48809291e-05 2.12573286e-06 -1.97134636e-06
      -1.70860774e-04 -3.47729889e-04 -3.69742047e-04 -1.64273762e-04
      -1.98916721e-04 -9.19525046e-05 7.44713907e-05 7.83752548e-05
      2.74224760e-04 1.36208721e-04 1.27015428e-05 -2.20356851e-05
      -2.34168081e-04 -2.38928711e-04 -1.91787054e-04 -1.65474077e-04
      -1.31625304e-04 -5.68025171e-05 7.44713907e-05 1.35177776e-04
      3.55535682e-04 4.18021635e-04 2.10924336e-04 5.68809337e-05
      1.49188290e-05 -1.36622721e-05 -2.67646392e-05 2.35428633e-05
      4.73235850e-05 0. 0. 6.57907367e-05 2.29626618e-04 3.56874370e-04
      4.65072691e-04 1.26857529e-04 1.20112876e-04 -8.55736216e-05
      -8.82857785e-06 7.57479647e-05 1.38235904e-04 1.56624083e-05 0.
      6.57907367e-05 2.19256748e-04 3.63686762e-04 2.61046371e-04
      4.40384356e-05 -1.98986425e-04 -2.18123503e-04 -1.28846252e-04
      -8.68684037e-06 7.54598659e-05 1.56624083e-05 5.01283248e-05
      5.01283248e-05 2.55488441e-04 2.89103045e-04 1.41965240e-04
      -9.65628642e-05 -2.18123503e-04 -1.47286657e-04 5.18081652e-05
      1.43853496e-04 9.74720388e-05 0. 5.01283248e-05 5.01283248e-05
      1.80028583e-04 1.77962414e-04 5.63380381e-05 -1.27326814e-04
      -1.47584447e-04 -8.27625918e-05 7.69659600e-05 9.36685537e-05
      6.83936305e-05 0. 5.01283248e-05 5.01283248e-05 1.17417942e-04
      2.06968980e-04 6.40908329e-05 7.72393541e-05 6.16674224e-05
      2.11908002e-04 2.07163437e-04 2.07163437e-04 5.94838166e-05 0. 0.
      5.01283248e-05 5.01283248e-05 5.28096243e-05 7.94834850e-05
      1.44995254e-04 2.14749220e-04 2.24237185e-04 1.32947782e-04
      6.32306910e-05 5.01283248e-05 0.</_>
    <_>
      0. 3.73259900e-05 3.73259900e-05 3.73259900e-05 -8.73088720e-06
      2.85924707e-05 2.83949830e-05 3.73259900e-05 3.73259900e-05
      3.73259900e-05 3.73259900e-05 3.73259900e-05 0. 0. 1.21938385e-04
      9.84772632e-05 9.99412732e-05 9.10102681e-05 1.11816960e-04
      1.18479431e-04 1.83324140e-04 1.38250281e-04 7.32556073e-05 0. 0.
      6.20807550e-05 1.67400794e-04 1.63742836e-04 1.54811831e-04
      8.82045861e-05 1.27993961e-04 2.44471274e-04 3.05651076e-04
      2.37981469e-04 6.17101978e-05 0. 0. 6.20807550e-05 9.65463696e-05
      5.04894924e-05 4.15584836e-05 8.19352499e-05 1.65319958e-04
      2.63256487e-04 1.93982705e-04 1.83552504e-04 6.02461914e-05 0. 0.
      0. 0. -5.47903946e-05 -7.19489326e-05 5.82253379e-05
      5.47739437e-05 1.61402480e-04 2.73165351e-05 4.47726779e-05 0. 0.
      0. 0. -4.60568772e-05 -5.49878823e-05 -4.56602756e-05
      7.73052016e-05 9.58145538e-05 1.32312140e-04 -8.42809168e-05
      -5.14031344e-05 0. 0. 0. 0. -5.49878823e-05 -1.09274923e-04
      7.18124138e-05 4.95641289e-05 1.28060114e-04 1.32312140e-04
      2.86740965e-06 -1.07201122e-04 0. 0. 0. -4.60568772e-05
      -7.20908574e-05 -2.09031277e-04 -1.17973985e-04 -1.82677250e-05
      9.07341309e-05 1.23797989e-04 2.98660216e-05 3.59078258e-05
      3.73259900e-05 0. -1.71029769e-05 -7.18933734e-05 -2.05979974e-04
      -1.63047836e-04 -1.23429098e-04 -1.17672998e-05 9.35151111e-05
      6.52726085e-05 2.20285256e-06 2.98660216e-05 9.58513701e-05
      3.73259900e-05 -1.71029769e-05 -1.04949591e-04 -2.72587233e-04
      -2.59594206e-04 -1.45747370e-04 3.06237816e-05 -4.79807422e-05
      -8.07392207e-05 -9.58513701e-05 8.04013689e-05 3.33899843e-05
      3.73259900e-05 -6.31598523e-05 -1.04949591e-04 -3.01399064e-04
      -2.59396707e-04 -2.40611524e-04 -1.77590962e-04 -1.44527105e-04
      -1.63047836e-04 -1.40925215e-04 2.75160855e-05 2.27802302e-05
      2.02230131e-05 -4.60568772e-05 -1.26152881e-04 -2.72792357e-04
      -3.05453606e-04 -2.59396707e-04 -2.44198221e-04 -2.02841155e-04
      -2.59594206e-04 -1.21631951e-04 -1.85407916e-05 8.21692738e-05
      2.02230131e-05 -5.49878823e-05 -6.14528690e-05 -1.14473034e-04
      -1.21416771e-04 -1.61123971e-04 -1.15067101e-04 -7.63429198e-05
      -2.18178320e-04 -6.31065705e-05 8.63973606e-20 -1.21090306e-05
      -8.73351837e-06 -4.62543649e-05 -5.22961673e-05 -2.18021505e-05
      -2.18021505e-05 -4.48393694e-05 -4.48393694e-05 -6.93991824e-05
      5.26264239e-06 -2.57805787e-05 -5.46140400e-05 1.38518517e-05
      -5.49878823e-05 0. 7.03952319e-05 1.00663910e-05 9.48474481e-05
      6.03818335e-05 1.20303586e-04 1.54769194e-04 3.33296448e-05
      -1.07376814e-04 -9.29127928e-05 -8.36022300e-05 0. 0.
      3.44656110e-05 1.50919412e-04 1.35842172e-04 1.35842172e-04
      8.83671382e-05 5.93063924e-05 4.03237063e-05 -2.28361478e-05
      -4.71941639e-05 -8.73351837e-06 0. 0. 0. 1.22326950e-04
      1.22326950e-04 1.22326950e-04 1.22326950e-04 1.15861963e-04
      1.45431277e-05 -4.71941639e-05 -5.47903946e-05 0. 0. 0. 0. 0. 0.
      2.23182706e-05 0. 0. -1.53959918e-05 -1.53959918e-05
      -5.47903946e-05 0. 0.</_>
    <_>
      1.92536281e-05 4.57352144e-05 4.57352144e-05 4.57352144e-05
      4.57352144e-05 4.57352144e-05 4.57352144e-05 4.57352144e-05
      4.57352144e-05 4.57352144e-05 6.33567906e-05 4.41031625e-05
      -4.11266265e-05 -5.93847944e-05 1.00395184e-04 7.87264071e-05
      -9.28186710e-05 5.87690702e-05 5.87690702e-05 5.87690702e-05
      2.34021005e-04 -1.45176062e-04 8.31201251e-05 0. -4.15317190e-05
      1.36491726e-04 1.06103667e-04 1.20601391e-04 -1.30065033e-04
      -1.30065033e-04 -8.73063473e-05 3.86146312e-05 1.49457192e-04
      -6.46565968e-05 -1.37493247e-04 7.48373423e-05 -4.15317190e-05
      -6.70488880e-05 -2.32041464e-04 -2.51312391e-04 -3.25780653e-04
      -8.73325480e-05 3.92033195e-04 4.39299474e-04 4.49950370e-04
      1.26260085e-04 -2.04274329e-06 5.48479475e-05 -8.76129998e-05
      -1.08368295e-04 -5.02799347e-04 -6.48241956e-04 -3.50676128e-04
      1.40975499e-05 5.69429831e-04 6.77880074e-04 3.49876907e-04
      1.09709690e-04 -9.83700884e-05 -2.30185251e-05 -6.15211102e-05
      -2.19582260e-04 -6.14013348e-04 -8.90771626e-04 -2.60838802e-04
      1.25697494e-04 3.57907877e-04 4.24766651e-04 1.15087736e-04
      -5.00020324e-05 -2.39101446e-05 0. -4.38995339e-05 -1.72353073e-04
      -6.14013348e-04 -8.90366558e-04 -2.51108577e-04 1.23987265e-04
      1.85943427e-04 1.40526303e-04 -6.82654645e-05 -4.41961602e-05
      -6.37896883e-05 -2.39101446e-05 -1.99893911e-05 -7.40695541e-05
      -1.76712594e-04 -4.76447749e-04 -1.12217813e-05 2.36801949e-04
      6.69654473e-05 4.08735577e-05 -3.32957970e-05 -4.18904310e-05
      -2.42067672e-05 -5.00020324e-05 0. 0. -4.75149318e-05
      -5.55587685e-05 1.48186373e-04 1.94661814e-04 1.56487105e-04
      2.20700604e-04 -2.18250043e-05 -3.36128869e-05 -2.96868064e-04
      3.99331730e-05 0. 0. 0. 0. 0. 1.11213965e-04 1.11213965e-04
      8.94743353e-05 7.44836580e-05 -1.12953734e-04 2.77217096e-05
      2.23116003e-05 0. -4.00652561e-06 -7.33708075e-05 -5.22335067e-05
      0. 0. 0. 0. -2.58782587e-04 -9.29643429e-05 6.09976014e-05
      5.41847985e-05 0. -4.50474472e-05 -1.14521499e-04 -1.14521499e-04
      -7.33708075e-05 0. 0. 0. 6.65836706e-06 -4.71765270e-05
      1.33611320e-04 5.10724531e-05 0. -1.14085572e-06 -5.42066664e-05
      -7.69759572e-05 -1.14521499e-04 -9.06113492e-05 -1.26392435e-04
      -2.32196508e-05 -6.28567359e-05 2.96461532e-20 -1.56143098e-04
      -1.14741551e-05 0. -2.72327452e-05 1.97077679e-04 -1.45499886e-04
      -1.45499886e-04 -2.50556768e-04 -1.45499886e-04 4.99036978e-05
      -4.47521634e-05 7.69477265e-05 -3.38771110e-06 -1.76215744e-05 0.
      5.68734904e-05 4.22498561e-05 2.04188735e-04 -6.89246517e-05
      4.99036978e-05 -2.06444674e-05 1.01221267e-04 -2.61118275e-05
      -3.71372407e-05 5.34884703e-06 0. 4.05091612e-07 4.05091612e-07
      1.05110877e-04 8.61353838e-05 3.60444028e-05 -5.95416095e-05
      -3.86633219e-05 -1.11253044e-04 5.45311877e-06 6.41976731e-05
      4.05091612e-07 0. 4.05091612e-07 -2.22125236e-05 7.87296231e-05
      1.77139773e-05 1.77139773e-05 5.45311877e-06 4.82484720e-05
      1.26819301e-04 -6.94884948e-05 4.05091612e-07 0. 0. 0.
      4.05091612e-07 -2.65243507e-05 5.34884703e-06 -1.34298789e-05
      7.58516107e-05 1.08506712e-04 4.05091612e-07 4.05091612e-07 0. 0.
      0.</_>
    <_>
      2.88441079e-05 7.07579457e-05 7.07579457e-05 7.07579457e-05
      7.07579457e-05 7.07579457e-05 -5.64140510e-06 -5.64140510e-06
      1.12376745e-06 7.07579457e-05 7.07579457e-05 4.19138414e-05 0.
      2.88441079e-05 7.52787819e-05 2.24167365e-04 2.06476354e-04
      1.62310345e-04 1.45056081e-04 -9.34718628e-06 1.45624203e-04
      1.25656356e-04 7.07579457e-05 0. 0. 1.57796283e-04 2.54206010e-04
      2.62206449e-04 1.85807090e-04 1.68552826e-04 -2.94382335e-05
      -5.75982404e-20 2.14073021e-04 2.10230544e-04 4.19358148e-05
      1.30917097e-05 0. 6.38061101e-05 1.26380895e-04 6.30732466e-05
      -5.52961101e-05 -5.82823413e-05 -5.75982404e-20 8.20333735e-05
      3.11000797e-04 1.43133861e-04 3.07827249e-05 1.30917097e-05 0. 0.
      -7.42671036e-05 -6.83989201e-05 -2.46341602e-04 -9.83315476e-05
      4.85249730e-05 3.11000797e-04 1.39472599e-04 3.87831569e-05
      1.30917097e-05 0. 0. -6.75019328e-05 -7.63993521e-05
      -1.49530766e-04 -1.94371009e-04 -5.14335807e-05 1.43973421e-06
      2.65462440e-04 1.25329194e-07 0. 0. 0. 0. -6.96341813e-05
      -8.58873391e-05 -3.87862790e-04 -1.06331980e-04 -1.30917097e-05
      7.76627076e-06 1.33920665e-04 9.27662622e-05 1.12376745e-06 0. 0.
      -6.75019328e-05 -7.63993521e-05 -2.25693249e-04 -3.70171765e-04
      -1.38306772e-04 -4.19138414e-05 -4.19138414e-05 2.27517921e-05
      -2.80421827e-05 4.59282746e-05 1.12376745e-06 0. -6.96341813e-05
      -8.58873391e-05 -3.87862790e-04 -3.06365662e-04 -2.48390192e-04
      -7.97731554e-05 4.78695438e-05 -6.97791911e-05 -4.55751033e-05
      -2.17156467e-05 6.24225577e-05 1.12376745e-06 -7.63993521e-05
      -2.17926980e-04 -3.87862790e-04 -3.20360850e-04 -1.20951117e-04
      8.17312830e-05 8.17312830e-05 2.50454068e-05 -2.45018964e-05
      1.39951442e-06 6.49938083e-05 1.12376745e-06 -7.63993521e-05
      -2.25693249e-04 -3.87862790e-04 -2.46797805e-04 0. 0. 0.
      4.10644061e-05 -4.23286037e-05 -7.07579457e-05 -3.32981363e-05
      1.42154768e-05 -7.63993521e-05 -2.25693249e-04 -3.13595694e-04
      -2.39031535e-04 0. 0. 0. 0. 8.71704106e-05 2.55880932e-05
      4.69746155e-05 1.42154768e-05 -7.63993521e-05 -1.29475142e-04
      -3.12770717e-04 -2.39031535e-04 -1.23251171e-04 -6.34157332e-05
      3.24049215e-05 8.81622182e-05 8.50921788e-06 6.76517266e-06
      -7.89322803e-06 -6.33076415e-05 -5.12165061e-05 -1.14943694e-04
      -6.38275160e-05 -1.57087765e-04 -1.54955531e-04 -7.27883235e-05
      -1.69111663e-05 3.96578071e-05 -1.12106900e-05 -4.42031305e-05
      3.28056012e-05 -7.63993521e-05 -8.89741841e-06 -2.67603191e-05
      -9.02050033e-06 -4.77898320e-05 -6.54808464e-05 -3.39103681e-05
      -1.62193537e-05 4.97936780e-05 -1.07154323e-04 -3.12220654e-05
      -7.61651900e-05 -8.89741841e-06 0. 8.79359595e-06 9.11014067e-05
      7.16390641e-05 5.38113673e-05 -7.61258634e-05 -6.34754397e-05
      -1.72587424e-05 -7.31359032e-05 -5.12825791e-05 -8.89741841e-06
      -6.76517266e-06 0. 6.32653655e-06 9.24565902e-05 1.37340350e-04
      5.25841642e-05 5.25841642e-05 -1.20814675e-05 -2.59347939e-06
      -9.75694002e-06 -8.89741841e-06 -6.76517266e-06 -6.76517266e-06 0.
      0. -6.76517266e-06 6.32653655e-06 3.75300579e-06 1.17534373e-05
      -8.96986876e-07 -8.89741841e-06 -6.76517266e-06 -6.76517266e-06
      -6.76517266e-06 0.</_>
    <_>
      -7.26634171e-05 -3.21987245e-05 -3.21987245e-05 -3.21987245e-05
      -3.21987245e-05 -3.21987245e-05 -3.21987245e-05 -3.21987245e-05
      -3.21987245e-05 -3.21987245e-05 -3.21987245e-05 -6.85336272e-05
      -6.64459076e-05 -5.50301957e-06 -7.55208885e-06 5.59207583e-05
      -7.27261213e-05 -7.27261213e-05 -7.34878122e-05 -6.73261457e-05
      -2.68614494e-05 -9.78111857e-05 -1.59985193e-05 -6.64459076e-05
      2.44231669e-05 9.04627996e-06 -6.64376421e-05 -3.02981903e-06
      -3.02981903e-06 -1.78494356e-05 3.28019923e-05 -1.99514525e-05
      -7.11507676e-20 -2.80839686e-05 7.08757216e-05 -8.25904863e-05 0.
      -1.16257706e-05 -4.40002186e-05 -4.40002186e-05 -4.40002186e-05
      1.31381157e-05 6.12782533e-05 -3.80687402e-06 -7.11507676e-20
      -6.85486593e-05 -1.37717900e-04 -3.04611076e-05 0. 0. 0. 0.
      4.04646926e-05 -6.34009348e-06 8.47583069e-05 4.85190249e-05
      -1.19200093e-04 -8.78564388e-05 -1.11582907e-04 -1.48196159e-05 0.
      0. 0. 0. 1.03419909e-04 1.15444127e-04 1.64094250e-04
      4.85190249e-05 -5.71564633e-05 -1.31511217e-04 -3.94548006e-05 0.
      0. 0. 0. 0. 1.44372694e-04 1.64094250e-04 1.77189053e-04
      -7.11507676e-20 -8.67522976e-05 2.35795997e-05 0. 0. 0. 0. 0.
      -9.46347154e-06 -1.06822234e-04 1.25837134e-04 -2.43201157e-05
      1.12480688e-04 9.69669927e-05 1.75435955e-04 9.11161187e-05 0. 0.
      0. 0. -8.06489406e-05 -1.62445634e-04 -5.00054994e-05
      -9.48860106e-05 1.02677201e-04 1.99122966e-04 2.44608702e-04
      1.26847750e-04 9.11161187e-05 0. 0. -1.43165289e-05
      -1.30238201e-04 -2.27644879e-04 -1.78029673e-04 -1.26765430e-04
      2.04215994e-05 3.12132033e-04 3.33646109e-04 2.31917395e-04
      1.47985062e-04 0. 0. -1.43165289e-05 -1.81888114e-04
      -2.70310789e-04 -3.58429825e-04 -1.97117362e-04 -1.11212925e-04
      2.35510743e-04 3.19443090e-04 3.45426291e-04 1.47985062e-04 0. 0.
      -3.33340249e-05 -1.81888114e-04 -2.86455353e-04 -3.00618238e-04
      -1.97117362e-04 -3.42738240e-05 1.19702476e-04 3.70094494e-04
      4.24762227e-04 1.47985062e-04 0. 5.06514261e-05 4.32561028e-05
      -2.43015875e-05 -2.26768621e-04 -2.30200341e-04 -7.08690641e-05
      1.04377781e-04 2.85421469e-04 4.10559209e-04 2.75324011e-04
      5.68689429e-05 0. 3.63348991e-05 1.22592042e-04 1.17989570e-04
      -1.97446807e-05 -5.93269579e-05 3.69152440e-05 2.59910041e-04
      3.25886183e-04 3.33522621e-04 1.48329840e-04 5.68689429e-05 0.
      5.63492313e-06 6.16661346e-05 1.37941024e-04 5.18566849e-05
      9.62053091e-05 2.50845827e-04 2.10501952e-04 3.23959976e-04
      2.24672563e-04 5.68689429e-05 0. 0. 8.52183148e-05 1.01837184e-04
      1.09163797e-04 4.53857065e-05 1.41589742e-04 2.63543829e-04
      1.84207878e-04 1.84207878e-04 9.95348455e-05 0. 0. 5.68689429e-05
      8.52183148e-05 1.69891340e-04 1.69891340e-04 1.69891340e-04
      1.84207878e-04 1.84207878e-04 9.95348455e-05 4.26659026e-05 0. 0.
      0. 0. 0. 4.25524122e-05 4.25524122e-05 8.33030663e-06
      4.26659026e-05 4.26659026e-05 4.26659026e-05 0. 0. 0. 0.</_>
    <_>
      4.02223377e-05 2.25986860e-05 2.25986860e-05 -1.23606906e-05
      -1.23606906e-05 -1.23606906e-05 -1.23606906e-05 -1.23606906e-05
      3.85011435e-06 2.25986860e-05 4.91070314e-05 9.39988422e-06
      5.15192198e-07 -3.01200316e-06 1.29721506e-04 8.99021034e-05
      -6.07533948e-05 7.27074394e-06 3.06435177e-05 4.46555314e-05
      9.13904514e-05 9.65773361e-05 3.73751027e-05 5.84174813e-07
      5.15192198e-07 1.09206885e-05 1.56236172e-04 7.23424891e-05
      5.33011444e-05 3.87069958e-05 7.84141448e-05 4.45796868e-05
      6.39803038e-05 2.06517376e-04 4.81106217e-05 3.22556734e-05 0.
      -1.19841991e-06 -5.48913013e-05 -1.55125410e-04 -1.07736647e-04
      1.62143100e-04 3.57178593e-04 6.13746670e-05 4.06075342e-05
      9.70413384e-05 6.36779441e-05 3.22556734e-05 0. -8.40252324e-05
      -2.69643293e-04 -3.53277079e-04 -1.19662211e-04 2.92863770e-05
      3.21060390e-04 2.25125114e-04 -4.91070314e-05 -8.98830767e-05
      -3.77444303e-05 0. -3.05501089e-05 -7.01336903e-05 -3.01903463e-04
      -4.37023293e-04 -2.61798647e-04 -1.25338531e-07 2.80140463e-04
      9.68722889e-05 -1.44201840e-04 -1.83119890e-04 -1.12156500e-04 0.
      -3.05501089e-05 -8.09464182e-05 -1.61849122e-04 -4.59880888e-04
      -2.20519170e-04 1.12748887e-04 1.59598712e-04 5.52016827e-05
      -9.52059563e-05 -1.45619153e-04 -5.52016827e-05 -3.05501089e-05
      -5.75736449e-05 -5.75736449e-05 -2.01595540e-04 -3.89809633e-04
      -1.72535685e-04 4.34547692e-05 5.82311877e-05 5.82311877e-05
      -6.49357607e-05 -7.40320866e-06 -1.85240406e-05 -3.05501089e-05
      -5.75736449e-05 -1.49744068e-04 -2.18133631e-04 -3.15141748e-04
      -1.20972807e-04 -3.88511035e-05 1.75642970e-06 3.74762135e-06
      -4.04174853e-06 -2.73634996e-05 -3.74762135e-06 -8.46661533e-06
      -2.70235378e-05 -1.37942523e-04 -1.96318579e-04 -3.71752220e-04
      -3.05092894e-04 -1.88735430e-05 5.00025490e-05 3.17691702e-05
      -6.38834463e-05 -8.48605050e-05 3.20449653e-05 2.26676675e-05
      -7.63222197e-05 -2.10026759e-04 -4.23933932e-04 -4.45174082e-04
      -2.12022715e-04 -1.22213925e-04 -4.06075342e-05 -9.06132409e-05
      -7.83728319e-05 -4.91070314e-05 5.45635739e-05 8.85751797e-05
      -6.55094846e-05 -1.41229117e-04 -3.93383845e-04 -4.15379269e-04
      -2.00800350e-04 -1.19193959e-04 -1.19193959e-04 -1.19193959e-04
      1.27870208e-05 7.61422343e-05 9.42486367e-05 7.01441750e-05
      -6.55094846e-05 -8.90925803e-05 -2.11791106e-04 -2.29047248e-04
      -2.28698205e-04 -1.19193959e-04 1.02170525e-05 1.46748007e-05
      1.59789299e-04 1.12565656e-04 -4.09267413e-05 -2.61103214e-05
      -6.10517382e-05 -2.96764138e-05 -1.43962607e-04 -1.22246463e-04
      5.20619142e-05 1.43070856e-05 8.31831785e-05 1.47570696e-04
      1.94083143e-04 2.50323465e-05 2.72385987e-05 -4.62457210e-05
      -1.62108045e-05 -2.94368710e-05 -6.77473799e-05 -4.52513232e-05
      -1.07665299e-04 2.19796493e-05 1.05208877e-04 4.87161742e-05
      -1.02170525e-05 3.28382739e-05 7.23206085e-07 0. 5.15192198e-07
      2.45156079e-05 8.53815509e-05 6.60028963e-05 -4.35013499e-05
      -2.20561251e-05 -3.82669277e-05 7.06531428e-05 1.18344751e-05
      1.53155288e-05 -8.27078547e-05 0. 5.15192198e-07 1.65600632e-05
      1.12050438e-04 1.94086591e-04 1.80569390e-04 4.23845850e-05
      4.23845850e-05 6.11331561e-05 -4.04990387e-05 -1.56956121e-05 0.
      0. 0. 5.15192198e-07 5.15192198e-07 3.27708658e-05 -9.06731566e-06
      1.11916073e-04 1.11916073e-04 -1.56956121e-05 5.15192198e-07 0. 0.
      0.</_>
    <_>
      5.24391680e-07 3.01144883e-05 -2.35279404e-05 -2.35279404e-05
      -4.08751512e-05 -4.08751512e-05 -4.08751512e-05 -2.35279404e-05
      -2.35279404e-05 -2.35279404e-05 3.01144883e-05 2.95900954e-05 0.
      -5.31180376e-05 -9.59192585e-06 -2.76098690e-05 -1.19635879e-05
      -5.51712692e-05 -5.51712692e-05 -3.20360450e-05 1.59264691e-05
      6.02373348e-06 5.60477674e-05 0. -5.36424268e-05 -6.45286491e-06
      -5.52281199e-06 -1.48077345e-06 -2.59976132e-05 7.81963827e-05
      1.30804910e-04 5.30521174e-05 1.02120619e-04 5.21775728e-05
      7.00347227e-05 0. -5.36424268e-05 -1.19900084e-04 -1.51146523e-04
      -1.58316150e-04 -9.68123277e-05 1.07953565e-05 2.15873297e-04
      2.04059746e-04 1.23073769e-04 -9.05267189e-06 -6.57488499e-06 0.
      -5.36424268e-05 -2.09920559e-04 -2.37162647e-04 -2.33582497e-04
      -1.88880967e-05 7.62879354e-05 2.40332331e-04 3.10360047e-04
